[[[[-2.0033882   0.7417538   1.685072   -2.0066497  -0.5925622
     2.6557276 ]]

  [[-2.7943668  -3.940321    6.4669175   2.4718955   2.2625587
     1.5272855 ]]

  [[-0.12575102 -1.9197149   2.0759022  -2.9834812   0.7402027
     0.94130033]]]


 [[[-1.9021423  -0.9034711   0.09903225 -2.3141503   1.6294876
     2.017427  ]]

  [[-8.033642   -8.22898     5.5554004   7.4559507   9.963095
    -1.832045  ]]

  [[-2.1127133  -8.309666    0.07960702 -0.29202923  3.5452387
    -2.1630726 ]]]


 [[[-0.86642635  0.72962576 -1.9875939  -3.256817    0.8303322
     0.9386078 ]]

  [[-6.9002795  -0.38641462 -0.645426    2.317252    5.0685287
    -2.3823571 ]]

  [[-0.82006556  0.6151173  -0.5838273   0.08943556  2.9125419
    -2.7989755 ]]]]
[ 0.7652184   0.2822977  -0.41890746 -1.1526643  -0.35456178  0.10652672]
[[[[ 0.9493023   1.046457   -0.622792    0.57541376  0.24864723
    -1.1577319 ]
   [ 0.11805093  0.6676868  -0.7018309  -0.67584556  0.20927554
    -0.6987353 ]
   [-0.3014408  -0.7560735   1.0243487   0.4527794   0.55905753
     0.7223311 ]
   [-1.2795417  -0.99908763  0.73678267  2.7318904  -0.26611462
    -1.4718121 ]
   [-0.70425    -0.23300795 -0.31755066  0.7856832  -0.85097414
    -0.2298813 ]
   [ 1.7611792   0.07781626  1.2753834  -0.6563498   1.0811086
     1.4155319 ]]

  [[ 0.2573323   0.16543317 -0.8328191  -0.54275006  0.20906034
    -1.0295072 ]
   [-2.790346   -0.29894942 -0.7688011  -0.7436057   0.21705867
    -0.47526553]
   [ 0.0558293  -0.5523359   0.46636337  0.56071925  0.4050689
     0.40006077]
   [ 1.1322905  -0.23481472  1.0357683   0.7921271   0.26725283
    -1.2843424 ]
   [ 0.08141021  0.8407012  -1.2610321   1.3481317  -1.5438049
    -1.3839489 ]
   [-1.2611554  -0.73408175  1.2813389  -0.377886    0.6164553
     1.4592224 ]]

  [[-0.8017783  -0.6843641  -0.8552728  -0.6546218   0.5069804
    -0.12653099]
   [-2.0639756  -0.659672   -0.41323072 -0.68545514  0.81601316
     0.08671062]
   [ 0.41588196  0.06961512  0.25772354 -0.01685193 -0.12405769
    -0.44305563]
   [ 0.42889968  0.1284692  -0.91884536 -0.2545205  -1.0322995
    -1.3444599 ]
   [ 0.11736619  0.9667626  -0.6191772   0.7417562  -0.93748873
    -0.95492435]
   [-0.90363413 -1.4492625   0.8586198  -0.595112    0.02853219
     0.8282752 ]]]


 [[[ 0.9679973   0.35050297  1.9151207   0.5045618   1.0540386
     0.38938186]
   [-0.09471768 -0.84303504  1.5545112  -0.44391498  1.4937838
     1.3858403 ]
   [-0.24559297 -0.4884686  -0.0177956  -0.21020378  0.4627004
     0.4305054 ]
   [-1.953834    0.23035851 -0.93943036  1.3965311  -0.7229197
     0.11922028]
   [-0.1973312   0.08014435 -1.0113175   0.45795545 -0.16361558
    -0.42227894]
   [ 2.122835   -0.4878152   1.0976659  -0.6156345   0.72598046
     1.5039655 ]]

  [[ 0.24809775 -1.2944397   1.3410873  -0.525513    1.188153
     0.8762444 ]
   [-1.8680867  -2.1351128   1.4764329  -1.2427326   1.2801985
     1.1362807 ]
   [ 0.3035436  -0.4552263  -0.54266495  0.9445419  -1.3136803
    -0.68251014]
   [ 0.45499837  0.5479181  -1.2870321   0.8038163  -0.944169
    -0.243398  ]
   [ 0.39438307  0.777278   -1.335911    0.77637863 -0.82586956
    -0.9591592 ]
   [-1.2588092  -0.33470094  0.32375455 -0.37311324  0.5587869
     0.2536769 ]]

  [[ 0.35500073 -1.649299    1.8463795  -1.7210151   1.1820815
     1.1596043 ]
   [-1.0120621  -1.4384315   1.2003506  -1.1984394   0.8669897
     1.0875207 ]
   [ 0.34873992  0.5388458  -0.09096248  0.28961334 -0.41453955
    -0.05475147]
   [ 1.7840748   0.75090724 -1.1121663  -0.5953637   0.13303366
    -1.2532563 ]
   [ 0.2308061   1.0697283  -0.47539157  0.8476754  -0.07395442
    -0.9833439 ]
   [-1.0438317  -1.2109122   0.91667163 -0.55007356  0.14879684
     1.0837966 ]]]


 [[[ 0.61509055  0.8200699  -0.6311786   0.38806316 -0.9917842
    -0.19647966]
   [-0.48093408  0.44180536  0.3369746  -0.9157939   0.01387546
     0.13877325]
   [-0.5868311  -0.25967848 -0.34549412  0.21909377  0.0293919
    -0.63047916]
   [-1.5955461  -0.13254927 -1.5874072   0.7170165  -0.22961411
    -1.2834412 ]
   [ 0.07045539 -0.3961101  -0.16000813  0.11082385  0.37871367
    -0.8959565 ]
   [ 1.0579596   0.17671853  0.04476713 -0.08282373 -1.173794
    -0.27400398]]

  [[-0.9519513   0.29530907 -0.0858512  -0.16085513 -0.8042602
    -0.66610485]
   [-0.90173465 -0.8947962   0.54965943 -0.9375831   0.5453371
    -0.00774218]
   [-0.12137669  0.4668263  -0.9013524   0.38339037 -1.1596783
    -1.1263912 ]
   [-0.32953164  0.33704194 -1.3391637   0.4629948  -1.5250494
    -1.0492228 ]
   [ 0.03116102  0.22444135 -1.1861516   0.27864736 -0.20649436
    -1.2486111 ]
   [-0.9947712   0.87695855 -0.29579487  0.43601406 -0.9274566
    -0.89999163]]

  [[-1.299173   -0.288217    0.07849734 -1.0860981  -0.8116918
    -0.4707326 ]
   [ 0.1284498  -0.08408914  0.27207544 -1.4837472   0.46578106
     0.4964226 ]
   [-0.09418045  0.45761487 -1.4633119   0.9960861  -0.9815621
    -1.4014634 ]
   [ 1.529968    0.23669615 -1.495977    0.61499614 -0.51545435
    -0.8672091 ]
   [ 0.2781587   0.29904583 -0.27828577  0.15123153  0.41204694
    -0.99481183]
   [-0.7579553   1.2479475  -0.5291793   0.05275812 -1.2491431
    -0.5519791 ]]]]
[-0.09831552 -0.06457503 -0.08959897  0.05452998  0.19310582  0.06152926]
[[[[-0.29389268 -2.2687664  -0.91766566  4.141872   -3.950472
     0.21646774]]

  [[ 1.5846349   2.4867625  -1.4606197   3.9781559  -1.6244266
    -2.635421  ]]]


 [[[-0.7186724  -0.8868825   0.3430068   2.340982   -0.7531823
     1.2125202 ]]

  [[ 1.3844196   2.4097714  -1.5514859   2.167097    0.9551978
    -1.3150524 ]]]]
[-1.9136645  -2.1611884   0.14309672  0.13110492  0.1887095   0.37379616]
[[[[ 7.35581666e-02 -2.65857764e-02  1.19098186e-01 -3.77165899e-02
    -6.90239191e-01  1.45237875e+00 -1.02236770e-01 -1.85804904e-01
     4.23920304e-01 -5.77460051e-01]
   [ 2.13401422e-01  9.82271284e-02 -5.33337116e-01 -5.38175941e-01
    -1.79396808e-01  2.55099833e-01  2.01761186e-01 -2.17012808e-01
     3.33958358e-01 -4.22619954e-02]
   [ 1.13505404e-02 -2.72642434e-01  7.85891831e-01 -4.51605141e-01
     3.19056034e-01 -7.72738457e-01 -3.80264461e-01  1.10461020e+00
    -7.15565264e-01 -6.78961635e-01]
   [-3.78972948e-01  4.43677902e-02 -5.24902463e-01 -5.91298223e-01
     6.04906827e-02  2.65229754e-02  3.10288787e-01 -1.15776777e-01
     2.20290665e-02 -2.64053345e-01]
   [-8.29757750e-01  5.45746446e-01  5.31568408e-01  5.36722124e-01
     5.48595488e-01 -1.09875488e+00  7.06919208e-02 -1.63805991e-01
    -7.98703015e-01 -5.42004228e-01]
   [-4.49905634e-01 -9.28258598e-01  1.47794592e+00  2.09429815e-01
    -8.46557170e-02 -2.61068821e-01 -7.10043013e-02  1.67610192e+00
    -1.39032924e+00 -1.85132384e-01]]

  [[ 9.16786119e-02  5.61302364e-01  9.36706483e-01  2.84079820e-01
    -5.78043818e-01  2.79314518e-01  2.11552858e-01  8.24684501e-01
    -4.59039330e-01  1.31229293e+00]
   [-1.09855823e-01  2.04574680e+00  1.34258494e-01  1.44241765e-01
    -6.24436378e-01 -1.22817385e+00 -1.27946126e+00  1.45207737e-02
    -6.41520083e-01  4.69366014e-01]
   [ 2.58078814e+00 -1.87681925e+00 -9.25135732e-01  3.43559086e-01
    -1.58574909e-01  1.48592329e+00  1.07002878e+00  1.76526964e+00
     8.30970228e-01 -1.03299189e+00]
   [-3.60633671e-01  1.35468364e+00 -3.85662854e-01 -2.59133488e-01
    -1.06967402e+00 -1.02945602e+00 -1.88860834e+00 -2.50743091e-01
    -3.51609409e-01  5.28221250e-01]
   [ 2.06036377e+00 -1.17582941e+00 -1.22135527e-01  5.77388048e-01
    -4.87493545e-01  6.80752873e-01  4.20296639e-01  2.80722618e+00
     1.07024562e+00 -4.22881305e-01]
   [ 2.33476877e+00 -5.19398928e-01 -1.25297457e-01 -1.47639260e-01
     6.42769277e-01  9.49137330e-01  1.18719625e+00  1.27827060e+00
    -6.23258650e-02 -5.52937627e-01]]

  [[ 2.16835946e-01 -1.17906295e-01 -4.05115969e-02  1.01408613e+00
     2.72259235e-01  7.29344666e-01  9.92507517e-01  9.24236178e-02
     5.55564523e-01 -2.61559904e-01]
   [ 3.15185994e-01  9.46441479e-03 -1.87925592e-01  6.87917471e-01
     2.39266545e-01  1.09218657e-01  2.41659824e-02 -6.13771141e-01
     1.81661770e-01 -1.62417933e-01]
   [ 2.50693947e-01 -6.75161108e-02 -7.67296851e-01 -1.19273114e+00
     3.51170540e-01  6.68193221e-01  4.56455946e-02  6.22523785e-01
     8.52310538e-01 -7.03809023e-01]
   [ 3.42732761e-03  6.12212360e-01 -3.89296204e-01  2.68185675e-01
    -1.58278778e-01 -3.88950437e-01 -3.25856030e-01 -8.60313922e-02
    -3.85078937e-01  5.68176150e-01]
   [ 1.13256931e+00 -4.19086367e-01 -6.27769172e-01 -1.22079253e+00
     2.85982996e-01  1.74187660e+00  3.12985837e-01  4.27496523e-01
     5.74764848e-01  6.47783130e-02]
   [ 1.21383691e+00 -2.25748450e-01 -6.60231411e-01 -1.02886476e-01
     2.35500097e-01  1.03594470e+00 -7.93348774e-02  7.71748275e-02
     1.20051038e+00 -4.44523484e-01]]]


 [[[-2.72019386e-01 -9.39699471e-01 -1.21133886e-02  2.62031913e-01
    -8.12337816e-01 -4.96237218e-01  4.74400431e-01 -3.23900133e-01
    -5.72084308e-01 -5.46328545e-01]
   [-1.90146849e-01  2.69010037e-01 -1.98269263e-01 -4.32972997e-01
    -1.14829516e+00 -2.25441426e-01 -7.56435916e-02 -6.27347827e-01
    -3.68483454e-01 -7.04993233e-02]
   [-7.67480671e-01  5.22871986e-02  1.49060404e+00  7.28796780e-01
     8.08179259e-01  2.59281635e-01 -7.09369659e-01  1.10774195e+00
     3.20043340e-02 -4.31284867e-02]
   [-1.35333329e-01  2.27401525e-01 -5.93327224e-01 -9.40347016e-01
    -3.42751026e-01 -4.23101962e-01 -3.25480178e-02 -6.45349085e-01
    -5.15092432e-01 -4.51851904e-01]
   [-1.42676282e+00  6.97476029e-01  4.77884680e-01  1.11305509e-02
     1.25874305e+00  3.30736637e-01  1.29378378e-01 -8.49632978e-01
    -2.54597723e-01  4.51748908e-01]
   [-1.86249420e-01 -9.38578248e-02  2.32677865e+00  1.10639870e+00
     5.54161035e-02  4.28334111e-03  1.91225156e-01  1.70925772e+00
     5.33766031e-01 -2.45793983e-01]]

  [[-1.48566991e-01  1.98647285e+00  1.69072878e+00 -2.95579612e-01
    -9.50723350e-01 -4.66518313e-01 -4.45455194e-01 -1.30456433e-01
    -1.19628583e-03  9.38992202e-01]
   [-6.03192687e-01  2.56861973e+00  5.02658069e-01 -8.04285705e-02
    -1.18875337e+00 -4.66481268e-01 -2.84078330e-01  1.47611022e-01
    -7.91775510e-02  3.84000629e-01]
   [ 2.04083872e+00 -8.24621677e-01 -6.56055272e-01  3.75773340e-01
     3.64400268e-01  4.72139001e-01  6.31246686e-01 -1.74638778e-01
     1.45760214e+00 -8.46831799e-01]
   [-1.60494223e-01  1.20408261e+00 -1.12726927e-01 -4.51117843e-01
    -1.52557254e+00 -1.15994498e-01 -9.98856962e-01 -1.86344206e-01
    -2.83836126e-01  5.34744740e-01]
   [ 2.48552036e+00 -1.30984068e+00 -7.07839072e-01  5.11926949e-01
     3.58473659e-01  2.37113729e-01  6.91508949e-01  2.17646539e-01
     1.63024020e+00 -3.06657702e-01]
   [ 2.09435320e+00 -6.40416503e-01 -2.22641200e-01  6.51027977e-01
     6.79591820e-02  1.40397057e-01  2.18743160e-01 -8.97674859e-01
     1.96564216e-02 -4.82829928e-01]]

  [[ 5.40870130e-01 -1.29046468e-02  9.29643065e-02  2.04635334e+00
     8.91606033e-01  4.94905770e-01  5.57785928e-01 -9.20807645e-02
     1.93400145e-01  6.91805720e-01]
   [ 5.19546568e-01  5.40283620e-02  9.32698101e-02  7.70540416e-01
     1.78633437e-01  9.12868798e-01  3.09076697e-01  2.70710707e-01
     4.63522434e-01  1.18051517e+00]
   [-3.79107237e-01 -1.94936812e-01 -6.31628335e-02 -1.59732389e+00
     7.24552125e-02 -2.31172264e-01 -3.80923480e-01 -8.12061012e-01
     4.17357951e-01 -5.61724901e-01]
   [-3.97657543e-01  1.33287585e+00  1.63686946e-01 -8.60262886e-02
    -6.46514773e-01  3.01114351e-01 -4.01247323e-01  2.81589955e-01
    -5.02969325e-01  9.39771593e-01]
   [-1.54206324e+00 -4.83164191e-01 -8.99048567e-01 -1.56183171e+00
     3.38710070e-01 -3.19329560e-01  3.16753745e-01 -1.25727594e+00
    -2.51491547e-01 -9.53170955e-01]
   [ 6.77150726e-01 -2.13401631e-01  4.98352647e-01 -5.83370566e-01
    -2.46809311e-02 -4.71759737e-02 -3.48684579e-01 -1.21284020e+00
     7.61694968e-01 -3.51357073e-01]]]


 [[[-6.08271547e-02 -2.61815578e-01 -4.32594538e-01 -5.25276475e-02
     6.82401717e-01 -1.88345030e-01  3.49533260e-01 -5.12687452e-02
    -1.09931797e-01 -9.05725896e-01]
   [-2.61276722e-01  5.76625884e-01 -2.57986367e-01 -9.79780495e-01
     1.27584338e-01 -6.27285421e-01  1.75961569e-01 -3.97527307e-01
    -1.03740621e+00 -3.87204587e-01]
   [ 4.09639627e-01  5.31798489e-02  1.81475878e+00  1.29401433e+00
     2.33757868e-01 -2.95349985e-01  4.77007091e-01  3.41224015e-01
     2.12689102e-01 -2.41404563e-01]
   [-5.07900000e-01  3.71997774e-01 -3.71737868e-01 -8.15116048e-01
     2.61332002e-02 -7.05352247e-01  1.97557807e-02 -2.07148477e-01
    -7.16315746e-01 -5.85477412e-01]
   [ 3.03759873e-01  1.06806085e-01  1.71723032e+00  1.19261670e+00
     3.97770971e-01 -3.91721725e-01 -1.13780510e+00  2.47251078e-01
     8.04808795e-01 -1.27997190e-01]
   [ 1.32864237e+00 -4.14634943e-01  9.73424554e-01  6.11826897e-01
     9.06881019e-02 -1.09647878e-01 -1.14177561e+00  8.51174653e-01
     7.08992422e-01  3.64745915e-01]]

  [[ 3.39352787e-01  2.42491022e-01  9.58775699e-01  2.38395408e-01
     2.41679877e-01  3.51783633e-01  7.10619867e-01  1.20733529e-01
     5.80781400e-01  1.04437068e-01]
   [ 2.48999879e-01  1.75881219e+00  2.96332389e-01 -2.10583836e-01
    -1.24445446e-02  1.44059798e-02  1.30069450e-01 -3.98159586e-02
    -1.95065930e-01  2.80636437e-02]
   [ 8.34358573e-01 -6.49098635e-01 -1.03710473e+00  4.99379545e-01
    -2.18424156e-01  4.72223908e-02  4.09498572e-01 -9.23407376e-02
     2.47292876e-01  1.17031407e+00]
   [-2.90888071e-01  9.95854735e-01 -1.49156332e-01 -1.63331196e-01
    -4.90420878e-01 -2.90334255e-01 -5.50058126e-01 -1.91696182e-01
    -3.72903109e-01  2.86537796e-01]
   [ 1.45759141e+00 -7.12625384e-01 -1.32587671e+00  7.25758255e-01
     1.19947478e-01 -3.62513840e-01  5.74571371e-01  2.02338934e-01
     8.00664961e-01  1.24325299e+00]
   [ 1.13889837e+00 -7.60317326e-01 -1.06408262e+00 -1.73814312e-01
    -2.46662110e-01  5.46796143e-01  1.00731134e+00 -4.47693348e-01
     8.61572921e-01  7.93349802e-01]]

  [[-3.06178063e-01  3.28926533e-01 -4.20948006e-02  1.30469298e+00
     1.30415350e-01  1.70735270e-01  3.61251056e-01 -3.57049942e-01
     5.20146966e-01  1.69937909e+00]
   [ 1.12059370e-01  5.45063205e-02  4.99283709e-02  9.13508773e-01
    -3.79954815e-01  3.31017494e-01  3.94960761e-01 -1.99409634e-01
     2.20740885e-01  1.54523766e+00]
   [-1.43165147e+00 -3.78351241e-01 -2.29681700e-01 -9.29553390e-01
     2.94873327e-01  1.56940594e-01 -3.67429048e-01  4.82364185e-02
    -2.11522151e-02 -5.30237794e-01]
   [-2.72453040e-01  7.99770832e-01 -3.19684856e-02  2.72251397e-01
    -1.40613109e-01 -8.41815770e-02  2.02578038e-01 -5.73344231e-02
    -5.55942655e-01  1.00373423e+00]
   [-1.28709936e+00 -7.88996577e-01 -4.25670028e-01 -1.03089154e+00
     6.06684089e-01 -8.27660263e-02 -8.75696093e-02 -9.83463943e-01
    -5.17978892e-02 -6.00251555e-01]
   [ 4.18334842e-01  3.37788053e-02 -1.14532419e-01 -1.21533716e+00
    -1.15281586e-02  2.33656064e-01  1.55070961e-01  1.74718261e-01
    -3.02572101e-01 -3.57874513e-01]]]]
[-0.24788564  0.3248912  -0.52033216 -0.38498333 -0.2809808  -0.2382001
 -0.47382402 -0.13516027  0.0203676  -0.01941571]
[[[[ 1.89888787e+00  1.53776139e-01 -5.44766784e-01  3.33735079e-01
     5.85427105e-01  7.97009408e-01 -5.62598646e-01 -1.73273861e+00
    -1.49000800e+00  5.81029773e-01 -2.50733161e+00  2.04982781e+00
    -1.66985497e-01 -4.47485447e-01 -4.24977690e-01  5.64007521e-01]
   [-6.30267560e-01  8.60597864e-02  1.71204489e-02 -1.02964371e-01
     1.69265911e-01  3.12344342e-01  7.51754045e-01 -2.22536907e-01
    -4.77431595e-01 -2.42198959e-01  1.81644946e-01 -1.50306687e-01
    -3.04173708e-01  7.88737088e-02  1.60975352e-01 -9.64929700e-01]
   [-1.50701237e+00 -1.46587479e+00 -1.10587466e+00 -1.54030070e-01
    -5.08882165e-01  2.70312697e-01  9.96179223e-01  7.89709270e-01
     1.57653022e+00  1.81791449e+00  1.25060153e+00 -6.66791648e-02
     1.07808840e+00  1.54574883e+00  1.80819169e-01 -2.54695773e-01]
   [-8.45224082e-01 -1.26495039e+00 -5.22130060e+00 -3.81430030e-01
    -1.15565395e+00 -6.41610384e-01  2.44847581e-01  4.70490694e-01
     1.90530920e+00  1.47005832e+00  1.08949602e+00  1.25928044e+00
     1.68038142e+00 -1.47897971e+00 -3.88575554e-01  2.70373130e+00]
   [ 2.58729649e+00 -2.32544303e+00 -1.91654399e-01 -4.99220073e-01
     1.44792080e-01 -3.87877941e-01 -8.18974257e-01  1.24046588e-02
     1.29539752e+00 -1.03970945e+00 -4.71111917e+00 -8.11785638e-01
    -3.66537237e+00 -2.22841763e+00  2.54718971e+00 -5.23727797e-02]
   [ 1.83329761e+00  5.47187030e-01 -9.02884364e-01  4.56736207e-01
    -1.42810181e-01 -1.65433383e+00 -1.21160731e-01 -2.28085470e+00
     1.02513254e+00 -1.07619166e+00 -2.90451455e+00  9.85702455e-01
    -1.80905068e+00 -1.69039190e+00  8.59350026e-01  1.00536816e-01]
   [ 7.69139826e-01  3.82721782e-01 -8.65275934e-02 -1.73509049e+00
    -8.94940197e-02 -1.16963279e+00 -9.72182378e-02  4.21758831e-01
     2.06380725e+00 -1.83818424e+00 -1.80562413e+00 -6.75877482e-02
    -2.75524640e+00 -1.57878447e+00  2.54700804e+00 -1.07735671e-01]
   [ 1.88232768e+00 -9.39043760e-01 -2.41730392e-01  2.98663944e-01
     4.90852773e-01 -8.92728508e-01  3.29452604e-01  6.27810955e-02
    -1.65753353e+00  6.28066778e-01 -1.04519641e+00  4.08253193e-01
    -1.06477387e-01  4.22566205e-01 -6.68273866e-01 -1.28988314e+00]
   [ 1.90248087e-01 -1.25316894e+00  9.34393048e-01 -3.28821719e-01
     1.04100358e+00 -2.11741877e+00  1.35133088e-01 -1.31039107e+00
     1.09066439e+00 -3.01044434e-01 -6.32400799e+00  2.36656502e-01
    -7.89032996e-01 -1.35002768e+00  1.16217911e+00  5.81192195e-01]
   [-1.19008042e-01  3.01700443e-01 -3.03059161e-01 -2.45759085e-01
     3.58952135e-01  1.80619106e-01  7.44246185e-01 -4.90607833e-03
     1.01176687e-01  1.57369561e-02  1.25772610e-01 -4.07816693e-02
    -2.35692441e-01  1.18718259e-01  5.06775916e-01 -2.10925248e-02]]

  [[-9.53045726e-01 -1.49354630e-03  1.62866682e-01  2.06591916e+00
    -7.24136829e-01 -1.94525599e-01 -1.93967894e-01 -4.65796083e-01
    -3.12237054e-01  1.04784453e+00 -5.90749562e-01  1.25744271e+00
     1.51071203e+00 -7.20943585e-02 -2.50484395e+00  4.39566970e-01]
   [ 1.05463135e+00 -1.29715815e-01 -2.66226739e-01  4.31173861e-01
     4.14401919e-01  2.43635878e-01 -1.20728493e-01 -2.29252309e-01
     2.52252609e-01 -8.80631506e-01  9.88242269e-01 -2.63723314e-01
     2.61922538e-01  1.57735217e+00  4.59329009e-01  1.73438460e-01]
   [-2.31372043e-01 -5.61585166e-02 -6.05276644e-01 -1.15490508e+00
    -4.61853600e+00 -4.66610938e-01 -1.51476049e+00 -1.02990007e+00
    -2.07349634e+00 -8.73243153e-01 -3.35033953e-01  1.79338956e+00
    -2.08962607e+00 -1.72354579e+00 -5.96459508e-01  1.05663538e+00]
   [ 7.02149570e-01 -3.59520644e-01  1.09056735e+00 -9.09845591e-01
    -1.30954397e+00 -3.48090672e+00 -2.86406302e+00 -3.12975907e+00
    -1.18613613e+00 -4.40863609e+00 -1.02270591e+00  3.27319598e+00
     1.13370645e+00  1.76035240e-01  4.33732837e-01 -1.77114856e+00]
   [-2.83388853e+00 -3.88100886e+00  2.06096339e+00 -7.18894005e-01
    -3.91499639e+00  5.89158475e-01  1.14069235e+00 -4.90168095e+00
     1.05392940e-01  3.92531231e-02 -2.18891442e-01 -3.85650325e+00
    -2.35515594e+00 -9.26620424e-01  3.16293716e-01 -2.43604684e+00]
   [-1.99781105e-01 -1.16930830e+00  2.15212822e-01  2.82780719e+00
    -1.92729843e+00 -4.13093895e-01  3.05309236e-01 -1.71344721e+00
     1.09315264e+00  1.65795350e+00  6.14007175e-01 -5.70881367e-01
     1.14710331e+00 -6.70899332e-01  5.90048194e-01  1.68518984e+00]
   [-8.58989954e-01 -3.12357783e+00  6.04720294e-01  1.26045501e+00
    -2.17279148e+00  1.26504946e+00  6.02351606e-01 -2.25949049e+00
     1.38235077e-01  1.54267967e+00  1.46318352e+00 -2.10397434e+00
    -9.95981768e-02 -4.41134214e-01 -7.11932182e-01 -1.86305523e+00]
   [-3.97609696e-02 -3.87094438e-01  9.01232004e-01  1.29855168e+00
    -1.45851898e+00 -7.91048408e-02 -3.86677384e-01 -2.85621977e+00
    -5.02461910e-01  1.07324851e+00 -7.00418711e-01 -2.56675243e-01
    -2.03117192e-01 -1.51057327e+00 -9.65246141e-01  4.00316119e-01]
   [-5.23338735e-01 -1.42750132e+00  5.43459475e-01  1.02641463e+00
    -8.15295577e-01  8.67095411e-01  4.51060385e-01 -3.79091948e-02
     1.07343340e+00  6.07133031e-01  9.17005181e-01 -2.50871706e+00
    -4.65136170e-01 -4.87347320e-02 -1.31227541e+00  7.76640534e-01]
   [-1.29969642e-01  1.42588034e-01 -5.73198974e-01 -1.54180899e-01
     5.31068027e-01  4.73404974e-01 -6.74480259e-01  5.84716722e-02
    -4.92665291e-01 -1.17988157e+00 -2.33959168e-01 -2.76080221e-01
    -1.25016272e+00  3.32025409e-01  1.91911906e-02  2.57800996e-01]]]


 [[[-9.40664649e-01  7.75994599e-01 -3.51014227e-01 -2.51775956e+00
    -4.55449551e-01  1.26417840e+00 -1.14446744e-01  2.32713357e-01
    -7.13066697e-01  4.23919618e-01 -2.44006586e+00 -4.57598001e-01
    -3.95340085e-01  3.15776497e-01 -2.82850027e-01 -7.96743214e-01]
   [-1.84880912e-01 -1.44305870e-01  1.74779519e-01 -3.54386806e-01
     1.53125361e-01 -8.13347171e-04  7.32670248e-01 -1.25300109e-01
    -5.62841356e-01 -2.04811901e-01  2.77336359e-01 -2.42834091e-01
    -7.12222576e-01  3.19058001e-02  2.26692572e-01 -7.24850416e-01]
   [ 1.23874061e-01 -2.45255738e-01 -2.11311355e-01 -6.42309606e-01
     2.67434621e+00 -1.35596141e-01  7.23513737e-02  2.14913309e-01
     1.74857318e+00  1.23720634e+00 -4.86097574e-01  6.96613908e-01
     2.68601179e+00 -1.33557630e+00 -6.24720044e-02 -1.02870846e+00]
   [ 4.40001309e-01  1.05123460e+00 -2.18789816e+00 -1.05528899e-01
     1.69089258e+00 -1.15794873e+00 -1.35439467e+00  1.16129708e+00
     2.78187871e+00  1.47855294e+00 -7.08935678e-01  3.31446230e-01
     2.03742361e+00 -4.31829596e+00  6.04345977e-01  1.67183840e+00]
   [-2.69310999e+00 -4.65185070e+00 -4.70838835e-03  2.34483510e-01
    -1.45537257e+00 -1.27963471e+00 -1.87594378e+00 -1.04653931e+00
    -1.05651915e+00  6.65292621e-01  1.33031785e+00 -1.58852947e+00
    -5.17559433e+00 -1.71000981e+00  5.69566846e-01  1.04946844e-01]
   [-1.31423616e+00 -1.67698219e-01 -7.07679093e-01 -3.06176805e+00
    -1.80137742e+00  2.10837007e+00 -6.98819458e-01 -3.41149986e-01
     4.65737343e-01 -1.01813805e+00 -1.81839359e+00 -2.00226879e+00
    -2.99620318e+00  1.11345339e+00 -3.90329659e-01  1.38699508e+00]
   [-2.01536465e+00  5.11084855e-01 -8.92288685e-01 -4.40373516e+00
    -9.97195721e-01  1.21291840e+00 -1.62987781e+00 -1.18834913e+00
     7.30731562e-02 -4.18858528e-01 -2.20990443e+00 -1.94500542e+00
    -1.74915564e+00  1.49246097e+00  1.96128771e-01  2.02016330e+00]
   [ 6.21499777e-01 -8.51313949e-01 -7.71979466e-02 -2.46149153e-01
     1.13999104e+00  1.13838363e+00  3.25472385e-01 -7.87194252e-01
    -1.53789803e-01 -1.74220964e-01 -3.11532187e+00  4.52099085e-01
     9.15758848e-01  8.13937545e-01 -3.41839701e-01 -4.91887867e-01]
   [-2.07389784e+00 -1.51601326e+00 -5.28580964e-01 -1.10105717e+00
     1.45442262e-01  1.24825746e-01 -3.23783934e-01 -3.30633759e-01
     6.47956908e-01  3.35318446e-01 -1.75257218e+00 -8.33799958e-01
    -4.02023697e+00  5.03683928e-03  9.53751922e-01 -6.04164779e-01]
   [-1.03730440e-01  3.21044594e-01 -5.91705292e-02 -2.15551481e-01
     2.93126166e-01  1.68355703e-01  9.83748853e-01  2.20246464e-01
    -2.20010579e-01 -7.54353255e-02  2.31403276e-01 -5.13566554e-01
    -4.77986276e-01 -3.07221949e-01  3.94005477e-01  8.18640366e-02]]

  [[ 1.03932190e+00  7.53272712e-01 -3.04814875e-01 -5.54425597e-01
    -5.38960338e-01 -5.20579875e-01  9.33215499e-01  3.79591465e-01
    -9.10639644e-01  1.06667066e-02  9.16650295e-01  4.45407420e-01
     1.15940881e+00  1.40073073e+00 -4.06929433e-01 -2.50043988e+00]
   [ 6.36337221e-01 -4.88923006e-02  4.96701866e-01  3.18529785e-01
     4.77266163e-02  4.87742990e-01 -2.07014754e-01 -1.97583601e-01
    -2.51965612e-01 -3.02912831e-01  7.95106530e-01 -4.72641259e-01
    -1.11381732e-01  7.15517998e-01  4.76158373e-02  2.64724553e-01]
   [-7.84476101e-01  2.46215892e+00 -1.17047298e+00  1.21942413e+00
    -1.18195403e+00 -1.53055072e+00 -4.09273815e+00  3.44172335e+00
    -2.80281830e+00  1.44963288e+00 -6.26959503e-01 -2.28234911e+00
    -1.98445487e+00 -2.28459120e+00 -3.92606091e+00  1.91724753e+00]
   [-1.89070547e+00  4.38165873e-01 -5.30909061e-01  7.71253824e-01
    -1.71374619e+00 -3.00037074e+00 -4.15026236e+00  2.73965359e+00
    -1.51630640e+00 -1.90263557e+00 -6.92751765e-01 -1.40589046e+00
    -2.20974401e-01 -5.43643355e-01 -1.33908856e+00 -2.40281606e+00]
   [-2.09787846e+00 -1.83786905e+00  4.66111928e-01 -3.02177286e+00
     1.46989167e+00 -1.39938152e+00  7.74702668e-01 -2.93473625e+00
    -1.33188152e+00 -9.18031514e-01 -4.44487780e-01 -1.33055401e+00
    -3.06230021e+00  7.83670902e-01 -1.49370861e+00 -1.47135985e+00]
   [ 5.99187315e-01 -1.07406449e+00  2.33357519e-01 -7.10528553e-01
     1.37483895e+00 -8.80624592e-01  1.23115790e+00 -1.02919257e+00
    -3.25018913e-01 -6.67547286e-01  4.04116869e-01  1.64885059e-01
     9.86967444e-01  8.39360356e-01 -3.00860792e-01 -6.28182352e-01]
   [-4.40570921e-01 -8.76418710e-01  1.47726560e+00 -2.27392268e+00
     2.28418851e+00 -4.01671410e+00  5.08759558e-01  1.30470240e+00
    -1.22736514e+00 -4.80534375e-01 -6.48725867e-01 -2.36003399e+00
     6.36665642e-01  3.08325261e-01 -1.56147110e+00 -9.67042923e-01]
   [-3.41695815e-01  9.88031149e-01  1.36354649e+00 -9.66818333e-01
     9.05021250e-01  3.73169422e-01  5.31957030e-01  1.65703440e+00
    -2.08410525e+00 -8.82634103e-01  6.95709884e-01 -2.61490798e+00
     2.19415426e-01  1.79136610e+00 -3.96204424e+00 -1.15243518e+00]
   [ 1.25511467e+00 -2.52865821e-01 -2.18769256e-03 -1.08209240e+00
     4.71149474e-01 -8.49969387e-01  1.59080946e+00 -3.55422306e+00
    -6.79921150e-01 -6.48846209e-01 -4.56428945e-01 -5.15655577e-01
    -1.93976045e-01  3.73610526e-01  1.59028649e+00 -2.13902092e+00]
   [-8.12343657e-01  4.89082992e-01  2.78557062e-01  7.99495637e-01
    -6.27130985e-01  1.31769812e+00 -4.90109861e-01  6.84484839e-02
    -2.65493065e-01 -5.03689349e-01  6.42214775e-01 -1.65022865e-01
    -1.15400171e+00 -2.73843944e-01  4.53339785e-01  2.16170549e-01]]]]
[-0.25354767  0.02080621  0.36444977 -0.23178574  0.13090333  0.14225705
  0.19391377 -0.08733454 -0.35139978 -0.6307349   0.2618796  -0.43086806
 -0.64857316 -0.09428421  0.10993336 -0.16489181]
[[ 0.13107328 -0.77670896 -0.8066704  ... -1.6604337   0.09253052
  -0.7795995 ]
 [ 1.4345627   0.9769998  -0.00955042 ...  0.4097535  -0.7786887
   1.1524913 ]
 [ 0.71401036  0.11205227  0.35305998 ...  0.90021175  0.10683416
   0.24452034]
 ...
 [ 0.2724591  -1.2663536   0.44841442 ...  0.1633227   0.43462306
   0.10845486]
 [-3.2822373   0.8943821  -2.8539324  ... -0.36062834 -0.2408468
  -3.7167168 ]
 [ 1.5448658   0.76771545  0.08768283 ...  0.5429316  -0.16224211
  -0.549106  ]]
[-0.1585486   0.22534527  0.09276442  0.10650139 -0.20781511 -0.22607352
 -0.34090734  0.3214219  -0.10165019  0.03155939 -0.3650933  -0.0207759
  0.04509615 -0.01094425  0.09040862  0.13477074 -0.33108822 -0.09867422
 -0.50889015 -0.21567048 -0.23417649  0.0863759  -0.26505333 -0.27781177
  0.0033964  -0.07430559 -0.03013149 -0.3340423  -0.35261166  0.04422147
 -0.05186189 -0.22737797  0.20673747 -0.11767689  0.06571691 -0.39351752
  0.12381704 -0.239747    0.39294305 -0.12828702  0.26318008  0.3975686
  0.09662262 -0.33890864 -0.24960397 -0.17053433 -0.06790718 -0.05428273
  0.04641724  0.00838459 -0.11561172 -0.28502065 -0.1549341  -0.09886765
  0.05854072  0.06242608 -0.03604162 -0.31170008 -0.06230153 -0.1119397
 -0.06393372 -0.2478652  -0.26533115  0.07910538  0.16278495  0.10444663
  0.0212326   0.02463245 -0.20138444 -0.32540092 -0.18745169 -0.2868064
 -0.15256132 -0.26925054 -0.10283009 -0.09740411 -0.00607339  0.0488284
  0.1305853   0.24296816 -0.0998279   0.16438279 -0.36701968 -0.26186475
  0.05122956  0.1455995  -0.4173268  -0.3521099  -0.41034076  0.17417501
 -0.03626521 -0.05772432 -0.39895076  0.04085879 -0.17698567  0.12758812
 -0.15635732 -0.53221285 -0.23245557 -0.2867375  -0.0548338   0.19997461
 -0.20488274 -0.17552164 -0.29918042 -0.17316048 -0.05059509 -0.24754618
 -0.2327904  -0.22918312 -0.13587211 -0.33310637  0.14411603 -0.29967305
 -0.20498788  0.22799946 -0.3064525  -0.00711449 -0.21280275  0.06091268]
[[ 1.3111503   0.7393039  -0.7237297  ... -0.53415513 -1.0970241
   0.29336143]
 [ 0.82149875  0.18983221  0.06226866 ... -0.37428737 -0.09771116
  -0.8045587 ]
 [-0.92013085 -0.12553647  0.20574097 ... -0.0258412   0.6250876
  -1.0223033 ]
 ...
 [-1.4516503  -0.36724764 -0.89681405 ... -0.53349775 -0.25947595
   1.2224468 ]
 [ 1.200261   -1.6215028   1.3330171  ... -0.33886763  0.9622675
  -1.4085675 ]
 [ 0.56315887  0.6370772   1.9043458  ...  0.24940932 -0.46619263
  -0.3890171 ]]
[-0.2453534  -0.25577614  0.12790994 -0.00357613  0.00185518  0.02008407
 -0.05025482 -0.15450113  0.08263629 -0.02599222  0.02196977 -0.15599711
  0.13636088 -0.32954475 -0.14648962 -0.25373504 -0.03169965 -0.17210898
 -0.11466956 -0.0779166  -0.10799448 -0.1396456  -0.05755206  0.08643726
 -0.06454933 -0.20204835 -0.17102312 -0.14002208  0.0723213  -0.3100045
 -0.0913179  -0.36036566 -0.13877717 -0.17914268 -0.11322846 -0.31511235
  0.19924702 -0.07153715  0.02066861 -0.15843289 -0.00080851 -0.16605105
 -0.01368578 -0.4471002  -0.01478003 -0.28139982 -0.27122253 -0.05303522
 -0.16781315 -0.21029545 -0.21406116 -0.15543649 -0.09396808  0.10952368
 -0.42492214 -0.1846941  -0.40601602 -0.34749112 -0.03847394  0.17828496
 -0.27599895  0.06952107 -0.41240013 -0.0931842  -0.37675643 -0.66766155
 -0.21059507  0.00677352 -0.00892448 -0.0615091  -0.23107842 -0.31030077
 -0.2551345  -0.38414386 -0.16531174  0.09034184 -0.06165675 -0.3395465
 -0.3938166  -0.42391512 -0.03914331 -0.2241696   0.10985135 -0.2849956 ]
[[ 9.28713322e-01  6.48888469e-01 -2.55497599e+00 -6.24622941e-01
  -1.82721341e+00 -1.07616603e+00  9.33380544e-01  3.89248282e-01
   1.24897850e+00 -2.46237111e+00]
 [ 9.53181162e-02 -2.69530678e+00  6.63286865e-01  5.37135959e-01
  -9.42963958e-01  1.47638917e+00  2.90215880e-01 -7.02475011e-01
  -3.44753194e+00 -1.99073327e+00]
 [-2.03193521e+00 -8.36548448e-01  5.32525957e-01 -2.16896749e+00
  -8.02294910e-01  9.04979557e-02  1.35521924e+00 -4.89311743e+00
  -4.10524654e+00 -2.60672712e+00]
 [-2.25285697e+00 -4.32230854e+00 -3.35375518e-01  2.50694156e-01
   8.55326593e-01 -4.14956522e+00  7.09306717e-01 -4.48658371e+00
  -3.52209663e+00  6.01777256e-01]
 [ 2.86898184e+00 -1.10747135e+00  2.74886817e-01  1.11463082e+00
  -4.09503269e+00  9.93960798e-01 -2.30287403e-01  7.88146555e-01
  -1.62973809e+00 -1.39300585e+00]
 [-1.57791093e-01 -2.64868855e-01  1.55250347e+00 -6.25210381e+00
  -3.27158421e-01 -1.16925216e+00 -1.18202031e+00 -4.36708212e+00
  -1.20936656e+00 -2.81307793e+00]
 [-2.55352354e+00 -1.27431333e+00 -1.91335249e+00  4.03751105e-01
  -3.38077307e-01 -1.20414281e+00  2.27379704e+00 -1.38586891e+00
  -2.28796077e+00  1.41690052e+00]
 [-3.02395391e+00  8.16677809e-01  4.36620653e-01  5.96288919e-01
   2.32520118e-01 -2.43879843e+00  5.49467087e-01 -3.74871349e+00
   1.48295641e+00 -4.90126276e+00]
 [ 3.80484045e-01 -1.76162291e+00  1.14352250e+00 -3.66622299e-01
  -2.35347247e+00 -2.41684651e+00  8.92674327e-01 -3.43111873e+00
  -3.93082827e-01 -1.17562994e-01]
 [-2.85688663e+00  1.18419480e+00 -9.24119473e-01 -1.48666275e+00
   5.68901181e-01 -2.16010237e+00  8.43932867e-01  3.68763328e-01
   2.60138440e+00  3.83764833e-01]
 [-2.35371184e+00 -3.77157855e+00  2.11569214e+00 -2.28239751e+00
  -6.30696237e-01 -1.52230704e+00 -2.33800411e+00  6.24324679e-01
   1.36507779e-01  4.56131816e-01]
 [-1.78137279e+00  2.13840052e-01  5.75974822e-01  4.52799231e-01
  -4.33876944e+00  4.53787953e-01 -9.56230938e-01  2.83991456e-01
   2.44636798e+00  1.91397905e-01]
 [-1.39065385e-01 -4.25319529e+00 -3.38171422e-02 -2.86595345e+00
   5.28202116e-01 -2.72662449e+00  7.03767955e-01 -1.56547296e+00
   1.04475057e+00 -9.93877769e-01]
 [-9.02073681e-01 -9.35627937e-01 -2.12678170e+00  7.69457817e-01
   1.94327235e+00  9.31378841e-01 -2.93520379e+00 -4.22501922e-01
   8.58757347e-02  6.79143608e-01]
 [-6.65672779e-01  9.21580493e-01 -2.70906496e+00  9.63237703e-01
  -8.86759222e-01 -1.00643861e+00  1.02136016e+00  6.98547661e-01
  -3.27565908e+00  3.10488522e-01]
 [ 1.44732106e+00 -2.08214951e+00 -3.50391936e+00 -1.93797410e-01
   4.73806322e-01  1.66520965e+00  3.19354177e-01 -1.60496664e+00
  -7.61766016e-01 -1.19249344e+00]
 [-7.41791785e-01 -2.33254504e+00  1.27117142e-01  6.29405260e-01
  -4.71551985e-01 -4.49165058e+00  9.76686776e-01 -1.19691241e+00
   9.38844979e-01 -3.41917443e+00]
 [ 6.69909596e-01  5.99516332e-01  4.29535955e-01 -1.73401582e+00
  -8.15112591e-02 -2.95315593e-01 -2.87912822e+00  8.59701991e-01
   3.14320540e+00 -2.40200925e+00]
 [ 5.28095126e-01 -1.11015213e+00  5.39033949e-01  1.56229764e-01
  -2.30214500e+00  1.72566533e-01  3.46584201e-01 -1.86306810e+00
   7.86996841e-01  1.26424336e+00]
 [ 1.26612023e-01 -3.58564997e+00  2.75577217e-01 -2.15830755e+00
   5.41682005e-01  1.64412940e+00 -1.85553450e-02 -2.31102180e+00
   6.93194211e-01 -1.84153199e-01]
 [-2.70873260e+00 -2.75602031e+00 -3.72752023e+00 -1.39406633e+00
  -2.05413628e+00  5.44179022e-01  2.73856068e+00  1.58260196e-01
   1.25040913e+00  2.71164238e-01]
 [-1.78533721e+00 -2.47663975e+00 -8.27034593e-01  5.92780150e-02
   1.37671733e+00 -2.84070277e+00  2.15678379e-01  1.29891610e+00
   1.23490238e+00 -3.22326779e+00]
 [-2.97242045e+00 -4.22301245e+00  2.94511348e-01 -4.76472425e+00
   1.98007420e-01 -1.13760591e+00  1.05447698e+00 -1.48479819e+00
  -2.19148898e+00  1.79750621e+00]
 [ 1.46496427e+00 -9.22813714e-01 -1.44802645e-01 -1.43871677e+00
  -2.18861938e+00 -2.85363376e-01 -1.08864820e+00 -4.59482253e-01
   1.30709934e+00  1.04108679e+00]
 [ 1.18722236e+00 -1.71014166e+00 -7.51919866e-01 -5.39255953e+00
   1.59239113e+00  1.90219298e-01 -7.76527226e-01 -2.17724776e+00
  -1.41294658e+00  2.07108736e+00]
 [-2.41548228e+00  1.28950894e+00  1.08428216e+00 -2.47747564e+00
  -5.95683336e-01 -1.79155219e+00  2.40263537e-01  3.90974760e-01
   6.50387168e-01  3.50544870e-01]
 [ 1.54751942e-01  7.08727956e-01 -1.67554542e-01 -2.46486887e-01
   4.09915477e-01  1.54092968e+00  1.46541432e-01 -3.10731459e+00
  -4.34255987e-01 -5.91116607e-01]
 [-2.62184180e-02 -1.78517258e+00 -1.43253982e+00  2.01841736e+00
  -2.70269662e-01 -2.80264783e+00 -1.16662180e+00  1.39529228e+00
   2.42226601e+00 -1.22423804e+00]
 [ 3.25747073e-01 -7.38837898e-01  2.97021449e-01 -1.45456502e-02
  -5.32429516e-01  3.57173920e-01 -4.97824383e+00  3.25215787e-01
  -5.15165925e-01  2.57670671e-01]
 [-2.57944393e+00  6.13947392e-01  3.72957975e-01  4.10040677e-01
   6.64118528e-01 -1.64449978e+00 -1.33965775e-01 -4.30064011e+00
  -1.95812643e+00  3.84411693e-01]
 [-4.40411043e+00 -4.74636507e+00  6.66122317e-01 -1.84181941e+00
   1.35216224e+00 -6.77423418e-01 -9.05787826e-01  3.54898691e-01
   6.26560628e-01  4.05345708e-01]
 [-2.36051977e-02  4.28000182e-01 -3.95697093e+00  1.38702488e+00
   3.36170375e-01 -8.44980597e-01 -6.15817189e-01  8.65042150e-01
  -8.24987233e-01 -8.24624598e-01]
 [ 4.75418955e-01  4.37171727e-01 -3.40261221e-01 -2.34351158e+00
   9.28497612e-01  9.48704660e-01  4.84948963e-01 -1.73464859e+00
  -2.15543747e+00 -2.67302251e+00]
 [ 3.39680277e-02  9.21917707e-02 -6.72380328e-01  5.20815790e-01
   3.57727915e-01  1.56111270e-01 -1.71616340e+00  4.52548862e-01
   4.58284140e-01 -3.99057329e-01]
 [ 7.38010257e-02 -4.27781534e+00 -2.63045478e+00 -1.69083929e+00
   1.24111211e+00 -1.28702211e+00  1.20130348e+00  4.80335504e-01
  -1.25693917e-01  1.41370103e-01]
 [-2.48048759e+00 -3.77314639e+00 -8.11574757e-01 -4.24156904e-01
   1.37150133e+00  1.03214550e+00  7.55084515e-01  2.65570611e-01
   1.08664298e+00 -1.55707896e+00]
 [ 1.92434740e+00 -1.13394773e+00 -2.95217127e-01 -1.73976445e+00
  -2.53090453e+00  7.64114141e-01 -4.15828514e+00 -1.68804362e-01
  -1.27519345e+00  3.98350179e-01]
 [-2.96975327e+00  2.80649662e-01  3.71451527e-01 -7.52463862e-02
  -1.25239205e+00 -1.76177585e+00  1.78838527e+00  5.36971927e-01
   7.80218244e-01 -4.70129192e-01]
 [-1.93450856e+00  2.14264527e-01  6.12682700e-01  1.16830075e+00
  -9.52692106e-02 -2.75878978e+00 -1.33971453e+00  1.51175097e-01
  -3.42557192e-01  5.59442818e-01]
 [-1.89967537e+00 -6.88346565e-01 -3.55635929e+00 -4.20667589e-01
  -1.02500796e+00 -4.71746683e+00  3.60499263e+00 -4.27886724e+00
  -2.39326358e+00 -6.27038765e+00]
 [ 6.91499531e-01 -3.06747007e+00  7.29507878e-02  4.86271501e-01
  -1.41925120e+00  3.99265021e-01 -4.79733378e-01 -6.09168589e-01
   1.17695212e+00  1.03811514e+00]
 [ 8.41758370e-01  8.73801470e-01 -1.88925076e+00  7.84578383e-01
  -2.90156436e+00 -1.02706277e+00 -4.74836141e-01 -5.92903852e-01
  -6.37367964e-01  6.38208568e-01]
 [-1.28360286e-01 -2.56879210e+00 -1.37441421e+00  7.20659375e-01
  -2.61500627e-01 -2.63863611e+00  1.16543770e+00 -2.80754352e+00
   1.00654256e+00  2.37376302e-01]
 [-1.98917139e+00  1.75880146e+00 -1.17678511e+00 -3.52838375e-02
   1.24315834e+00 -3.09144807e+00 -7.66501009e-01  3.16545784e-01
  -2.72391868e+00  4.10531700e-01]
 [ 5.21569192e-01 -1.24479687e+00 -1.24999166e+00  6.21211708e-01
  -6.05006278e-01  5.38821936e-01  7.29883194e-01 -2.63411355e+00
  -2.31742337e-01  4.99292076e-01]
 [ 9.43716049e-01  1.59827209e+00  1.04787104e-01  1.55845303e-02
   4.86901641e-01 -1.99073100e+00 -1.89751232e+00 -1.55929923e+00
  -2.03424406e+00  1.98570669e+00]
 [-8.00814331e-01 -9.45926845e-01 -1.07926488e+00  7.08813250e-01
   2.67171574e+00  1.75744307e+00 -1.51336205e+00 -9.83263075e-01
  -2.04181147e+00 -1.07862008e+00]
 [-2.11661950e-01  1.48543143e+00 -3.63773555e-01  9.20851350e-01
  -1.15366340e+00 -3.43801570e+00 -1.36517656e+00  6.71069264e-01
   2.61764741e+00 -2.28447437e+00]
 [-1.19220769e+00  1.29655850e+00 -2.79647613e+00  1.16858375e+00
  -4.01739025e+00  6.28049731e-01 -1.19002426e+00  1.92968875e-01
   1.81776154e+00  2.62457818e-01]
 [ 1.17578673e+00 -9.66738999e-01 -3.37312436e+00  1.26724720e+00
  -3.79801226e+00 -1.61422265e+00 -1.52258486e-01  7.00088218e-03
  -3.10714650e+00  2.62346238e-01]
 [ 1.81558287e+00  6.64163828e-01 -8.59753311e-01 -7.73283660e-01
  -1.06653571e+00  9.66112614e-01 -1.29946458e+00 -1.43165696e+00
   3.34049612e-01  9.04919326e-01]
 [-4.76307333e-01  1.10207632e-01  6.01469278e-01 -2.02170894e-01
   3.61681342e-01 -1.86392939e+00  3.93919021e-01 -3.82603168e+00
  -2.86156154e+00  2.23960471e+00]
 [ 1.00836182e+00 -4.67083663e-01  1.18854022e+00 -7.25226998e-02
  -1.88817728e+00  3.80498052e-01 -1.14753747e+00  1.44398046e+00
  -8.88101220e-01 -2.66294265e+00]
 [ 9.88581255e-02 -3.16817093e+00  1.18837965e+00  8.42520356e-01
  -1.37574029e+00 -1.01582611e+00 -1.20683372e-01 -1.20336425e+00
  -1.03790891e+00  1.76287687e+00]
 [-2.02813959e+00  3.59199822e-01  6.62825584e-01  4.82182711e-01
   1.08549130e+00  4.51949120e-01 -1.60307896e+00  3.11263442e-01
  -9.84354794e-01 -1.33538640e+00]
 [-2.25742912e+00  1.51884663e+00 -5.75810969e-01 -1.81993628e+00
  -1.23846829e+00 -1.38711333e+00  1.71187663e+00  7.72552669e-01
   1.69998622e+00 -9.73964989e-01]
 [-2.18985486e+00  4.37581986e-01  2.46991754e-01  8.88780951e-01
   6.57905519e-01  5.49764872e-01 -1.87641096e+00  9.16613042e-01
   4.65026796e-02 -1.38537860e+00]
 [-1.52842116e+00 -2.08003736e+00 -1.54994369e+00 -2.77949643e+00
   2.04825735e+00  5.18635809e-01 -1.84552252e+00  2.22294256e-01
   1.84984756e+00 -7.14052618e-02]
 [ 1.64244986e+00 -8.41158211e-01  1.51447868e+00 -1.92039454e+00
  -1.48931050e+00 -2.37187934e+00 -1.05279851e+00  1.19418204e-01
   1.69563591e+00  4.55082208e-01]
 [ 5.11630356e-01 -2.49368906e+00  8.54103684e-01 -4.33301210e+00
  -1.34218621e+00 -1.59949982e+00  1.35483414e-01  1.14678763e-01
  -2.16934299e+00  8.70401025e-01]
 [-5.82371473e-01  4.67862338e-01 -3.46639335e-01 -7.40620434e-01
  -2.94250906e-01  3.14852923e-01  1.76236010e+00  1.21086824e+00
  -2.14582109e+00 -2.99278641e+00]
 [-5.98185003e-01 -1.37848005e-01 -1.79758060e+00  2.53904223e+00
  -2.09083676e+00  8.14732432e-01 -2.99139714e+00  5.06187856e-01
  -4.59073693e-01 -2.23966300e-01]
 [-1.60810244e+00  2.12857246e+00  4.79826093e-01 -1.58869302e+00
  -3.66662621e+00  4.46813017e-01  1.03933907e+00  4.81129616e-01
  -4.02190304e+00  1.02303222e-01]
 [ 1.97019911e+00  5.78094602e-01  1.88632166e+00 -2.43453646e+00
  -1.53438067e+00  1.83351588e+00 -2.44643021e+00 -1.86429071e+00
  -9.39995706e-01  3.25521410e-01]
 [ 1.59574831e+00 -6.19234264e-01 -2.95103967e-01 -3.15969014e+00
   1.06285620e+00  1.62164044e+00 -1.30002701e+00 -1.47101319e+00
   1.73033014e-01 -1.58683944e+00]
 [-1.60157704e+00  2.00291991e+00 -5.61681688e-01 -1.34512460e+00
   1.29026198e+00  7.94602513e-01  4.64306742e-01  4.78686750e-01
  -1.75518286e+00 -3.76323199e+00]
 [ 3.97862047e-01 -4.63769484e+00  8.84826705e-02  3.27654243e-01
   1.03708088e+00 -6.44819498e+00  1.31524220e-01 -4.88310099e+00
  -3.09617114e+00 -7.41314030e+00]
 [ 2.13393950e+00 -2.78386283e+00  1.09300947e+00 -1.99874625e-01
  -9.76370722e-02 -2.76784825e+00 -2.56062627e+00  4.68224525e-01
  -1.13576102e+00  3.28239918e-01]
 [-1.06213057e+00 -3.49749255e+00 -1.75184584e+00 -4.03178662e-01
   9.88285899e-01 -9.03824806e-01  3.23940724e-01  5.64434409e-01
   3.31375360e-01  4.47196662e-02]
 [-5.27876198e-01 -2.49508953e+00 -1.58354092e+00 -1.46701646e+00
  -1.77360725e+00 -1.71863571e-01  2.19777989e+00 -2.78554201e+00
  -1.70550704e+00  2.49009800e+00]
 [ 1.44835591e+00 -1.77086902e+00  1.22714329e+00 -3.43827069e-01
   8.15625727e-01 -5.70002981e-02 -1.69569612e+00 -1.03020704e+00
  -1.06290185e+00 -2.52892065e+00]
 [ 3.54382426e-01  5.41806936e-01 -3.94502258e+00  1.49095953e-01
  -1.06661296e+00 -8.33712876e-01  1.09957516e+00  4.32507902e-01
  -3.02459049e+00  5.78805432e-02]
 [ 1.34241235e+00  7.97514558e-01 -3.24327302e+00  9.61096168e-01
  -9.38247979e-01  1.12619245e+00 -1.03521514e+00 -3.75330806e+00
  -1.35441446e+00 -1.29925621e+00]
 [-1.94212472e+00 -2.38114178e-01 -8.62591267e-01 -2.81334782e+00
   4.11104918e-01  7.40086138e-01  1.22499692e+00  5.24452925e-01
  -2.06674933e+00 -2.20722771e+00]
 [ 9.03595090e-01 -4.77935743e+00  9.26052213e-01  6.92933679e-01
   6.91037297e-01 -9.36283171e-01 -2.12580919e+00  1.51815557e+00
  -3.71648812e+00 -1.46729183e+00]
 [ 1.32384658e+00 -1.11869395e+00  1.20987451e+00 -2.57369280e+00
  -2.58534598e+00 -1.02046096e+00  7.20977128e-01 -8.84373710e-02
  -4.42639202e-01  8.79392743e-01]
 [ 7.55384207e-01  3.46356839e-01  1.19086707e+00 -2.02273345e+00
  -2.52788091e+00  4.72538710e-01 -1.29314698e-02  1.31270498e-01
   4.24999930e-02 -1.25363290e-01]
 [-1.48178291e+00  2.02190661e+00 -3.21450144e-01 -5.37084162e-01
   1.19573963e+00 -1.74090755e+00  8.93212497e-01 -3.83002877e+00
   7.57238925e-01 -1.73917758e+00]
 [ 7.45620549e-01  4.03374135e-01 -1.68804741e+00  5.64065985e-02
   8.73899877e-01 -2.34534883e+00 -2.34291717e-01 -2.99357963e+00
   3.38329300e-02  9.52517152e-01]
 [ 6.86142027e-01  1.89571166e+00  5.68620741e-01 -2.54285145e+00
   7.72560596e-01  8.82535934e-01 -2.86991668e+00  2.88056076e-01
   1.24007499e+00 -2.13620377e+00]
 [-1.76832810e-01  8.35575163e-01  7.90351987e-01 -8.30232725e-02
  -5.17173111e-01 -3.12119699e+00  5.35007715e-01 -6.33079195e+00
  -2.04547787e+00 -5.89504004e+00]
 [ 3.36215305e+00  8.32287729e-01  1.43661582e+00 -1.66321588e+00
  -4.84816521e-01  1.67678618e+00 -2.37402797e+00 -6.31056666e-01
  -1.36650026e+00 -1.54219830e+00]
 [-4.16275215e+00 -5.78869104e-01  2.39587379e+00 -6.96433112e-02
  -3.92153382e+00  7.41249561e-01 -2.14274311e+00  5.35546422e-01
  -3.53962064e+00  2.82651812e-01]
 [-1.20699441e+00 -1.47147000e+00 -1.53999567e+00  4.43119377e-01
   8.99587810e-01 -2.34704614e+00  2.47281462e-01 -4.51070166e+00
  -3.36851287e+00 -3.98676664e-01]]
[ 0.05210431  0.25118414 -0.02515757 -0.066416    0.0528216  -0.0407565
 -0.08243462  0.0162201  -0.46484786 -0.06076341]
