[[[[-1.02422869e+00  5.62318385e-01 -8.39885771e-01  6.64987981e-01
     2.30509624e-01  6.21600807e-01]]

  [[-4.75339949e-01  3.26877654e-01 -1.07241547e+00  1.91126205e-02
    -1.80922341e+00  1.47854078e+00]]

  [[ 1.06686127e+00 -2.51276702e-01 -1.33187211e+00  1.05746484e+00
    -1.79951942e+00  2.94433665e+00]]

  [[ 8.21497738e-01  6.29373252e-01  2.00724673e+00 -1.32379889e-01
    -6.18381679e-01 -2.06796080e-02]]

  [[-5.35851240e-01  7.10387647e-01  8.27574134e-01 -7.92699277e-01
    -9.09312189e-01 -4.01875913e-01]]]


 [[[ 4.72805858e-01  1.41799045e+00 -4.63634938e-01  1.46050942e+00
     1.11078155e+00  2.66905379e+00]]

  [[ 2.89385080e+00  7.02360213e-01 -2.40305138e+00  2.64826083e+00
     4.47894275e-01  8.52582455e+00]]

  [[ 7.52212906e+00 -2.34884357e+00 -2.25627303e+00  2.85224700e+00
     1.78122044e+00  9.61409569e+00]]

  [[ 6.15587568e+00 -5.32433629e-01  1.28159010e+00 -2.14827985e-01
     1.09796965e+00  2.14921117e+00]]

  [[-7.80937016e-01 -1.50494143e-01  5.60973167e-01 -1.55426931e+00
     1.00133032e-01 -3.20883356e-02]]]


 [[[ 1.37816954e+00  2.37535763e+00  1.71860611e+00  5.29949546e-01
     1.16276515e+00  3.59085016e-02]]

  [[ 2.55891061e+00  3.34952563e-01 -2.53198236e-01  8.88933122e-01
     6.14080286e+00  6.64312935e+00]]

  [[ 1.05958738e+01 -3.06231380e+00 -1.83072376e+00  2.48091364e+00
     8.29223633e+00  1.24399433e+01]]

  [[ 5.44044638e+00 -1.53699732e+00 -1.00363985e-01  5.63015006e-02
    -4.89701658e-01  3.34203863e+00]]

  [[ 3.64907503e-01 -3.39322597e-01  7.12502062e-01 -1.19538128e+00
    -1.29014409e+00 -6.73963368e-01]]]


 [[[-3.32389385e-01  1.41068578e+00  6.44361794e-01 -2.28158891e-01
     1.50001198e-01 -1.32942152e+00]]

  [[-1.70176625e+00  3.72226626e-01 -2.31404617e-01 -1.08388329e+00
    -2.29992121e-01  1.07969856e+00]]

  [[ 2.07710803e-01 -1.80189323e+00 -1.64443934e+00  1.22158003e+00
     3.24427414e+00  7.18560553e+00]]

  [[ 6.38642251e-01 -1.24345601e+00 -8.87238830e-02 -2.65526921e-01
     5.46194911e-01  1.12663960e+00]]

  [[ 5.24399467e-02  8.85951281e-01  7.19871700e-01 -1.27994239e+00
    -2.45177597e-01 -4.40370381e-01]]]


 [[[-1.19096541e+00  8.09112668e-01  6.27211630e-01 -1.12699628e+00
    -5.87416708e-01 -9.17564034e-02]]

  [[-5.73597491e-01  3.25441092e-01  4.28556167e-02 -1.16042924e+00
    -1.28896177e+00  1.39760122e-01]]

  [[ 2.67785609e-01 -6.89583004e-01 -3.87128383e-01  6.73201144e-01
     9.46564317e-01  1.30448341e+00]]

  [[ 4.70242620e-01 -2.00073332e-01  8.79880548e-01 -9.82968986e-01
    -2.26090312e-01 -5.00642240e-01]]

  [[-2.93429375e-01 -1.69441267e-03 -5.60952485e-01 -1.76214564e+00
    -1.67518333e-01 -3.17116886e-01]]]]
[-1.9415812  -0.0024521   0.27200413 -2.028926   -2.0280821  -1.8449354 ]
[[[[ 1.21114150e-01  2.43670985e-01 -2.15023980e-01 ... -3.64672184e-01
     1.90920550e-02 -1.02892853e-01]
   [-1.40610468e+00 -8.51964235e-01 -5.71442127e-01 ...  3.13840717e-01
    -4.40770119e-01  4.99951482e-01]
   [ 5.28318465e-01  7.02833161e-02 -7.49792397e-01 ...  4.10046577e-01
     5.51529117e-02  4.77724135e-01]
   [ 9.51955318e-01 -3.39957595e-01  8.95175993e-01 ... -2.54298568e-01
     1.66175410e-01  3.03017646e-01]
   [ 3.93861443e-01  3.17375422e-01  1.90710485e-01 ... -8.24295059e-02
    -3.31122607e-01 -7.01794103e-02]
   [ 4.08586353e-01  5.17821550e-01  5.71814142e-02 ... -5.91018915e-01
    -8.01847875e-02 -7.62784928e-02]]

  [[ 2.06459507e-01  3.84872645e-01 -3.85977387e-01 ...  5.12566790e-02
    -3.30848545e-01  5.87796330e-01]
   [ 3.88827771e-01 -2.62099767e+00  1.80192864e+00 ...  9.44204852e-02
    -2.77602375e-01 -9.86416936e-01]
   [-7.02786148e-01 -9.83356059e-01  1.27164829e+00 ...  2.62842983e-01
     2.75490373e-01 -1.25090659e+00]
   [ 6.28729016e-02  4.58455980e-01  9.28063095e-01 ...  1.64728686e-01
    -1.17606294e+00  2.65472263e-01]
   [ 2.15243418e-02  1.59452856e-01  1.64173380e-03 ... -3.13405514e-01
    -1.95537165e-01  7.16817021e-01]
   [-1.32804409e-01  2.75058180e-01 -3.08528811e-01 ... -3.12740773e-01
    -2.11134134e-03  6.25896394e-01]]

  [[ 1.62367868e+00  4.05710548e-01 -9.39988911e-01 ...  2.99647599e-01
    -2.36668531e-02  2.58764386e-01]
   [ 2.19746783e-01 -1.86426175e+00  1.60152078e+00 ... -9.04091418e-01
     5.32253981e-01 -9.29744840e-01]
   [ 9.49904501e-01 -2.68268615e-01  1.36592329e+00 ...  6.17030859e-01
     1.48951307e-01 -1.11717403e+00]
   [ 9.58649576e-01  4.72005308e-01 -2.19173622e+00 ... -1.11154579e-01
    -1.04519463e+00  1.75357461e+00]
   [ 3.05378079e-01  2.82556087e-01 -5.49858630e-01 ...  1.21167284e-02
    -2.12772101e-01  4.54587579e-01]
   [ 2.42479935e-01  3.16201508e-01 -1.08361685e+00 ...  8.91068801e-02
     4.88309115e-02  4.94730562e-01]]

  [[-9.31307003e-02  3.66437823e-01 -2.44235918e-01 ...  4.43178788e-02
    -3.55068654e-01  4.96051125e-02]
   [-5.39441824e-01 -7.50028431e-01 -1.42722070e+00 ... -2.14882803e+00
     2.04732871e+00  7.53088593e-01]
   [-3.37582320e-01  9.60163832e-01 -8.38475645e-01 ... -1.63790512e+00
     1.59751034e+00 -7.04949647e-02]
   [-1.48440823e-01  8.38862002e-01 -2.66174585e-01 ...  1.27082646e+00
    -1.24645865e+00  8.80919099e-01]
   [-9.20277476e-01  3.76769096e-01 -5.80554605e-01 ...  5.60503364e-01
    -2.62193948e-01 -2.34792620e-01]
   [-3.08121294e-01  2.90399194e-01 -7.77555287e-01 ... -9.73330289e-02
    -8.21089596e-02 -6.22669198e-02]]

  [[ 6.28734350e-01 -1.98147416e-01  3.97448659e-01 ...  6.13364458e-01
    -4.76454943e-01 -2.33319253e-01]
   [-5.39370179e-01 -2.88064063e-01 -4.29189086e-01 ...  6.65944695e-01
     1.30106342e+00  6.81113958e-01]
   [-1.03746295e+00  1.06201088e+00  1.16519105e+00 ... -2.56025136e-01
     9.55826461e-01 -4.17532548e-02]
   [ 1.02934659e+00  1.13510275e+00  9.21298742e-01 ...  1.88761377e+00
    -1.12809360e+00 -5.22211730e-01]
   [-1.68724686e-01  2.76746929e-01  3.96656543e-01 ...  7.92294085e-01
    -2.40010470e-01 -3.79341543e-01]
   [ 3.67277116e-01  1.00038759e-01  6.19241409e-02 ...  4.66323763e-01
     1.56577304e-02 -3.55056614e-01]]]


 [[[ 4.41838205e-01  4.06836510e-01  2.85471320e-01 ... -3.28634411e-01
    -3.64263728e-02 -3.30102414e-01]
   [ 6.23314738e-01 -2.52594501e-01 -8.99904132e-01 ... -1.11341111e-01
     3.88037920e-01  7.62030303e-01]
   [ 4.51650321e-02 -9.70477760e-01 -1.68256974e+00 ...  2.59739757e-01
     7.73942530e-01  1.37168133e+00]
   [-2.40092203e-01 -5.27825475e-01  5.70827663e-01 ... -1.23843186e-01
    -6.35293126e-01 -1.11202347e+00]
   [ 4.91361946e-01  5.93461394e-01  6.30860865e-01 ... -4.08488631e-01
    -3.71908605e-01 -3.86044562e-01]
   [ 4.34379220e-01  4.22548562e-01  2.00717807e-01 ... -7.83423245e-01
     6.20545223e-02  1.59158349e-01]]

  [[ 1.12013236e-01  3.46249580e-01 -1.84444040e-01 ... -9.60234329e-02
     3.62181738e-02 -2.30350211e-01]
   [ 2.36362204e-01 -2.17302227e+00  4.98397619e-01 ...  2.52863586e-01
    -7.38152444e-01  5.59924506e-02]
   [-9.21904564e-01 -4.68528450e-01 -2.91001350e-01 ... -1.26094922e-01
    -8.87957990e-01  2.13941541e-02]
   [-2.17711613e-01 -5.68893433e-01  7.04611182e-01 ... -4.76412296e-01
    -5.49818337e-01 -7.71202624e-01]
   [ 3.34346414e-01  2.23135337e-01  3.36637259e-01 ... -3.89014423e-01
     1.87114298e-01 -6.97626591e-01]
   [ 2.34183967e-01  2.91405708e-01 -3.41291815e-01 ... -5.24497092e-01
     2.68243104e-01  1.69932008e-01]]

  [[-7.68989801e-01  3.82288039e-01 -3.07691768e-02 ... -3.58727962e-01
    -2.18967199e-01 -2.43220806e-01]
   [ 1.13414645e+00 -1.94935000e+00  1.77203870e+00 ...  6.18996263e-01
    -2.85519566e-02 -4.97817546e-01]
   [ 3.43411155e-02 -1.35568321e+00  3.39400196e+00 ...  6.60064280e-01
    -5.10983467e-01 -9.45081055e-01]
   [-5.29059410e-01 -2.45035440e-02 -7.06443787e-01 ... -3.84620994e-01
     1.65538043e-01  8.40444148e-01]
   [-1.49552390e-01  1.96664706e-01 -4.82798368e-02 ... -2.55150288e-01
     1.83053285e-01 -5.96060038e-01]
   [-2.34451070e-01  3.94593924e-01 -2.64208049e-01 ... -7.49837831e-02
     5.19838706e-02 -6.31067395e-01]]

  [[-1.57362187e+00  3.20189148e-01  1.77197143e-01 ...  5.72408438e-02
     8.95823836e-02  1.65859964e-02]
   [ 6.69749260e-01 -3.58628392e-01 -8.67582932e-02 ... -4.01829600e-01
     6.81819737e-01  9.54786420e-01]
   [ 2.82572865e-01 -1.58879936e+00 -3.09622109e-01 ... -6.87322557e-01
     2.03763604e+00  1.19935298e+00]
   [-1.45960295e+00 -1.28453419e-01  3.42805296e-01 ...  3.01135927e-01
     1.74284920e-01  1.02903381e-01]
   [-1.34480143e+00  8.08869228e-02  2.28772238e-01 ... -3.58484179e-01
     6.15181355e-03  3.69804859e-01]
   [-9.98250246e-01  2.68854648e-01 -1.51856497e-01 ... -8.20853353e-01
    -1.27282500e-01  1.41786769e-01]]

  [[-1.48621738e+00 -4.90744896e-02 -1.91468462e-01 ...  7.42328107e-01
    -2.62805242e-02 -6.44040883e-01]
   [ 3.62776726e-01  4.07499820e-01  1.13202883e-02 ...  2.21109957e-01
    -4.07991379e-01  7.82205522e-01]
   [ 3.57135564e-01 -1.31147578e-01 -1.83867633e+00 ... -6.92564547e-01
     1.27731143e-02  1.19324036e-01]
   [-1.02110481e+00  2.71604538e-01  1.01091409e+00 ...  1.74596441e+00
     2.32025266e-01 -9.92960989e-01]
   [-7.36875117e-01 -4.09471393e-02  4.64451820e-01 ...  4.43484455e-01
    -1.12880640e-01 -2.37913951e-01]
   [-8.98635089e-01 -2.24608108e-01  1.84018016e-01 ...  7.36802280e-01
    -6.92525804e-02 -6.53055847e-01]]]


 [[[ 7.86884427e-01  3.50766301e-01  5.21752499e-02 ...  5.39978623e-01
     1.87468424e-01  1.20227590e-01]
   [ 9.16364729e-01 -1.50975570e-01 -8.20052683e-01 ...  4.03761417e-01
     1.29483080e+00 -3.99473131e-01]
   [-1.68746978e-01 -4.49781746e-01 -8.73521984e-01 ...  4.38821197e-01
     8.68410587e-01 -6.21144921e-02]
   [ 1.45386457e+00 -1.21310663e+00  6.74893260e-01 ...  5.69523722e-02
    -1.04006207e+00  1.12113692e-01]
   [ 3.76079828e-01  5.63635863e-02  1.73089862e-01 ... -2.64358401e-01
     2.85220817e-02  6.18989840e-02]
   [ 6.84977412e-01  2.68893629e-01  3.17875981e-01 ...  4.92937982e-01
     2.44078591e-01 -1.62702322e-01]]

  [[ 3.89561474e-01  1.39366701e-01 -6.91967607e-01 ... -2.15594366e-01
    -1.10018775e-01 -7.67959833e-01]
   [ 1.38113678e+00 -1.87835383e+00  9.10337627e-01 ... -5.02378225e-01
    -1.07707775e+00  6.65408075e-01]
   [-4.05639321e-01  9.04201567e-02 -7.17997313e-01 ... -6.97163284e-01
    -1.75736606e-01  4.52962011e-01]
   [ 5.98194897e-01 -1.73570013e+00  8.32308590e-01 ... -5.09622470e-02
     1.27317950e-01 -3.92514020e-01]
   [-1.13919377e-03  3.07530999e-01 -2.60257483e-01 ... -1.15118846e-01
    -5.12638614e-02 -1.83108270e-01]
   [ 3.64579856e-01  1.90086827e-01 -3.54277164e-01 ... -3.31413522e-02
    -7.17440024e-02 -3.33285749e-01]]

  [[-3.99884805e-02  2.77107835e-01  8.53635669e-02 ... -5.32066166e-01
    -1.92194596e-01 -2.71933049e-01]
   [ 1.34894252e-01 -2.63190866e+00  1.28507638e+00 ...  1.88906097e+00
     1.68153560e+00  1.94877714e-01]
   [ 2.79758662e-01 -8.16683710e-01  1.57610977e+00 ...  4.15689319e-01
     1.94171578e-01 -4.40525532e-01]
   [ 5.99955082e-01 -1.04385102e+00 -3.34549278e-01 ... -4.32570046e-03
    -6.42312244e-02 -5.42736113e-01]
   [-2.08260208e-01  2.55169928e-01 -1.85409501e-01 ... -4.11579460e-01
    -9.31231380e-02 -8.56219351e-01]
   [-2.79038012e-01  2.28450581e-01  7.63822421e-02 ... -4.63167965e-01
    -3.20914298e-01 -5.09161413e-01]]

  [[-1.02741563e+00  1.59180567e-01 -1.24500394e-02 ... -4.02860940e-01
    -2.31416464e-01  1.03867412e+00]
   [ 3.71703774e-01 -7.31407821e-01 -8.20345521e-01 ...  1.36156631e+00
     7.83613324e-01 -7.45459795e-02]
   [ 2.49251425e-01 -1.33064806e+00 -1.21466112e+00 ...  1.55505443e+00
     3.80525053e-01  9.68867123e-01]
   [-2.87474155e-01 -3.66797775e-01  2.18277685e-02 ... -1.62892890e+00
    -5.15757084e-01  3.86459976e-01]
   [-7.21204758e-01  5.34004867e-02  1.19911209e-02 ... -1.01914394e+00
     2.68517826e-02  1.09951532e+00]
   [-1.24052346e+00  1.22152343e-01  9.30431336e-02 ... -5.98035216e-01
    -2.02023953e-01  4.31608766e-01]]

  [[ 8.05792928e-01 -1.25468969e-01 -5.64472489e-02 ...  1.82358563e-01
     6.89025000e-02 -5.98113127e-02]
   [ 1.08044350e+00 -8.18468928e-02  5.57217658e-01 ... -6.83752656e-01
    -8.46859217e-01 -2.68329620e-01]
   [ 1.64612806e+00  1.02485228e+00  6.84273094e-02 ...  1.00112092e+00
    -2.17557937e-01  2.06044898e-03]
   [-1.69247627e+00 -9.32543993e-01  7.78843880e-01 ...  6.23449683e-02
    -6.18367255e-01 -8.20241868e-02]
   [ 3.00773233e-01 -2.50266850e-01 -1.34244621e-01 ... -7.09889412e-01
    -4.07438487e-01  7.17808545e-01]
   [ 2.12822422e-01 -9.10719186e-02  1.30800843e-01 ...  2.17059463e-01
    -3.85778844e-01  3.33123326e-01]]]


 [[[ 1.48722380e-01 -2.06118688e-01 -1.41303882e-01 ...  2.06315368e-01
     3.13143164e-01  4.01902422e-02]
   [ 5.76709449e-01 -1.90653920e-01 -7.80590236e-01 ... -2.12785252e-03
     1.13978839e+00  1.71577007e-01]
   [-4.90851134e-01  1.49833292e-01 -1.72405314e+00 ...  1.35728264e+00
     4.58533376e-01 -1.52053761e+00]
   [ 1.03235888e+00 -1.14795065e+00  2.44943023e-01 ... -5.94386220e-01
     9.33066159e-02  3.68561655e-01]
   [ 3.58852348e-03 -3.25421035e-01  9.97012667e-03 ...  1.16830520e-01
     4.37119529e-02  3.05009663e-01]
   [ 8.52608234e-02  4.13611159e-02  1.45490281e-02 ...  9.95088875e-01
     9.38183889e-02 -5.15169092e-03]]

  [[-1.82265937e-01  2.91666865e-01 -5.49216568e-01 ...  3.10072070e-03
    -1.57235697e-01 -3.48675281e-01]
   [ 8.54241699e-02 -1.99975419e+00  3.21561903e-01 ... -1.88337219e+00
    -2.40590781e-01  7.12368906e-01]
   [-1.83825028e+00  6.40119970e-01 -1.05789506e+00 ... -3.98307413e-01
    -6.06962383e-01 -3.21974009e-01]
   [-1.58240244e-01 -9.35051739e-01  5.02076924e-01 ... -1.32919610e-01
     6.30016923e-01  1.29711643e-01]
   [-1.48989365e-03  4.57853287e-01 -3.77876043e-01 ...  1.15246683e-01
    -1.68856189e-01 -2.12838531e-01]
   [-1.78170398e-01  4.05663967e-01 -7.52944887e-01 ...  2.97441930e-01
    -2.37342477e-01 -3.75692606e-01]]

  [[-8.03682387e-01  3.40920210e-01  2.15437021e-02 ... -4.76642728e-01
    -2.07834184e-01 -5.45617342e-01]
   [-1.83981001e-01 -2.90539932e+00  5.96043110e-01 ...  2.83067942e-01
     1.73909903e+00  3.61282080e-01]
   [-9.86656249e-01 -2.05097055e+00  1.65479958e+00 ... -3.20325971e-01
    -1.03910863e-01  8.85466516e-01]
   [ 1.64627492e-01  6.02285147e-01 -4.40248966e-01 ...  3.58537257e-01
     3.17287184e-02 -1.05979407e+00]
   [-3.20121437e-01  1.59709185e-01 -1.88248396e-01 ...  1.39247835e-01
    -1.46624342e-01 -9.36001062e-01]
   [-7.22159684e-01  1.68167531e-01 -1.97666898e-01 ... -3.99682105e-01
    -2.62823671e-01 -8.62928808e-01]]

  [[-7.75137991e-02  1.92777708e-01  2.02566423e-02 ... -4.71464127e-01
    -1.96780071e-01  4.48792696e-01]
   [-4.82430100e-01 -2.39664186e-02 -1.27462566e+00 ...  9.96789157e-01
     5.61125875e-01 -3.00097644e-01]
   [-8.47984850e-03 -6.99977636e-01 -1.53575671e+00 ...  2.29231954e+00
     1.11675274e+00  1.13085961e+00]
   [-2.17141613e-01  3.93434137e-01  2.60543406e-01 ... -1.83825839e+00
    -4.49649453e-01 -3.07590097e-01]
   [-3.27030540e-01  1.34892136e-01 -1.34429410e-01 ... -7.22801268e-01
    -3.17686796e-01 -7.31414437e-01]
   [-9.14055765e-01  1.35444194e-01 -4.14745927e-01 ... -1.00403893e+00
    -2.75472075e-01  2.01486647e-01]]

  [[ 5.37648976e-01 -3.51745605e-01 -2.31113449e-01 ... -4.91028160e-01
    -2.37693727e-01  8.31081748e-01]
   [ 1.00755131e+00 -1.33832008e-01 -5.89884162e-01 ...  3.96349043e-01
    -3.81993413e-01 -3.28863740e-01]
   [ 1.41979647e+00  2.68084615e-01  1.38092563e-02 ...  1.03409839e+00
     2.52900571e-01 -4.70433861e-01]
   [-4.16057892e-02 -2.17422441e-01  2.16028750e-01 ... -1.43069720e+00
    -1.41792524e+00  4.53719229e-01]
   [ 4.42214400e-01 -1.70264482e-01 -5.23235984e-02 ... -4.87146467e-01
    -4.06373054e-01  5.22134960e-01]
   [ 4.17882234e-01 -1.37373701e-01 -3.06115866e-01 ... -7.16957271e-01
    -3.83798003e-01  4.13637877e-01]]]


 [[[-5.47483861e-02 -4.58259910e-01  7.00199679e-02 ...  4.84780222e-01
     1.78765416e-01  2.43965998e-01]
   [-1.22070283e-01  4.07242417e-01 -8.84498656e-01 ... -7.98629165e-01
     9.01127458e-01 -1.79610580e-01]
   [ 4.85372931e-01  9.83891726e-01 -1.61843920e+00 ...  1.38492560e+00
     3.75258476e-01 -7.35639989e-01]
   [ 2.52866358e-01 -7.34105885e-01  8.08868885e-01 ...  2.06951156e-01
     1.41977414e-01  2.72384673e-01]
   [-4.68721926e-01 -1.42245248e-01 -7.57707730e-02 ...  1.13974237e+00
    -1.51348859e-01 -3.41975003e-01]
   [-8.95094946e-02 -2.97603428e-01  1.33204728e-01 ...  7.43138194e-01
    -1.11018904e-01 -2.48111412e-01]]

  [[-4.41907614e-01 -5.19463606e-02 -3.69382858e-01 ...  1.30377293e-01
    -8.61376747e-02 -7.22864628e-01]
   [-7.43251204e-01  5.16847847e-03 -2.45770544e-01 ... -1.16714823e+00
     1.53907144e+00  5.62596500e-01]
   [-1.03261292e+00  9.17245626e-01 -1.19573319e+00 ... -3.36765021e-01
     1.05818681e-01  3.91004495e-02]
   [-5.74690521e-01 -7.49303699e-01  3.19754332e-01 ... -1.58468664e-01
     7.54929557e-02 -4.35042232e-01]
   [-3.85636419e-01  1.06474131e-01 -1.94496080e-01 ... -4.45902906e-02
    -2.85333425e-01 -3.07884365e-01]
   [-2.28738517e-01  9.57206711e-02 -4.76399392e-01 ... -1.68332383e-01
    -8.06381628e-02 -3.81677955e-01]]

  [[-4.32609022e-01 -1.20689124e-01 -4.94159013e-02 ... -1.92847192e-01
    -8.72141048e-02 -8.83300364e-01]
   [-8.93401921e-01 -2.55530089e-01  1.11176884e+00 ... -1.04824400e+00
     3.20711374e+00  6.84663415e-01]
   [-1.00267720e+00 -3.09050411e-01  1.58283472e+00 ... -1.22957039e+00
     9.52943563e-01  7.62426138e-01]
   [-3.29293340e-01  2.12609187e-01 -2.88827449e-01 ...  9.22320843e-01
    -5.33337235e-01 -1.35979712e+00]
   [-5.55074573e-01 -2.78241664e-01  3.53510976e-02 ... -9.54521745e-02
    -8.14280868e-01 -1.62056375e+00]
   [-4.13321614e-01  7.45441169e-02  2.86301851e-01 ... -3.94166112e-01
    -6.33788928e-02 -8.65706265e-01]]

  [[ 7.64784276e-01 -7.12482035e-02 -1.85080439e-01 ... -1.00365818e-01
    -1.38687968e-01  3.57175320e-01]
   [-1.21600412e-01  5.45985281e-01 -1.59040764e-01 ...  6.02351762e-02
     1.84976804e+00  7.78078973e-01]
   [ 5.65744638e-01  8.85945141e-01 -1.68838501e-01 ...  2.01164007e-01
     1.10354102e+00  1.71819639e+00]
   [-6.90129042e-01  2.88956761e-01  5.29857814e-01 ...  3.60264897e-01
    -2.43307367e-01 -1.76124406e+00]
   [-5.85062876e-02 -4.45553362e-01  1.81124806e-01 ...  3.06313217e-01
    -4.64028060e-01 -8.91901553e-01]
   [-2.94171393e-01  2.82685012e-02 -9.34057757e-02 ...  1.48689792e-01
     4.38294522e-02 -3.57015997e-01]]

  [[ 1.56010777e-01 -1.97919980e-01  9.10979211e-02 ... -4.11544710e-01
    -2.87087113e-01  9.74045634e-01]
   [ 2.25322425e-01  8.29852164e-01  1.51906565e-01 ...  3.38303894e-01
     7.32593179e-01 -9.11659598e-02]
   [ 6.06643796e-01  9.88741100e-01  6.94303572e-01 ...  2.34599918e-01
     1.28306842e+00  1.01986694e+00]
   [-6.97629154e-01 -1.45054877e-01  2.03125343e-01 ... -1.63305545e+00
    -5.26886761e-01 -1.29044980e-01]
   [ 4.75455642e-01 -9.58601713e-01  2.75555998e-01 ... -4.37845588e-01
    -5.76729774e-01  6.29121959e-01]
   [ 6.66023850e-01  4.26959842e-02  5.83683439e-02 ...  3.27474959e-02
     9.54035576e-03  4.73808527e-01]]]]
[-0.18061824 -0.0151572  -0.3701111  -0.18828322 -0.53814846 -0.17212921
  0.03128823 -0.17329772 -0.2066406  -0.33532956  0.03883691 -0.05051996
 -0.21486638  0.17968176 -0.09155092  0.22527935]
[[-0.24997334 -0.01614034 -0.7277144  ...  0.19383177  0.4577189
   0.22655496]
 [-0.17954253 -0.9046188  -0.5899142  ... -0.15994903 -0.77922803
   0.12101305]
 [-0.00214582 -0.14063935 -1.1307657  ... -0.12370814 -0.13197558
  -0.10835979]
 ...
 [-0.74315566 -0.36703414  1.0385337  ...  0.36521596 -0.01382922
  -0.7044077 ]
 [-0.3141183  -0.5797335   0.74453527 ...  0.12098315  0.1610329
  -0.00559023]
 [-0.2552766  -0.06424477  0.6084472  ...  0.4847014   0.6738924
   0.1107174 ]]
[-2.96557099e-01 -2.93705583e-01 -2.67398834e-01 -1.34897560e-01
  2.79294085e-02  8.85174647e-02 -2.15149596e-01 -3.83435130e-01
 -2.69770920e-01 -3.04744113e-02  7.43914023e-02 -4.68623906e-01
  2.95797825e-01 -1.65188879e-01 -1.56473413e-01 -1.31674533e-04
 -1.74030632e-01  1.47914082e-01  2.33840849e-02  1.81461632e-01
  2.58596569e-01 -7.14896172e-02  4.15699258e-02 -2.41247609e-01
 -1.10751688e-01 -4.36801732e-01  3.06955464e-02 -5.52951507e-02
  2.95110524e-01  1.82924822e-01  2.32272327e-01  6.37359917e-02
 -1.99427381e-01 -6.35421798e-02  2.08916172e-01  3.71052995e-02
 -2.77912647e-01 -2.16702402e-01  6.53689951e-02 -1.01304665e-01
  2.24385858e-02 -2.61428684e-01  2.90802658e-01  5.16896360e-02
 -1.22762702e-01  2.13993683e-01 -1.70783252e-01 -3.23795408e-01
 -2.01048881e-01  2.22058177e-01 -2.23316878e-01  5.37674464e-02
 -8.01154822e-02  1.51982173e-01  1.68836027e-01 -8.83339271e-02
  2.69058496e-01  2.95686126e-01 -4.74762201e-01 -1.09450400e-01
 -3.25087637e-01 -6.50363602e-03  1.63058385e-01 -1.07045718e-01
 -2.91510206e-02  2.27379933e-01  1.09290428e-01 -6.85547218e-02
 -1.44951522e-01 -1.33689880e-01  5.33185489e-02 -3.26910354e-02
  6.25652522e-02 -2.84961760e-01  1.45711169e-01 -4.29373771e-01
  2.01721400e-01  2.31835231e-01  1.16283625e-01 -7.37139955e-04
  1.09098449e-01 -4.27005962e-02  1.69868678e-01  1.71687633e-01
 -1.62153110e-01  1.66329183e-02  3.01264673e-01  2.07320035e-01
  6.42095134e-02 -7.62898801e-03 -1.38749614e-01 -6.96096271e-02
 -1.20885745e-01 -3.39294225e-02 -2.76947349e-01 -1.42892957e-01
  1.24247573e-01  1.62520632e-01 -1.16343208e-01 -9.55123752e-02
  2.50286013e-01  8.06865841e-02 -1.07720651e-01  1.13410845e-01
 -2.27957785e-01 -2.57087350e-01  7.51876608e-02  1.74876645e-01
  1.29454628e-01 -2.90970922e-01  4.17710543e-01 -1.64763570e-01
 -1.12934858e-01 -3.47894102e-01 -3.26545797e-02 -3.22661728e-01
  1.31358266e-01  7.38915801e-02 -2.90746819e-02 -2.22221553e-01]
[[-1.9811813   0.45300665  0.18581834 ... -0.2307313  -0.1859221
  -1.4163325 ]
 [ 0.57381755 -0.23638828  1.7449528  ... -0.04180239  0.552134
   0.8944607 ]
 [-0.05584664 -0.30689788 -0.385782   ... -0.7957095   1.1496574
  -0.16095504]
 ...
 [ 1.3911163  -0.81672317  0.3480347  ...  1.5770582   0.01885876
   0.5210784 ]
 [ 0.3884167   0.29475743  0.4474768  ... -0.07856496  0.28676677
  -0.4730478 ]
 [-0.1528802  -1.3972024  -1.1414202  ...  1.5225581  -0.5130371
  -0.69122344]]
[-0.00618697 -0.04608326  0.0274862  -0.01376471  0.00970411  0.01971204
 -0.07012557  0.04069146 -0.04906668 -0.11093964  0.11182471 -0.09706441
 -0.036182   -0.03512366  0.04294431  0.12165888 -0.00077907 -0.10377105
 -0.05304909 -0.04897994 -0.0158502   0.01077723 -0.1331064   0.05817911
 -0.15753749 -0.0932105  -0.03199087 -0.06705431 -0.01506217  0.0188338
  0.02960724  0.01522349 -0.04722842 -0.03503156 -0.04321773  0.07433578
 -0.06823368  0.01222434 -0.02668951  0.01223548 -0.02750877 -0.0247148
  0.04009459 -0.08998986  0.02779069 -0.01672509  0.01675498  0.03901772
 -0.11690692 -0.02691828  0.07460029  0.03172314 -0.11624534 -0.08614977
 -0.06442748  0.03772401 -0.11086085 -0.01265465  0.044072    0.05117141
 -0.12250408 -0.06774572 -0.10129956  0.0409663   0.00166204 -0.0096019
 -0.01866323 -0.01362649  0.08000373 -0.11406168  0.12244901 -0.04774808
  0.02954019 -0.01409127 -0.04418892 -0.02180066 -0.0304918  -0.01417317
  0.02259849 -0.06265672 -0.05257582 -0.10625269  0.03326435 -0.06421357]
[[ 6.17504418e-02 -2.55140305e+00 -2.58379984e+00  5.13201118e-01
  -1.97011626e+00  9.39373434e-01  2.06935835e+00 -6.19494259e-01
  -2.73226619e+00  7.56796479e-01]
 [ 4.03292358e-01  9.13304910e-02  8.08850110e-01 -6.20810628e-01
  -6.29519224e-01 -2.80210090e+00 -2.51408130e-01  8.41722965e-01
   7.29711354e-01 -2.05088615e+00]
 [ 2.18193755e-01  6.49138987e-01  4.98623908e-01  4.35670555e-01
  -1.15648293e+00 -5.82530618e-01  5.21388799e-02 -3.52341294e+00
   5.46432197e-01  5.67434013e-01]
 [ 1.58874467e-01  2.88464278e-02 -2.03040552e+00  6.27059937e-01
   1.57845807e+00 -2.82043666e-01 -2.05834344e-01  7.68640220e-01
  -8.28816950e-01 -3.95081878e-01]
 [ 3.68201137e-01 -7.40810335e-01  5.79305291e-01  3.90173763e-01
   4.86275256e-01 -1.73393321e+00  2.11151376e-01 -3.62907720e+00
  -3.43939948e+00  2.67439820e-02]
 [-1.01074851e+00 -2.96055293e+00  2.22344115e-01 -1.26887548e+00
   4.16522413e-01 -3.54855448e-01  1.32210433e-01  2.91068375e-01
   4.10869539e-01  2.99709082e-01]
 [ 1.40763372e-01 -1.02696371e+00 -9.47923899e-01 -2.22249269e+00
   6.03433549e-02 -1.81524920e+00  1.59988952e+00 -1.22911298e+00
  -7.30295554e-02  1.57500172e+00]
 [ 9.98350143e-01 -5.46045125e-01 -3.49789977e+00 -1.13320923e+00
   6.43631890e-02  5.19866228e-01 -2.46448827e+00  3.08107674e-01
   2.33623052e+00  4.73887473e-01]
 [ 1.12429447e-01 -2.33033493e-01  5.83233349e-02  8.76466259e-02
   4.28165793e-02 -4.22530699e+00  3.84898752e-01 -1.94707847e+00
   7.10532129e-01 -3.81449056e+00]
 [ 2.47588068e-01 -2.62115026e+00  5.79478741e-01 -2.29673886e+00
   3.92706156e-01  7.55289614e-01  4.36939329e-01  5.13490975e-01
  -1.87668419e+00 -1.94464660e+00]
 [ 1.43011749e+00  1.49118924e+00  1.13994932e+00 -1.18502967e-01
  -1.19697845e+00 -8.56956005e-01 -2.46385121e+00 -1.06493354e+00
   7.13548243e-01  1.04737806e+00]
 [-1.60168397e+00  1.64472148e-01 -4.51247245e-01 -9.08529937e-01
   1.04710972e+00 -1.43721366e+00  2.66161170e-02 -3.81878316e-02
   9.28268582e-02  3.65635693e-01]
 [-1.26691639e+00 -1.00500941e+00  1.18734159e-01  5.25977969e-01
   5.49060166e-01  2.04117104e-01  8.08796138e-02  7.15503573e-01
  -5.80992699e-02 -5.24114728e-01]
 [ 2.25499138e-01  6.78248525e-01  2.64214933e-01  3.30304176e-01
  -4.26610589e-01 -3.80272651e+00  3.38539034e-01 -2.52621770e+00
   4.99002010e-01 -4.15887415e-01]
 [ 4.76306856e-01 -1.27862051e-01  6.52537763e-01 -2.87358433e-01
  -1.97451329e+00  5.27230203e-01  5.24446249e-01 -5.66430569e-01
  -1.64439154e+00  5.40473342e-01]
 [ 1.28761232e+00 -1.69704628e+00 -4.08134127e+00 -9.84551534e-02
  -7.87030399e-01  7.32578278e-01 -1.37614048e+00  4.16038513e-01
   1.15269387e+00  4.73535120e-01]
 [-1.82581413e+00  1.59663469e-01  4.79947664e-02  4.41601545e-01
   5.80899894e-01 -4.31485653e-01  2.01058030e-01  2.59636998e-01
  -1.18919230e+00  4.32014614e-01]
 [-1.94540071e+00 -2.49900579e-01 -1.58024752e+00  5.45184851e-01
   1.26598969e-01  4.03052151e-01 -5.70954978e-01  7.06750825e-02
   1.40361750e+00  2.31484324e-01]
 [ 9.53376964e-02 -1.32565391e+00  6.82974339e-01 -2.63822126e+00
  -5.49628973e-01  1.28816044e+00  6.31444037e-01 -1.18675578e+00
   7.74925232e-01 -6.29692376e-01]
 [-5.73982708e-02 -2.60223985e-01  3.84673774e-01  1.03313036e-01
   4.39617008e-01 -1.76853526e+00  3.76442045e-01 -4.56715918e+00
  -3.20747042e+00 -2.75733781e+00]
 [ 1.31393047e-02  3.84561211e-01 -1.75208509e+00 -6.39307320e-01
   1.98204383e-01 -5.64470887e-03  8.22400272e-01  3.77882451e-01
   6.95074141e-01  3.82450312e-01]
 [ 9.66690600e-01 -2.37950444e+00 -3.55230260e+00 -2.28841901e+00
  -2.96398211e+00  1.10522521e+00  1.19908810e+00 -1.18415669e-01
  -2.19287252e+00 -5.09392560e-01]
 [-1.88123024e+00  7.44680643e-01  4.85072672e-01 -4.86584842e-01
   7.76495516e-01  4.90447998e-01 -6.01664223e-02  8.39668393e-01
   1.45150876e+00 -2.29014421e+00]
 [-5.16157806e-01 -1.50951600e+00  3.74149323e-01 -8.06632221e-01
   4.10978317e-01 -1.62222934e+00  1.18556038e-01 -5.91102421e-01
   1.02776575e+00  7.92118609e-01]
 [-1.27318835e+00 -8.56754303e-01  3.93522203e-01  7.38084793e-01
   2.72274882e-01 -7.33269528e-02 -2.15152130e-01  5.04702985e-01
  -5.49096882e-01 -9.69672799e-01]
 [-7.41041526e-02  3.87277573e-01 -3.19803810e+00  1.90115735e-01
   8.66876543e-01  6.80164695e-01  6.89030826e-01 -8.74237940e-02
  -4.57099140e-01 -1.99713826e+00]
 [ 1.93909153e-01 -3.52770425e-02 -1.51468730e+00  4.81811464e-01
   6.00296080e-01  9.45295751e-01  5.90459883e-01 -1.70793331e+00
  -4.39186990e-01 -5.75067639e-01]
 [-2.02098727e+00 -2.57582545e+00 -1.71337351e-01  1.14425838e+00
   3.42610896e-01 -9.44797337e-01  6.94957495e-01  3.49362999e-01
  -2.13268065e+00  3.44894081e-01]
 [ 2.04971507e-01 -4.00088012e-01 -1.43705234e-01  1.89837608e-02
  -1.55402827e+00  5.98735571e-01  6.44316912e-01  3.45347017e-01
   9.66565609e-01 -2.11899474e-01]
 [ 6.29138827e-01 -2.27164865e+00  8.35466444e-01 -4.44651932e-01
   6.31167412e-01 -2.62162113e+00  1.87646225e-01 -7.73764670e-01
  -3.36414385e+00 -6.06346786e-01]
 [ 1.84884429e+00  1.20100176e+00  1.61958075e+00 -7.85860538e-01
  -2.81331420e+00 -1.14746666e+00 -1.62297165e+00 -2.27008648e-02
   8.87996435e-01  9.65713322e-01]
 [-1.02733040e+00  1.33391142e+00  1.54906964e+00 -7.69426405e-01
   6.39601126e-02  1.01915419e+00 -2.40300989e+00 -1.31704819e+00
  -1.83102143e+00  3.88720810e-01]
 [-1.74869716e+00  9.67547596e-01 -8.71340811e-01  1.13642740e+00
   5.69731653e-01  3.46690863e-01 -1.44020998e+00  4.36676681e-01
   9.01622236e-01  2.60553241e-01]
 [ 8.64874542e-01  5.91222584e-01 -8.25407565e-01  9.31751311e-01
   1.03039610e+00 -2.76662087e+00 -1.90972900e+00  1.09473717e+00
   3.76240402e-01 -1.09319603e+00]
 [-1.98082232e+00  5.30144513e-01  4.09106702e-01  1.30293775e+00
   2.65760362e-01  6.08179808e-01 -1.37769461e+00  5.85209787e-01
   8.27568471e-01 -6.22545302e-01]
 [ 1.47138655e+00 -1.92065275e+00 -4.03863758e-01 -1.16566038e+00
  -1.87978661e+00  9.13270593e-01  4.55415808e-02  1.33563921e-01
  -5.03291368e-01 -1.34251237e+00]
 [-3.87576260e-02 -2.23751143e-01  1.47056714e-01 -1.33897352e+00
   5.27975917e-01  1.83314800e+00  4.94441450e-01 -1.82379484e+00
  -7.51121417e-02 -1.26584697e+00]
 [ 4.75432754e-01  4.84187871e-01 -9.76059079e-01  2.95988083e-01
   8.43324900e-01  3.33129495e-01 -2.99620247e+00  3.46440256e-01
   9.59246278e-01  4.51857746e-01]
 [ 4.61517245e-01 -2.58861971e+00 -6.02527499e-01  4.31381881e-01
  -1.19504213e+00 -1.62968111e+00  8.13699603e-01 -3.61788779e-01
   7.27579355e-01  5.94712019e-01]
 [ 9.71195161e-01 -7.90540397e-01 -3.21338701e+00  1.43719822e-01
  -2.26077765e-01  6.91555619e-01 -7.76421785e-01  1.34169072e-01
   1.62237096e+00  3.40529643e-02]
 [ 2.67291570e+00  1.54475844e+00 -2.61369085e+00 -9.68373120e-01
  -3.96678708e-02  9.28172767e-01 -3.35412931e+00  4.43612486e-01
   5.51630318e-01 -2.31281257e+00]
 [-3.64663452e-02  8.33173335e-01  1.01088488e+00 -3.01709938e+00
   6.90808117e-01 -9.73598480e-01 -1.10344541e+00  3.11554223e-01
  -2.48138452e+00  5.18687904e-01]
 [ 1.48402500e+00 -1.70563459e-02  6.12001121e-01 -2.55784512e-01
   7.38683701e-01 -8.95951748e-01 -1.58994293e+00  1.37065336e-01
  -2.20837951e+00 -7.54303575e-01]
 [-3.81431371e-01  6.84297204e-01  5.51213205e-01 -1.42843771e+00
  -3.21753509e-02 -1.67579329e+00  8.14945757e-01 -1.57029998e+00
   3.26769315e-02  2.32434019e-01]
 [-2.10207939e+00 -2.74820447e-01 -6.46556473e+00 -2.84288430e+00
   1.01310194e+00 -1.47466922e+00 -3.29550266e+00  1.02391016e+00
  -2.67444038e+00  2.89153069e-01]
 [ 1.18252158e+00 -1.05922163e+00 -9.61546674e-02 -3.35693812e+00
  -4.20605898e+00  1.57994628e-01 -1.13334215e+00  2.85847425e-01
   1.48386192e+00  2.91912138e-01]
 [ 7.92211294e-01 -5.44867992e-01  9.14553702e-02  1.98949710e-01
  -2.23446584e+00  1.62896907e+00  7.56888151e-01 -9.83624682e-02
  -9.87392008e-01 -1.92513597e+00]
 [ 1.68158934e-01 -2.80324548e-01  1.43698052e-01  3.13774616e-01
  -9.81930971e-01 -3.22332764e+00  9.40785646e-01 -3.63243127e+00
  -1.84407353e+00 -2.34897590e+00]
 [-3.57475901e+00 -7.92846605e-02  4.10949230e-01  8.65342855e-01
  -5.86688593e-02 -1.36798286e+00  9.70271170e-01  1.40126920e+00
  -4.73479652e+00 -2.10000062e+00]
 [ 5.76331198e-01 -2.49365044e+00  5.34501791e-01 -1.61619771e+00
  -2.86495507e-01  1.14071238e+00  5.46048045e-01 -1.74745548e+00
  -2.26927534e-01 -1.14570069e+00]
 [ 6.45819664e-01  3.23438980e-02  7.87810326e-01  5.91456890e-01
   3.60239208e-01 -4.47943538e-01 -1.31873286e+00 -7.28025794e-01
  -1.51825285e+00  9.64889050e-01]
 [-1.68405330e+00  1.27160239e+00 -1.61285305e+00  1.07396424e+00
  -1.74332166e+00 -1.39510322e+00  6.60839558e-01  9.60511565e-01
   6.05077863e-01 -1.39510781e-01]
 [-2.66879773e+00 -7.09388435e-01 -1.48919880e+00  1.25271213e+00
   9.60008800e-01 -1.76642501e+00 -3.98127466e-01  8.32441747e-01
  -6.36056304e-01 -5.55038214e-01]
 [ 2.72711128e-01 -1.08858418e+00 -2.08993816e+00  6.69060349e-01
  -5.66165686e-01  1.32077324e+00  1.13284576e+00 -7.56680846e-01
  -7.27462709e-01 -9.86298025e-01]
 [-3.91930491e-01  1.64185512e+00 -3.97168612e+00 -8.18628430e-01
  -3.35901880e+00  4.59753901e-01  1.58427227e+00  6.59344137e-01
  -2.33209062e+00  1.37744495e-03]
 [ 7.82891333e-01 -3.34225237e-01 -1.34974027e+00  5.49012661e-01
   2.62937486e-01 -4.59564060e-01  9.84841436e-02 -6.00278854e-01
  -1.61118817e+00  9.55810249e-01]
 [-2.53541160e+00  4.71842813e+00 -1.43522072e+00 -1.17709708e+00
   1.12613857e+00 -3.33385086e+00 -2.68430281e+00 -3.42932010e+00
   4.42837894e-01 -3.02337289e-01]
 [-5.53136528e-01 -1.89294970e+00  6.34901822e-01 -1.25339642e-01
   7.67480806e-02 -2.22152615e+00  2.57519573e-01 -5.40964544e-01
   3.84664446e-01  8.27267349e-01]
 [ 8.37638915e-01 -3.08155942e+00 -6.15947247e-01  1.23483753e+00
   6.82055652e-01 -5.44453681e-01 -1.33918357e+00  6.91670001e-01
  -4.13838387e-01 -6.80816948e-01]
 [ 3.16753983e-01  8.01991522e-01  1.23621786e+00 -3.54122698e-01
  -1.97261751e+00  4.08459306e-01 -1.25485092e-01  7.66283870e-01
   5.80908597e-01 -1.84097171e+00]
 [-1.88686979e+00 -5.50327301e-01 -2.22665763e+00 -1.03805768e+00
   3.57530177e-01 -1.34904718e+00  1.69260490e+00  9.27371904e-02
   1.41975021e+00  6.67033792e-01]
 [-1.66176641e+00 -1.50973871e-01  1.70466030e+00  1.61516178e+00
  -3.86508703e+00  3.05546820e-01 -1.66164672e+00  1.93966672e-01
   1.30323493e+00  3.18919212e-01]
 [ 3.54795039e-01  2.10576677e+00 -1.83986008e+00 -8.52575719e-01
   1.90696990e+00  5.95831692e-01 -9.97580767e-01  4.44405466e-01
  -2.99817085e+00 -2.26141457e-02]
 [ 2.93442607e-01 -6.47386432e-01 -1.59813061e-01  3.13834250e-01
   1.32312387e-01 -4.20924139e+00  1.31992891e-01 -3.26507521e+00
   1.05913603e+00 -1.16525173e+00]
 [ 1.06784630e+00 -2.77849746e+00  1.09516454e+00 -1.17687368e+00
   3.45329195e-01  1.66821921e+00 -9.02567387e-01 -1.27121377e+00
  -3.56292650e-02 -1.44041753e+00]
 [-9.75595593e-01  8.01851869e-01 -6.57279044e-02  9.05453742e-01
  -6.55835450e-01 -7.91230202e-01 -1.20184052e+00  1.07160640e+00
   1.49715647e-01 -5.97206950e-01]
 [-1.07815421e+00 -6.80232108e-01  9.10945714e-01 -2.44483399e+00
  -5.57813525e-01  7.18023181e-01  2.99212217e-01 -1.46738160e+00
  -5.61695814e-01  1.88318586e+00]
 [ 2.25760674e+00  6.38844371e-01 -4.15790737e-01 -3.57169569e-01
   9.86746311e-01  1.08681047e+00 -3.02130389e+00  1.27589226e-01
  -1.35398984e+00 -1.73610377e+00]
 [ 9.20916378e-01 -1.38753438e+00 -1.49582088e+00 -1.41705739e+00
  -1.59613454e+00  6.31841838e-01  7.43614912e-01 -2.57661015e-01
  -2.79853082e+00  6.88685715e-01]
 [-2.18699551e+00 -1.37601745e+00 -3.44488716e+00 -3.51368642e+00
   1.51086891e+00 -4.38287616e-01  1.25165868e+00 -9.62581456e-01
   4.06503528e-01  1.39486468e+00]
 [-5.09700835e-01  3.38039726e-01  7.58766711e-01  7.70766199e-01
  -2.58426934e-01 -1.02740312e+00 -1.82989991e+00  4.36968684e-01
  -3.85816723e-01  6.05333984e-01]
 [-1.83940351e+00 -4.14785099e+00 -5.24633303e-02 -1.23841238e+00
   4.38036174e-01  1.11869767e-01  1.20858681e+00  2.06671748e-02
  -8.08769047e-01 -4.15766567e-01]
 [-1.89471698e+00  2.66961753e-02  1.10888827e+00 -2.52944160e+00
  -9.72931862e-01 -7.64276413e-03  1.32521033e+00  1.33004069e-01
  -8.88951600e-01  4.68894243e-01]
 [-3.51456523e-01 -6.07189000e-01  3.67976934e-01  1.21297395e+00
  -1.34966886e+00  8.75293672e-01 -3.85141581e-01 -4.42993075e-01
  -1.69958973e+00  4.44819570e-01]
 [ 6.41659796e-01  6.91815197e-01  1.69650877e+00 -3.92012775e-01
  -1.47892416e+00  4.32834625e-01 -1.06046808e+00  1.14305198e+00
   5.44778228e-01 -1.51923537e+00]
 [ 9.02409077e-01  2.69709992e+00 -3.72484112e+00 -7.44154871e-01
  -4.04119849e-01 -1.46104085e+00  2.01350167e-01  3.03063810e-01
   5.49178421e-01  6.61458373e-01]
 [ 5.29366255e-01 -6.14479661e-01  5.68629026e-01 -1.31996202e+00
   6.18793845e-01 -2.31292176e+00 -4.29002792e-01 -6.36351481e-02
   7.87371516e-01 -9.33160543e-01]
 [-5.53825378e-01  8.64858866e-01  7.15933204e-01 -1.28367782e-01
  -2.08396912e+00  1.45846629e+00  6.58841372e-01 -2.06575108e+00
  -3.49733859e-01 -3.60464185e-01]
 [-3.09805799e+00  5.31225681e-01  1.33981317e-01 -1.01117778e+00
  -1.80552995e+00 -1.63872278e+00  2.43021798e+00  3.05047691e-01
   5.55434465e-01  8.63378167e-01]
 [ 3.12907934e-01  5.31003237e-01  2.34371245e-01 -5.57890534e-01
   4.22082365e-01 -2.33848238e+00  3.30733508e-01 -5.46818376e-01
   1.07546055e+00 -2.70855236e+00]
 [-1.34703076e+00  9.17262018e-01 -1.45482607e-02 -3.36896837e-01
   1.28863776e+00  1.23700291e-01 -1.22602737e+00 -1.23220526e-01
  -4.09315777e+00  3.20147812e-01]
 [-1.25858676e+00  1.80138826e+00 -2.82639241e+00 -1.96653634e-01
  -6.00039780e-01  5.82789332e-02  7.62385011e-01  4.27231401e-01
   1.62919104e+00  1.90023318e-01]
 [ 4.47589993e-01 -2.33884525e+00  9.83436584e-01  6.44509718e-02
   3.12999308e-01 -8.43989730e-01 -2.09076345e-01 -1.37990272e+00
  -1.70294142e+00  1.39001048e+00]
 [-1.11807227e+00  6.09254897e-01 -1.61072314e+00  9.12796319e-01
  -3.86186630e-01  4.26189363e-01  2.25469232e+00 -1.17331100e+00
  -3.69556332e+00  1.03751755e+00]]
[ 0.03038766  0.01475192  0.03493399 -0.02874226  0.03963191  0.06816066
 -0.08882359  0.05241194 -0.19313022  0.05447419]
