[[[[-1.30656585e-02  8.73911917e-01 -1.62391031e+00 -4.05829787e-01
    -1.59781769e-01  5.68611026e-01]]

  [[ 6.49525583e-01  1.04740238e+00  2.74482787e-01 -1.05775654e+00
    -9.32300016e-02  2.47301549e-01]]

  [[ 2.81121522e-01  1.73420084e+00  1.61929440e+00 -2.69453621e+00
    -6.38695419e-01 -1.70085943e+00]]

  [[-8.50022435e-01  1.01228619e+00  9.32240307e-01 -3.75269562e-01
    -1.73273869e-02  7.15149224e-01]]]


 [[[ 9.18852687e-01  2.70406651e+00  2.64559174e+00 -7.27279067e-01
    -1.83947217e+00  1.61441064e+00]]

  [[ 1.22742748e+00  6.82541847e+00  9.56278515e+00 -4.97043514e+00
    -7.03495216e+00  4.12275761e-01]]

  [[ 9.23750624e-02  4.72796822e+00  9.09513760e+00 -8.10575485e+00
    -7.05959177e+00 -2.64847255e+00]]

  [[-2.23247838e+00  7.80769467e-01  1.53870952e+00  2.96537220e-01
    -2.25855637e+00 -3.04523557e-01]]]


 [[[ 1.13630649e-02 -4.13608670e-01  1.02437198e+00  4.77030843e-01
    -1.99310279e+00  1.02530980e+00]]

  [[ 1.37820864e+00  4.52207708e+00  6.14545155e+00 -1.89022017e+00
    -8.60583019e+00 -7.88806379e-02]]

  [[-1.76908866e-01  3.61907578e+00  5.89227152e+00 -2.61876345e+00
    -7.89313793e+00 -1.76017559e+00]]

  [[-1.30111933e+00  8.41628574e-03  6.62908375e-01  1.32921469e+00
    -1.14132893e+00  9.13165212e-01]]]


 [[[ 2.32393995e-01 -1.23522818e+00 -9.18347776e-01  7.54014909e-01
     9.22938645e-01  8.91304553e-01]]

  [[ 6.20744169e-01  6.15639985e-01  1.37658548e+00  1.01699448e+00
    -7.52329469e-01  4.89174068e-01]]

  [[-4.63827848e-02  1.33703744e+00  1.31325507e+00  5.54826975e-01
    -1.34498560e+00 -7.67150521e-01]]

  [[-8.35973799e-01 -3.16769063e-01 -5.56665540e-01  4.88784909e-01
    -2.90146232e-01  5.14098167e-01]]]]
[-0.4487237  -0.572815   -0.5575799  -0.16333756  1.0904387  -0.46242416]
[[[[-4.12268490e-01 -1.31226814e+00 -2.20559344e-01  8.92065525e-01
    -1.12947524e+00  1.43494987e+00  1.79838881e-01 -2.11660051e+00
     1.16362023e+00 -1.03397501e+00]
   [ 2.26554215e-01  6.12908363e-01  1.85327128e-01 -1.62294880e-01
     7.67073810e-01  5.30351400e-01 -9.07090027e-03 -2.29550049e-01
    -1.49205059e-01  4.87354338e-01]
   [ 1.59849539e-01  6.72034681e-01  3.02944243e-01  5.54261245e-02
     9.71129060e-01  5.03808081e-01  2.67080646e-02 -3.96281123e-01
    -2.59815753e-01  3.67292345e-01]
   [ 8.25085461e-01  3.52735221e-01  1.95647821e-01 -1.59039950e+00
    -6.46077335e-01 -7.05342412e-01  6.07226193e-01 -4.10337076e-02
     4.77162063e-01 -5.24365827e-02]
   [ 1.97993919e-01 -3.46391857e-01 -5.73164582e-01 -1.28754675e+00
    -7.08028853e-01  2.71136314e-02  3.04768950e-01  5.59473991e-01
     9.55719531e-01 -7.73592651e-01]
   [ 4.88075651e-02 -2.12874368e-01  1.23798512e-01 -1.49916127e-01
    -5.02000391e-01  1.09318483e+00  3.59176487e-01 -2.43537858e-01
     1.48104057e-01  5.92181206e-01]]

  [[-1.00935447e+00 -7.53645062e-01 -5.55525064e-01  4.25925106e-01
    -6.70219302e-01  4.92497802e-01 -1.38078839e-01 -1.10232484e+00
    -1.37831584e-01 -8.64379644e-01]
   [ 4.66223747e-01  6.95447206e-01  4.87086117e-01 -2.45368853e-01
     1.07297862e+00 -4.51988310e-01 -9.79368865e-01  9.04844925e-02
    -3.32250804e-01  3.89404029e-01]
   [ 3.61164272e-01  7.88146317e-01  5.60507059e-01 -5.49672127e-01
     1.08646166e+00 -5.28740525e-01 -1.07009459e+00  2.49645934e-02
    -2.87731171e-01  9.17350829e-01]
   [-1.27329692e-01 -1.04001832e+00 -4.38515067e-01  8.13750625e-01
    -1.54623497e+00  1.85298038e+00 -4.40693706e-01 -7.54760206e-01
     1.80120981e+00 -9.33677495e-01]
   [-2.83272564e-01 -2.09429145e+00 -3.73106390e-01  6.39797628e-01
    -2.36657190e+00  1.71764243e+00  2.23162723e+00 -1.43486118e+00
     1.97331762e+00 -1.34612119e+00]
   [-2.14799598e-01 -5.68918049e-01 -8.92737985e-01  1.01983404e+00
    -1.00472236e+00  1.77232230e+00 -4.64111716e-01 -1.82555580e+00
    -1.58233002e-01 -5.26674986e-01]]

  [[-6.88248038e-01  2.60833055e-01 -2.91687846e-01 -3.53412598e-01
     9.24545765e-01 -1.27505589e+00  1.68067038e-01  4.53413278e-01
     1.73803091e-01  1.69268146e-01]
   [ 5.64932525e-01  4.38633800e-01  4.36776668e-01 -2.54075140e-01
     3.81987274e-01  1.62043830e-03  6.89054191e-01 -6.80882335e-02
     4.39075738e-01  1.12195086e+00]
   [ 6.14207327e-01  6.01865649e-01  6.37393236e-01 -3.98732126e-01
     3.57500851e-01 -1.34476677e-01  5.85054159e-01  2.09382132e-01
     3.54934603e-01  8.76382351e-01]
   [-1.11966360e+00 -1.02072620e+00  4.48897965e-02  1.34797764e+00
    -5.46709239e-01  1.85689771e+00 -9.77710247e-01 -1.18161047e+00
    -8.94901633e-01 -7.45957255e-01]
   [-2.78891993e+00 -1.21371627e+00 -1.64640412e-01  4.13295746e-01
     5.05220518e-02  1.19949150e+00 -1.38428640e+00 -9.40808117e-01
     7.28225708e-01 -1.53926814e+00]
   [-4.97279823e-01 -2.84575373e-01 -6.18741997e-02 -1.69187993e-01
    -2.38655314e-01  4.58918840e-01 -3.70897382e-01  8.37537572e-02
     1.23007027e-02 -5.59263647e-01]]]


 [[[-1.50815666e+00 -7.37866223e-01 -1.70317924e+00  2.15597183e-01
    -3.06152195e-01  7.24914551e-01  2.87105650e-01 -1.69532490e+00
     3.74514163e-01 -3.05373073e-01]
   [ 9.44394246e-02  1.21131271e-01  5.29200733e-01 -2.19024301e-01
     5.54260518e-03  9.02143046e-02 -9.81222689e-02 -3.02767396e-01
    -8.26225355e-02 -2.16800924e-02]
   [ 1.95294574e-01  7.55494460e-02  4.70396668e-01 -1.76968187e-01
     2.81033188e-01 -9.24714729e-02 -1.08353525e-01 -3.31571475e-02
    -1.38168409e-01 -1.51007086e-01]
   [-5.58064163e-01  2.57336348e-01  2.83389330e-01 -2.18116736e+00
    -7.23636270e-01 -8.66343200e-01 -2.01679230e-01  4.52264726e-01
     2.06080675e-01  6.04555905e-01]
   [-1.56806037e-02 -1.05289471e+00 -1.37833631e+00 -1.99490762e+00
    -7.54885018e-01 -1.31466210e+00 -5.43926716e-01 -7.81841815e-01
    -5.29254735e-01 -3.91263753e-01]
   [-1.11744738e+00 -1.86951235e-01 -8.18905175e-01 -3.79036009e-01
    -3.83620471e-01  6.82943702e-01  4.27150309e-01 -5.26381016e-01
     5.49775958e-01  8.94587517e-01]]

  [[-1.94740772e+00 -6.24138653e-01 -1.72849357e+00  1.16962242e+00
    -3.92891169e-02 -2.57027268e-01  4.86848414e-01  2.02250510e-01
    -1.58765420e-01 -5.24911046e-01]
   [ 4.52619404e-01  3.95770878e-01  4.38617736e-01 -4.68925864e-01
     3.41428548e-01 -3.95552218e-01 -9.06776726e-01  5.71674891e-02
    -3.65550339e-01  1.00418091e+00]
   [ 4.26811099e-01  5.42249024e-01  5.08903861e-01 -4.62824225e-01
     6.95241868e-01 -5.35366416e-01 -9.31016445e-01  1.75701618e-01
    -4.36554879e-01  7.33959734e-01]
   [-3.64557862e-01 -9.34798419e-01  1.10690308e+00 -6.86630905e-01
    -1.65936971e+00 -1.37877405e-01  2.07232690e+00  9.33600962e-02
     1.71813452e+00 -6.03657305e-01]
   [-9.11593020e-01 -1.20624578e+00 -2.86807084e+00 -6.98642656e-02
    -1.16342306e+00  1.85609236e-01  1.63368595e+00 -4.83437538e-01
     1.55481255e+00 -6.65115058e-01]
   [-1.23579168e+00 -1.49838701e-01 -1.42079616e+00  1.67955530e+00
    -2.14884803e-01 -6.48255885e-01  2.13907167e-01 -1.25474417e+00
    -8.04125249e-01 -4.53186333e-01]]

  [[-8.96563292e-01  4.03789163e-01 -6.54039204e-01  6.27183735e-01
     7.38117933e-01 -1.16204798e+00 -3.75462621e-01  1.86745942e+00
    -7.70529881e-02  4.90950078e-01]
   [ 4.88069922e-01  6.01036429e-01  6.64707661e-01 -7.12774694e-02
     9.17462111e-02 -1.95992395e-01 -3.69705170e-01 -1.11486442e-01
    -2.03176305e-01  7.68354714e-01]
   [ 6.33100212e-01  7.05483258e-01  5.58045149e-01 -1.14827715e-01
     1.11283973e-01 -4.41414475e-01 -1.07921280e-01  5.80325611e-02
    -2.27735773e-01  8.04462492e-01]
   [-1.02548218e+00 -2.38746583e-01 -4.58177209e-01 -5.93955107e-02
     1.65221405e+00 -1.04069197e+00  1.16818106e+00  9.36436415e-01
    -1.11739874e+00 -7.41788745e-01]
   [ 7.44785547e-01  1.87563412e-02 -7.93196976e-01  8.36705089e-01
     6.04028523e-01 -9.57313538e-01  3.90565217e-01 -3.86901721e-02
    -1.84747815e+00 -1.16645408e+00]
   [-9.44045663e-01 -1.08265877e-01 -5.35323322e-01  7.39402711e-01
     1.06985283e+00 -9.79852021e-01  7.80016184e-02  2.83650064e+00
    -1.03390940e-01  3.21407430e-02]]]


 [[[-1.75123000e+00  5.61361313e-01 -1.35748732e+00  6.68100059e-01
    -3.18571068e-02  9.21624064e-01 -2.24500149e-01 -1.01070106e+00
     6.92197204e-01  2.19161436e-01]
   [ 1.66329741e-01 -8.92743692e-02  3.64728063e-01  1.89174742e-01
     1.17072463e-01 -4.15198952e-01  2.89463431e-01 -2.57689029e-01
     4.41462547e-02 -2.47944981e-01]
   [ 8.52801651e-02 -1.32171595e-02  6.00428402e-01 -2.30987400e-01
    -9.80912745e-02 -5.09795666e-01  1.85583219e-01  1.04197428e-01
    -3.38069320e-01 -1.94063783e-01]
   [ 1.38460803e+00  2.64882177e-01  5.11625588e-01 -1.66320801e+00
     9.53564286e-01 -1.95936763e+00  2.70706993e-02  4.20772910e-01
    -9.76198673e-01  4.02607292e-01]
   [ 9.85312402e-01  7.53923595e-01  2.59311855e-01 -4.70574737e-01
     7.40858555e-01 -2.50207424e-01 -1.37232274e-01  6.92929447e-01
    -1.73653468e-01  7.99963295e-01]
   [-6.14917040e-01  1.58106732e+00 -5.71327031e-01 -1.65215039e+00
    -4.67687815e-01  8.18329275e-01 -7.78605193e-02  6.26339197e-01
    -4.09422934e-01  1.93733072e+00]]

  [[-1.12708163e+00 -6.62236154e-01 -1.67652369e+00  1.33245516e+00
    -9.97570530e-03 -1.22096119e-02  3.82064402e-01  4.12480891e-01
     2.53413856e-01 -9.26695764e-01]
   [ 5.76500237e-01  8.79488662e-02  6.53424144e-01 -2.12317109e-01
    -2.07087651e-01 -1.08570971e-01 -2.77108550e-01 -4.02899832e-02
    -2.73378313e-01  3.13824952e-01]
   [ 5.48422098e-01  3.03185999e-01  2.88467586e-01 -6.99829161e-01
    -3.62336338e-01 -7.73676857e-02 -6.26301825e-01  2.61848271e-01
    -4.87686634e-01  5.22695720e-01]
   [-3.85829099e-02 -5.52907109e-01 -1.82845008e+00  1.49122909e-01
    -2.09980980e-01  3.26657414e-01  7.40814149e-01  6.90864861e-01
     3.59997416e+00 -1.45274386e-01]
   [-6.14937842e-01  4.78351772e-01 -5.78142591e-02 -1.19371586e-01
    -1.60541773e-01 -5.16557932e-01  1.11476409e+00  1.33352220e-01
     1.94483078e+00 -2.39491537e-01]
   [-1.83699608e+00 -2.15856165e-01 -2.95473647e+00  4.64791298e-01
    -4.10082608e-01  3.23389582e-02 -3.42590988e-01 -9.02068079e-01
     1.16006362e+00 -2.01360852e-01]]

  [[-1.18854547e+00  7.28280842e-02 -1.20224857e+00  3.00459098e-02
    -2.50246763e-01  2.50430465e-01  1.06869951e-01  1.31235754e+00
    -5.57636738e-01  9.02577400e-01]
   [ 5.75122654e-01  1.86379880e-01  3.90680432e-01 -2.85259128e-01
    -2.92667925e-01 -2.28913859e-01 -1.49020776e-01 -1.21676810e-01
    -4.14128192e-02  3.05518776e-01]
   [ 3.61137003e-01  2.95805454e-01  3.19206923e-01 -4.75113571e-01
    -6.15947656e-02 -9.37136933e-02 -9.65297297e-02  1.16957966e-02
    -1.46350592e-01  5.04622281e-01]
   [ 9.66257274e-01 -4.59993750e-01 -1.31809306e+00  2.32993126e+00
    -5.29191270e-02 -9.92555261e-01  1.88316059e+00 -4.85104509e-02
     1.44776905e+00 -1.32713747e+00]
   [ 1.75432980e+00  9.27235007e-01  5.27462840e-01  2.79489970e+00
     8.56899917e-01 -2.20656902e-01  4.20555800e-01  4.53743845e-01
     1.74095631e+00 -1.04411960e+00]
   [-1.86525738e+00  5.91915436e-02 -3.26781273e+00  8.21489468e-02
     1.23812854e-01 -1.04182708e+00  9.52342451e-01  2.12695599e+00
     3.25840735e-03 -3.05873871e-01]]]]
[ 0.35260352  0.11954165  0.35422474 -0.38426661  0.09324006 -0.21246286
 -0.2762745  -0.25940567 -0.12473369  0.11023208]
[[[[ 2.74350166e+00 -5.03286198e-02 -3.97888839e-01  5.57004750e-01
     6.64566100e-01  6.16942465e-01  1.60391819e+00 -4.83817220e-01
    -1.93594217e+00 -2.55012560e+00 -8.83899510e-01 -3.50877571e+00
    -2.55463183e-01  5.98090172e-01 -3.94507140e-01 -3.19548517e-01]
   [ 3.94958675e-01  1.88075677e-01  4.04540598e-01  2.03284159e-01
    -6.54712021e-01 -5.63759685e-01  3.92597228e-01  6.61621273e-01
    -6.57732114e-02 -8.84015560e-02 -2.19031215e-01 -9.69827950e-01
     2.19320823e-02 -4.58474696e-01 -3.60072739e-02 -5.21413565e-01]
   [ 1.00923359e+00 -1.43082476e+00 -2.18952608e+00  1.07172310e+00
     1.54864156e+00 -8.53611708e-01  5.95010936e-01 -1.14805567e+00
    -1.52023709e+00 -3.15341711e+00 -1.10550308e+00 -2.57246375e+00
    -2.72337914e+00 -8.34392980e-02  5.39582931e-02 -3.00211787e-01]
   [-5.65542936e-01  5.58387220e-01 -1.69099128e+00 -1.54778314e+00
     5.47056377e-01 -4.20105100e-01  5.49889207e-01 -2.60192513e-01
     7.86107838e-01  1.60686362e+00  2.04772711e+00  1.50409281e+00
     2.06830597e+00  1.94251716e+00 -2.90162206e+00  1.20177317e+00]
   [ 7.14240015e-01  1.71706393e-01  5.29468238e-01  1.45732820e-01
    -8.64408791e-01 -7.74387598e-01 -2.32195780e-01  9.18543339e-01
     2.57477611e-01 -1.63813472e-01 -3.93577218e-01 -9.19290900e-01
     1.23648822e-01 -4.92474467e-01  1.06798418e-01 -8.87847960e-01]
   [ 4.45359617e-01 -9.11760516e-03 -4.79263973e+00  9.14159238e-01
     2.38859653e+00  7.37871289e-01 -1.88661361e+00 -3.72608209e+00
     4.45114851e-01  1.87938094e+00  1.83148921e+00  7.27079213e-01
    -5.75137973e-01 -1.01440716e+00  1.23785935e-01 -1.94869697e+00]
   [-3.57374763e+00 -1.76649392e+00 -2.58106053e-01 -1.10938394e+00
     1.50083077e+00 -5.60107172e-01 -3.35116059e-01  1.37148464e+00
     2.56268442e-01 -1.13538408e+00  3.92822206e-01  9.05098200e-01
     4.70941842e-01 -6.81077063e-01 -9.94943202e-01  7.08273172e-01]
   [ 1.06847334e+00 -1.28440052e-01  1.02146864e+00 -8.48012626e-01
    -1.65865505e+00  1.30027086e-01 -1.00762062e-01  4.58278432e-02
    -2.12512732e-01  3.47942650e-01  5.21936059e-01 -2.01800680e+00
     8.60636353e-01 -6.90096319e-01 -8.02837431e-01 -3.88601303e-01]
   [-1.66558886e+00 -1.10682285e+00  3.19052972e-02 -1.15334642e+00
     5.49855590e-01  2.45057851e-01 -6.93435892e-02  1.34427500e+00
     2.94267714e-01 -1.81578677e-02  1.25152600e+00  4.29944992e-01
     1.24864513e-02  4.64623451e-01  1.05552614e+00 -6.32791743e-02]
   [ 4.37105536e-01  5.08243591e-02  4.70863372e-01  6.32435903e-02
    -7.74813473e-01 -4.23255324e-01 -2.95773536e-01 -4.84011173e-01
    -5.37944019e-01 -3.24996591e-01 -8.04576576e-02 -1.47738326e+00
     8.93893316e-02 -1.60904244e-01  3.16997200e-01 -9.81850445e-01]]

  [[ 3.03755462e-01  2.33896780e+00 -2.35989141e+00  3.17656308e-01
     2.09733582e+00 -6.10668898e-01 -4.43649322e-01 -7.01550484e-01
    -9.50182021e-01  7.49332249e-01 -1.21995926e+00  3.38214695e-01
    -6.37204289e-01 -9.44590092e-01 -6.16070569e-01  1.98882377e+00]
   [ 5.66967547e-01 -1.79683000e-01 -2.92409658e-01  1.61161378e-01
    -4.97794971e-02 -6.95633590e-01 -6.74271405e-01 -3.77929658e-01
    -2.43944377e-01 -4.31571990e-01 -9.03801560e-01 -5.82136512e-01
    -1.07423551e-02 -2.12423906e-01  2.76386321e-01  4.26656269e-02]
   [ 8.38164464e-02  2.30604053e+00 -1.85437715e+00 -3.43792230e-01
     2.16904020e+00  9.37043488e-01 -9.88982677e-01 -6.54047728e-01
    -1.89022815e+00  1.64692974e+00 -8.16894531e-01  1.04536486e+00
     2.01582104e-01  3.01001042e-01 -2.08297849e+00  2.07078528e+00]
   [-3.75757962e-01  2.86036551e-01  1.72510886e+00  9.21599865e-01
    -9.26731884e-01  2.44930625e+00  7.10208565e-02  1.54868826e-01
    -2.27978155e-02 -3.22821796e-01  3.72957975e-01  3.33310932e-01
     4.81250703e-01  3.01452684e+00 -1.22496402e+00 -3.18818778e-01]
   [ 4.14385200e-01 -8.73080850e-01  3.59113049e-03  7.68649057e-02
    -4.00271595e-01 -8.45507085e-01 -7.93093801e-01 -7.34146595e-01
    -4.30650830e-01 -7.83907056e-01 -1.09172416e+00 -8.18177640e-01
    -5.00893414e-01 -4.12143141e-01  3.83042306e-01 -1.56622678e-01]
   [-7.33042806e-02  2.09895417e-01  2.58343077e+00 -3.50052953e+00
     1.00349617e+00  3.41068769e+00  8.49778116e-01 -7.16703892e-01
     4.45184171e-01  2.51901007e+00  1.19487393e+00  3.99708748e-01
    -3.37006778e-01  2.52561831e+00 -5.96047640e-02 -1.45494252e-01]
   [-2.03669500e+00  1.27672136e+00  3.46203178e-01 -3.85646248e+00
     2.65188962e-01  1.55809653e+00 -7.68905818e-01  1.09510028e+00
     3.62197661e+00 -2.20714644e-01  5.75421192e-03  1.78336173e-01
    -1.08107412e+00  2.15612650e+00 -3.86119545e-01 -8.94308209e-01]
   [-4.27609622e-01 -1.80407631e+00 -1.47408438e+00  2.10526019e-01
     3.12987089e-01  1.24037594e-01  1.01383245e+00 -4.38531548e-01
    -1.35174930e+00 -2.07371879e+00 -1.20659256e+00 -4.40427661e-01
    -8.11723948e-01 -1.79945886e+00  7.80459106e-01  4.14775074e-01]
   [-1.08240676e+00  1.13163126e+00  9.75293815e-02 -4.56651306e+00
     5.54305613e-01  1.82855535e+00 -8.09423983e-01  5.86467683e-01
     1.46521974e+00  1.05264568e+00  1.15576947e+00 -2.54732490e-01
    -6.25853837e-01  1.12961853e+00  1.84010878e-01 -9.50922251e-01]
   [ 3.03763032e-01 -7.18015134e-01 -4.62515742e-01  2.30367854e-01
    -3.20346057e-02 -6.93714857e-01 -6.97600484e-01 -1.27835944e-01
    -1.79848179e-01  6.07678890e-02 -1.06602180e+00 -5.66373430e-02
     3.30300778e-01  6.80855066e-02  7.70493805e-01 -1.48978392e-02]]]


 [[[-1.07616317e+00  1.70002401e+00 -3.16637695e-01  1.23126471e+00
     2.07657576e-01  4.06023622e-01  5.38687527e-01 -3.90110373e+00
    -4.76049304e-01 -5.16976416e-01  2.95121169e+00 -1.67761743e+00
    -2.46678591e+00 -3.21555614e-01 -1.19242430e+00 -5.50393224e-01]
   [ 3.74223769e-01 -6.07744418e-02  5.56171119e-01  1.47200763e-01
    -1.02557778e+00 -1.06439456e-01 -1.77558452e-01 -3.65099192e-01
    -5.36240876e-01 -2.67680317e-01  4.11292940e-01 -6.73424006e-01
    -2.58727700e-01  3.53076756e-01  3.76356155e-01 -7.33568072e-01]
   [-2.24970436e+00  1.55102122e+00 -9.57480669e-01  1.62572980e+00
     6.50903225e-01 -1.82440710e+00  1.17289114e+00 -1.30205202e+00
     9.29712355e-01 -1.02014935e+00  4.13844538e+00 -6.60909832e-01
    -5.00455713e+00 -1.90354586e+00 -1.88144398e+00 -5.41366816e-01]
   [ 1.59320557e+00  1.12272167e+00 -4.84077126e-01  2.23319694e-01
    -7.41666794e-01 -5.84035277e-01  2.55094695e+00 -8.41574311e-01
    -1.25791335e+00 -3.70692641e-01 -2.78544211e+00  1.58807790e+00
     3.46488142e+00 -1.37896645e+00  5.70816040e-01  2.81341720e+00]
   [ 4.02973384e-01  4.77527738e-01  6.51273072e-01 -1.22183248e-01
    -8.75134230e-01 -1.35666072e-01 -8.74904990e-01 -1.58790991e-01
    -1.05629917e-02  1.34266168e-01  5.12230873e-01 -4.59916741e-01
    -7.82274306e-01  1.49469107e-01  8.11067671e-02 -7.42853105e-01]
   [-3.23555493e+00 -1.08397591e+00  3.15020680e-02 -2.65628743e+00
     3.57727557e-01 -4.74298783e-02  9.10892725e-01  1.36745584e+00
     1.32616103e-01 -3.64404500e-01 -4.43743229e-01  1.27584481e+00
     1.90806377e+00 -8.44768763e-01 -6.92722797e-01  3.05675745e+00]
   [-1.39049613e+00 -1.72590888e+00  1.77161050e+00 -1.18153177e-01
     1.33077896e+00 -7.81776905e-01  3.01134396e+00  1.78278399e+00
    -3.39024693e-01 -6.02703333e-01 -2.25286031e+00  7.12982059e-01
     1.36859226e+00  1.25345051e+00 -2.27428603e+00  7.98176765e-01]
   [ 2.37281442e+00  7.82885909e-01  6.56951249e-01 -2.72328824e-01
    -2.21282744e+00  1.30768871e+00 -1.23707068e+00 -3.09378147e-01
    -1.29762697e+00  1.12636113e+00  1.05198419e+00 -1.23108611e-01
     1.10590661e+00 -2.48482153e-01  5.89870930e-01 -9.81534600e-01]
   [-1.50074494e+00 -2.97566915e+00  1.11014271e+00 -3.20646167e-02
     6.61758721e-01  5.21599174e-01  1.97143471e+00  1.09055448e+00
    -3.96877944e-01  4.76929754e-01 -1.92022693e+00  3.87663841e-01
     1.40075910e+00  3.42626393e-01  2.21741125e-01  7.86890030e-01]
   [ 2.98554420e-01 -5.16823232e-01  1.96663529e-01 -1.84419245e-01
    -9.78932500e-01 -1.97976381e-01 -5.91852546e-01 -6.06496274e-01
    -6.61068439e-01 -5.06842375e-01  4.75775570e-01 -2.56237149e-01
    -1.46717191e-01  1.62179053e-01  1.97822556e-01 -5.26402652e-01]]

  [[-2.70612621e+00  7.61245370e-01  3.96326303e-01  2.15563226e+00
     2.67864990e+00 -2.27498985e-03 -1.07703698e+00  1.02619553e+00
     1.34378886e+00  3.47141218e+00  3.31896633e-01  8.48442793e-01
    -6.44402504e-01  9.34741139e-01 -3.52540874e+00  2.88417411e+00]
   [-5.09973228e-01 -8.42221439e-01  6.38153136e-01  1.92453727e-01
    -1.70725554e-01 -6.06621325e-01 -7.59313703e-01 -7.34258652e-01
    -5.49949706e-01  7.79729486e-01 -2.43578032e-01  2.05585361e-01
     2.22926959e-03  1.60641432e-01  5.56167960e-01 -7.98598945e-01]
   [-3.09218836e+00  9.51984048e-01 -3.02328438e-01  1.97880375e+00
     2.36278558e+00 -3.76094222e-01 -2.18323708e+00  1.41546655e+00
     1.31418276e+00  2.87128353e+00 -1.42435469e-02  7.21246958e-01
    -1.19685566e+00  3.86381269e-01 -4.57438707e+00  1.86600709e+00]
   [-1.28801018e-01  6.02365971e-01 -1.69161189e+00 -2.45765567e+00
    -2.39843678e+00  1.18924402e-01  3.99137616e-01 -2.39447802e-01
    -8.47463846e-01 -2.84418464e+00  9.75251272e-02 -4.68152523e-01
    -8.60347211e-01 -5.31385243e-01  3.71599764e-01  1.16218098e-01]
   [-3.97230312e-02 -6.65992856e-01  4.13450420e-01 -1.32100970e-01
    -2.36724719e-01 -7.39211082e-01 -8.23605537e-01 -1.28711224e+00
    -6.36603594e-01  2.55700558e-01  1.26524553e-01  6.70874789e-02
    -3.01892400e-01 -2.37006918e-01  4.85027760e-01 -1.30620992e+00]
   [-2.99828380e-01  2.68416190e+00  2.22802266e-01 -1.64083171e+00
    -4.16613865e+00  2.28396177e+00 -4.95569229e-01  8.23209226e-01
     6.48588359e-01 -5.66466153e-01  3.23887616e-01  1.96030363e-01
    -3.85291837e-02 -2.75389147e+00 -3.55104625e-01 -4.09033239e-01]
   [ 8.61773044e-02  2.97345901e+00 -4.02701998e+00 -1.16631114e+00
    -3.81425947e-01 -5.83722413e-01  1.33240557e+00  1.16527259e+00
     9.73144472e-01 -6.69551313e-01 -8.36930573e-01 -2.00171381e-01
     5.42537689e-01 -2.19117188e+00 -3.09901142e+00  3.19252431e-01]
   [-2.84049869e+00 -1.71049285e+00 -5.22136748e-01  5.42927623e-01
     9.21409130e-01  7.34049261e-01  1.30307567e+00 -8.14426422e-01
    -6.96518505e-03  2.76973490e-02 -1.32189190e+00 -4.97961551e-01
     4.85110968e-01  3.08202714e-01  8.99005711e-01  9.93597269e-01]
   [ 1.90216629e-03  3.01553273e+00 -2.00878906e+00 -2.67665243e+00
     3.21283787e-02 -2.90827155e-01  1.19738877e+00  9.82178211e-01
     4.39158306e-02 -5.92575312e-01 -9.40607309e-01 -1.77082717e-01
    -1.12760685e-01 -2.64148021e+00 -2.03914672e-01  4.50753570e-01]
   [-2.65292138e-01 -7.67345846e-01  6.94550574e-01  3.04800779e-01
    -1.52654961e-01 -8.01189780e-01 -5.91455519e-01 -8.80588174e-01
    -1.35615900e-01  8.71932805e-01 -3.35148185e-01  1.25800565e-01
    -1.15059778e-01  3.48274916e-01  6.17241025e-01 -9.31384683e-01]]]]
[ 0.0382857  -0.29056713  0.31276193 -0.10798126 -0.05763865 -0.3625217
 -0.30858955  0.25620553  0.41276693 -0.13462536 -0.10266348  0.2860585
 -0.10148186 -0.09507296  0.07225616 -0.3087408 ]
[[-3.057448    0.9986607  -0.11344846 ... -0.58529323  0.34162885
   0.3809055 ]
 [-0.43009457  0.2288327   0.01018151 ...  0.32274336 -0.3613849
  -0.04465798]
 [-0.88815165 -0.17210446 -1.0362358  ... -0.9825577   0.46429077
  -0.6030088 ]
 ...
 [ 0.06264083 -0.22114566 -0.07676962 ... -0.07144259  0.25738376
  -0.7229434 ]
 [ 1.0794215  -1.8094647  -0.53216875 ...  1.0571711   0.6477003
  -0.2772367 ]
 [-1.1297137  -1.3289027   1.1243689  ... -1.0866768  -1.2338068
  -0.13363929]]
[-0.05897297 -0.00507481 -0.04133382  0.03904703  0.01324862  0.25399953
  0.05270019 -0.02455336  0.00410842  0.00558196 -0.19164656  0.0246339
 -0.05541792 -0.09131672 -0.03468772  0.13110824 -0.10052147 -0.2061431
 -0.13643523  0.03887867  0.04225303  0.01945227  0.07130672  0.06059809
 -0.17946658 -0.0102496  -0.1091032  -0.04668767  0.08841853  0.10780849
  0.32022893  0.01240463  0.07475055 -0.13710003 -0.02855283  0.01269645
  0.00373702 -0.03439955  0.04433579 -0.00251771 -0.11845925 -0.08878065
  0.06451051  0.19680028 -0.02174742 -0.23907427 -0.04123613 -0.04463937
 -0.18785754 -0.0302372   0.10926767 -0.08854984 -0.07403281  0.0597893
 -0.2036172  -0.01066549 -0.23811169 -0.01014217 -0.12205875 -0.29274026
  0.01698153 -0.18505697  0.04408607  0.19806667  0.10869613 -0.04857668
  0.04036347 -0.0161201   0.01794894 -0.02312773 -0.0613627  -0.17831868
 -0.2950238   0.06994975 -0.16946173  0.0217372  -0.18066579  0.01365579
 -0.21982028 -0.22802602 -0.03824557  0.01406555 -0.01989713 -0.13865888
 -0.0076536  -0.03203486  0.03186387  0.08447364  0.01445499  0.16917603
 -0.17953496  0.13860922 -0.22815695 -0.11964146  0.08051379 -0.2557645
 -0.11293157 -0.09955833  0.01850897 -0.15554817  0.00230852  0.2777459
 -0.06036146 -0.06176693  0.10848263 -0.29142794 -0.01596322 -0.07700807
 -0.09332657 -0.16934034 -0.05694076  0.03083226 -0.14198664 -0.01411887
 -0.15672183 -0.09399924 -0.08557898 -0.10731304 -0.00288971 -0.13093212]
[[-0.18297976  0.1156681   0.12479606 ... -0.05650301 -0.4539448
   0.33960706]
 [ 0.13860185 -1.1023856  -0.34690434 ... -2.4350343   0.5219234
   0.9243603 ]
 [-1.5984374  -0.86158985  0.45588124 ...  0.19696136 -0.84538126
  -0.50304   ]
 ...
 [-1.1618437   1.0955833  -1.6079019  ... -0.13913119  1.2076045
  -0.15167795]
 [-1.430916    0.78663313  0.02349571 ...  0.20379643  0.666496
   2.0675762 ]
 [ 0.96742064  0.9198403  -1.5819767  ...  0.70047766  1.3213207
   1.8596847 ]]
[-0.15096955  0.02618977  0.1547697  -0.02574758 -0.0129033  -0.01755307
  0.05677173  0.04524974 -0.12914394 -0.07572263 -0.12534288 -0.03078142
  0.16926423 -0.08853635 -0.24568217 -0.08972739  0.09382994  0.12169115
 -0.10875729 -0.02038534 -0.07339676 -0.04736995 -0.07522889 -0.19214298
 -0.04760366 -0.05792954 -0.05949594  0.01817875 -0.14796926  0.07289977
  0.03788986  0.07405005 -0.04429432 -0.08962523  0.09857083 -0.10163692
  0.12864721 -0.14691986 -0.08145733 -0.11423573 -0.19043882 -0.12104736
 -0.08682698 -0.07000601  0.00725576  0.01192624  0.16685657  0.02578326
  0.0009662  -0.09177907  0.03009943 -0.11412447 -0.0763309  -0.01528915
 -0.16873749  0.02317962 -0.01906528  0.10497836  0.0651316   0.00873874
  0.02713818  0.0083475  -0.00514248  0.06723055 -0.17632446  0.00876972
  0.07609014 -0.22754547 -0.06858484  0.07024765 -0.0940228   0.00100231
 -0.1603194   0.07130102  0.01516005 -0.11436982 -0.20387392  0.00819759
  0.05792825  0.04125215 -0.03047366  0.03719707 -0.14425941 -0.05455437]
[[ 2.00490266e-01 -1.17371607e+00 -2.60999382e-01  5.13744093e-02
   4.27470922e-01 -3.81573153e+00  3.53496373e-01 -2.17067003e+00
   8.72734785e-01  1.09431410e+00]
 [-1.11095297e+00 -3.48203850e+00 -1.02954972e+00  6.57859165e-03
   4.78199244e-01  1.51446715e-01  8.80173981e-01  1.13041922e-01
  -2.30677664e-01  6.89824283e-01]
 [ 4.87239957e-01  2.76953906e-01  1.12361181e+00  2.31082782e-01
  -1.82831839e-01 -1.81810629e+00 -7.44838238e-01  1.02447820e+00
  -4.94354516e-01 -1.24608457e+00]
 [-1.44296741e+00  5.58168530e-01  5.16111553e-01 -2.01936185e-01
   1.85963009e-02  3.39252353e-01  7.42834210e-01 -1.93108186e-01
   5.80880165e-01 -1.53717077e+00]
 [ 3.05345237e-01  7.01009691e-01 -6.72410727e-01  1.09740365e+00
   4.49613571e-01  5.63501835e-01 -3.46178889e+00  1.43495128e-01
  -1.67403984e+00  5.43971717e-01]
 [ 7.15715289e-01 -2.71634221e-01 -4.12173128e+00  2.38980675e+00
  -2.22223282e+00  4.37886357e-01 -7.27225900e-01  3.93193632e-01
   1.93799925e+00  4.83473748e-01]
 [-1.38395846e-01 -1.30402505e+00  2.62973458e-01 -7.66193807e-01
   4.50322539e-01 -2.38767719e+00 -1.50511106e-02 -5.96269608e-01
   9.06068265e-01  7.18105793e-01]
 [-6.75219536e-01  1.14728332e+00  1.07398450e+00 -2.05022645e+00
   4.44807529e-01 -2.65723020e-01 -1.05070925e+00 -9.32465076e-01
  -3.63609648e+00  5.67614317e-01]
 [ 5.48463941e-01 -7.26051748e-01 -1.47448444e+00 -7.15988994e-01
   5.18552475e-02 -1.88258398e+00  3.40766609e-01  1.93444777e+00
   1.44419050e+00 -9.92621422e-01]
 [ 4.75391448e-01 -2.06085634e+00  1.67246968e-01 -2.46823096e+00
   8.72506648e-02  1.53269842e-01  5.82630813e-01 -1.84420872e+00
  -1.02166854e-01  1.25345409e+00]
 [ 5.93493819e-01 -2.03856921e+00  3.92581195e-01 -3.50748134e+00
   7.40261495e-01  1.92923605e-01 -7.39417076e-01 -1.43995595e+00
   9.16730464e-01  1.62245274e+00]
 [-2.52031326e+00  8.20455909e-01 -1.64630508e+00  1.05885279e+00
  -4.54622805e-01 -1.62260616e+00  1.13291323e+00  9.44062889e-01
  -4.35403794e-01 -2.87361979e-01]
 [ 4.06817824e-01  7.99711168e-01  1.06489205e+00  7.39754677e-01
  -1.26709652e+00 -1.50829792e+00 -3.36026013e-01 -4.30479908e+00
  -1.31680262e+00 -8.07945073e-01]
 [ 4.95826781e-01 -2.56605983e+00  3.78739357e-01 -1.84991324e+00
  -2.64324635e-01 -6.42528310e-02  8.55526745e-01  3.55315268e-01
  -8.96915615e-01  3.79713327e-01]
 [-2.01897240e+00 -2.32290812e-02 -1.39475942e+00  1.55591145e-01
  -1.04506008e-01 -2.62712407e+00  2.25899482e+00 -1.46906602e+00
   4.64501798e-01 -2.00572395e+00]
 [-4.13495928e-01  2.89395154e-01  6.87510848e-01 -2.93458009e+00
  -6.32575989e-01  9.69388008e-01  7.27607548e-01 -4.55548584e-01
   7.53435373e-01 -1.25382209e+00]
 [-3.77561241e-01  3.83293211e-01  1.90201306e+00  9.09097672e-01
  -3.74476480e+00  6.96788788e-01 -6.25930369e-01  1.73104420e-01
  -3.61546302e+00  4.52415466e-01]
 [-1.82323620e-01  8.11579302e-02  3.67335260e-01  1.64770389e+00
  -1.50110757e+00  2.58178210e+00  2.48761818e-01 -1.48895192e+00
  -1.21009159e+00 -2.72760463e+00]
 [ 8.29327345e-01 -4.65337813e-01 -2.21720362e+00 -1.12637036e-01
   8.03692341e-01  3.51558924e-01  1.37776136e-01  3.00072938e-01
   2.45646566e-01  2.90756226e-01]
 [-9.26921308e-01  1.11491048e+00  3.47700953e-01  5.37081659e-01
  -1.80586553e+00  2.50284886e+00  7.89027631e-01 -1.34394193e+00
   9.62116122e-01 -1.89309549e+00]
 [-1.46292433e-01  1.20449924e+00 -3.81927013e+00 -5.76274037e-01
   4.59547162e-01  3.65825146e-01  7.70499408e-01 -7.07281306e-02
  -2.69246674e+00  4.01418179e-01]
 [ 4.34011459e-01 -2.30713010e+00 -2.95168787e-01  4.66741174e-02
   9.40645099e-01  1.27356744e+00 -3.71145099e-01 -1.83699989e+00
   1.26026645e-01  1.18280709e+00]
 [ 2.06863952e+00  9.80238438e-01 -1.76827919e+00 -1.30939794e+00
  -2.71194673e+00  5.44291377e-01  2.27392972e-01 -3.58988345e-01
   6.40370324e-02 -1.78968623e-01]
 [-2.00974011e+00 -3.79843926e+00  8.03721130e-01  9.27287042e-01
   3.87176305e-01 -3.30831218e+00  8.26669276e-01 -3.72502255e+00
  -3.33741117e+00 -2.57965946e+00]
 [-2.04301047e+00  1.49900007e+00 -1.67025113e+00 -1.11772549e+00
   7.37631738e-01 -1.57240666e-02 -2.15945214e-01  4.75608110e-01
   2.10142064e+00  2.41703689e-01]
 [ 2.98696488e-01 -3.58787441e+00  1.98249841e+00 -8.35577026e-02
  -2.37257099e+00 -1.39862561e+00 -1.64484829e-01  5.26814759e-01
  -9.12811160e-01  2.84569502e-01]
 [ 2.56680131e-01 -2.93268394e+00  2.00843751e-01  3.74845773e-01
  -1.21951842e+00 -1.88613459e-01  6.58276439e-01 -9.62380588e-01
  -2.21597695e+00  1.29149640e+00]
 [ 2.60518432e+00  3.01158381e+00 -1.39607358e+00 -3.01113462e+00
   1.03167856e+00 -4.39123297e+00 -2.29892921e+00 -6.68795872e+00
  -1.02798951e+00 -7.19438887e+00]
 [-1.00184441e+00 -1.61371887e+00 -4.79368716e-02  4.90351498e-01
  -5.33848219e-02 -1.01451173e-01  6.95925891e-01 -1.83175355e-01
   3.57537478e-01 -4.15102929e-01]
 [-1.34635782e+00 -1.03986490e+00  9.13632631e-01  3.98135837e-03
   6.82017133e-02 -9.11280334e-01 -1.17692602e+00  6.45590127e-01
   2.13050532e+00 -3.67752284e-01]
 [ 1.95084155e+00  1.84758830e+00 -1.45686686e+00  7.53679037e-01
   1.37717938e+00  6.52447343e-01 -3.45104527e+00  9.44281697e-01
  -1.70875108e+00 -1.97472084e+00]
 [-5.11342227e-01  1.05004311e+00  9.70218182e-01 -5.53083479e-01
   1.25022501e-01 -2.35093975e+00 -5.06820619e-01  2.55478054e-01
   9.87531126e-01 -8.23740005e-01]
 [ 2.44283974e-01 -4.06152189e-01  8.50307122e-02 -2.12108397e+00
  -1.17165673e+00  1.05625558e+00  1.07492709e+00 -1.33026373e+00
  -1.08851182e+00  2.28417307e-01]
 [-7.90926695e-01  1.96917868e+00 -6.14015639e-01 -9.07291889e-01
   1.47353470e+00  8.12373877e-01 -9.05680299e-01 -9.02576089e-01
  -9.82411504e-01 -1.49730527e+00]
 [ 7.25339293e-01  8.83989573e-01 -1.28764123e-01  8.25153232e-01
  -8.77742767e-01 -3.36349696e-01 -5.14274120e-01  6.41846895e-01
  -1.76008314e-01 -3.70138931e+00]
 [ 1.58080444e-01 -9.77055430e-01 -2.13463688e+00 -1.33502722e-01
   2.50388336e+00  6.67526364e-01 -2.88545936e-01  2.25239813e-01
  -1.35567176e+00  2.84388870e-01]
 [-1.50249267e+00 -7.96095934e-03  3.85585487e-01  1.11822653e+00
  -1.15086772e-01 -1.26085520e+00 -1.76218069e+00  1.97379842e-01
  -1.01568592e+00  6.84511185e-01]
 [ 1.85689569e-01 -9.26146686e-01 -1.22350609e+00  2.04947978e-01
  -6.85366020e-02 -1.61385131e+00  2.44031638e-01  1.43675733e+00
   1.35763204e+00 -1.79035768e-01]
 [ 3.75508182e-02 -2.44419828e-01  7.72155881e-01 -2.54483938e+00
  -3.42191085e-02  1.16960740e+00  1.04705453e+00 -1.09725034e+00
  -2.89333940e+00 -1.74542475e+00]
 [-1.68250644e+00  1.71276748e-01 -6.65191472e-01 -1.20141424e-01
   1.14440763e+00 -1.00457549e+00  4.95993439e-03  8.68738353e-01
   1.82575381e+00 -2.34227180e+00]
 [-9.72759306e-01 -1.98107874e+00 -1.56478107e+00 -2.47615981e+00
   3.01871836e-01  4.10434008e-01  1.63973844e+00  1.09285839e-01
   5.42666554e-01  1.12721972e-01]
 [ 7.69658759e-02  6.59967363e-01 -6.89638078e-01 -1.72743607e+00
   1.14162946e+00 -2.02267194e+00 -6.16020024e-01  4.32526410e-01
   9.31514204e-01  6.99724734e-01]
 [-1.77971795e-01  2.10106522e-01 -1.48311532e+00 -1.71628177e-01
   1.05677962e+00  3.66906464e-01  5.07624924e-01  8.31237972e-01
  -1.88058114e+00 -5.95622361e-01]
 [ 1.00394383e-01 -4.69909072e-01 -1.37636602e+00  6.94509029e-01
  -4.79620636e-01 -2.86305428e-01  9.14772511e-01  9.80363786e-01
  -1.94270873e+00 -1.68983924e+00]
 [-1.19558764e+00  3.99860114e-01 -5.16908824e-01  1.30717742e+00
   7.04841688e-02  4.00860310e-01 -2.98571086e+00  2.87012488e-01
   1.48896778e+00  3.60181034e-01]
 [ 3.84258837e-01  1.62535501e+00 -5.65486014e-01 -1.33339489e+00
   1.39101553e+00 -1.67575336e+00 -1.11483622e+00  6.59332097e-01
  -9.91482139e-01  1.80669993e-01]
 [ 4.88416076e-01 -9.10382032e-01  4.10892963e-01  5.73401034e-01
  -1.40151179e+00 -3.97438496e-01  5.70927441e-01 -2.69094086e+00
  -1.13274860e+00  7.48277903e-01]
 [ 4.34276700e-01 -9.39301968e-01  5.69060147e-02  3.23794454e-01
   3.10525060e-01 -5.60838127e+00  4.57655817e-01 -1.77426183e+00
  -3.82099247e+00 -2.14690018e+00]
 [ 3.17383230e-01 -5.23568809e-01 -3.50574106e-01  7.49820769e-02
   3.54634285e-01  2.18938923e+00  1.18587926e-01 -3.04509473e+00
  -9.61588919e-02 -1.12666488e+00]
 [-3.17232585e+00 -4.25688934e+00  7.71740675e-01 -1.36790341e-02
  -1.13639042e-01  5.25577247e-01  1.97122812e-01  4.26052697e-02
  -1.41058469e+00 -1.51317549e+00]
 [ 5.92116773e-01  1.36844230e+00  1.33007479e+00 -8.03154647e-01
  -4.18188900e-01 -8.48407686e-01 -1.34124529e+00 -2.64789486e+00
   1.38001251e+00  5.89496493e-01]
 [-1.84515393e+00  9.89103794e-01  9.32653770e-02  3.08766216e-01
   1.12184453e+00 -8.81679475e-01 -2.59624934e+00  1.68710101e+00
   1.68261886e+00 -2.43610430e+00]
 [ 1.44664478e+00 -3.48130393e+00 -3.80505466e+00 -1.58418906e+00
  -2.67195845e+00  5.64302862e-01 -3.40358090e+00  5.91985643e-01
  -3.34519172e+00  5.12736261e-01]
 [-6.40388846e-01  1.04469907e+00 -1.21794367e+00 -1.74507514e-01
   6.27749145e-01 -1.35152030e+00  7.86746025e-01  4.20092583e-01
  -8.94844711e-01  6.61652803e-01]
 [-1.55635464e+00  4.92250435e-02 -1.53343928e+00  3.83546412e-01
   1.58218861e+00 -1.98366690e+00 -2.53967881e-01 -1.96941197e-01
  -8.96389484e-01  7.97912240e-01]
 [ 3.23018163e-01 -3.37649256e-01 -1.94815844e-01  1.14332028e-01
   4.79545116e-01 -3.62304115e+00 -2.19925530e-02 -2.93898749e+00
   4.15070683e-01  7.50492811e-01]
 [ 8.87286901e-01 -2.47071803e-01 -8.99336219e-01  4.86891747e-01
   6.02550089e-01 -3.62972260e+00 -4.40019481e-02 -3.69777155e+00
  -1.53268135e+00 -1.64951062e+00]
 [ 2.25515932e-01  7.08814204e-01  1.33266449e+00 -8.00619125e-01
  -1.16325545e+00 -8.87405872e-02 -4.71069574e-01  9.17787969e-01
   4.06483978e-01 -8.42806280e-01]
 [ 1.55504680e+00  3.82290483e-01  4.17643666e-01  5.12982428e-01
  -3.34647751e+00 -1.98554248e-01 -8.34979355e-01 -5.07756844e-02
  -2.13704085e+00  7.13695824e-01]
 [-2.83425140e+00  1.14918733e+00  6.66823745e-01  1.55922866e+00
  -2.36034107e+00  4.17338580e-01 -3.20177269e+00  2.90106535e-01
   2.18040705e+00  4.56905752e-01]
 [-1.26778615e+00 -1.11146355e+00 -1.30442366e-01  5.90468526e-01
   3.28776687e-01  2.46736124e-01  4.16952997e-01  1.87801540e-01
  -1.09172992e-01  2.80051231e-01]
 [-7.57478833e-01  7.67298877e-01  1.73723078e+00 -3.46658587e+00
   2.04534575e-01 -2.39204121e+00 -1.06910968e+00 -9.61274683e-01
  -3.23960876e+00 -2.25908232e+00]
 [-1.84973404e-01  3.68183404e-01 -7.34197199e-02  2.12704599e-01
   3.34349781e-01 -3.07841706e+00  1.27799734e-01 -3.39128089e+00
   1.22094548e+00 -1.61795318e+00]
 [ 2.10729867e-01  6.02626383e-01  1.21526346e-01 -4.08995211e-01
  -2.04071045e+00  2.97728479e-01  6.43399477e-01  2.55289674e-01
  -2.64599532e-01  2.54677445e-01]
 [-3.97405922e-02  1.37751913e+00 -3.65598345e+00  6.34105861e-01
  -1.20226228e+00  7.02865362e-01  5.03271997e-01  2.48517156e-01
   1.57403684e+00 -1.74063289e+00]
 [-2.35105205e+00  9.50589478e-01  6.30955219e-01 -3.01942587e-01
   3.13806921e-01  1.36038035e-01 -1.12504244e+00  6.00510657e-01
   9.49433208e-01 -1.40940857e+00]
 [-5.05992711e-01  8.07295263e-01  7.41812587e-01  6.30839765e-01
  -3.29835236e-01  6.05580866e-01 -1.12727010e+00  6.56527102e-01
  -6.58674389e-02 -1.33574557e+00]
 [-1.79600030e-01 -3.60269798e-03 -1.92395639e+00 -2.38702393e+00
   2.40181815e-02  1.78227842e-01  1.84725058e+00  5.62605560e-01
  -7.60681093e-01 -1.62220287e+00]
 [ 5.09330630e-01 -2.12095928e+00  9.30699799e-03 -7.09718108e-01
   6.87618017e-01  1.60574269e+00  5.25412150e-02 -1.54506588e+00
  -2.36939716e+00 -9.84478235e-01]
 [-3.30283952e+00  1.78328228e+00  1.23121953e+00 -1.84672427e+00
   7.28257716e-01 -1.71200252e+00 -1.33179867e+00 -5.13396084e-01
  -1.78729761e+00  1.02888870e+00]
 [-1.73217010e+00  6.00759923e-01 -3.36525261e-01  4.98614341e-01
  -3.96356010e+00 -2.42654741e-01  7.04995513e-01  7.07095027e-01
   1.96450698e+00  4.46560502e-01]
 [ 7.54699886e-01 -5.61560392e-01  3.72935534e-01 -1.54697204e+00
   1.87518269e-01  9.95629907e-01 -5.31125888e-02 -2.04258537e+00
   8.95897090e-01 -2.24986345e-01]
 [ 2.09033534e-01 -9.66995060e-01  3.89124036e-01  1.58510879e-01
  -7.31272221e-01 -2.44071150e+00  1.10038698e+00 -1.69400597e+00
  -1.51205313e+00 -4.44744062e+00]
 [ 2.03738046e+00 -4.22411823e+00  5.15242577e-01  5.16716480e-01
   5.05261049e-02  3.91689301e-01 -2.00766373e+00  9.97338295e-01
   7.88014531e-01 -6.90815687e-01]
 [-1.86595452e+00  6.92059934e-01  3.49709272e-01  3.25835198e-01
   1.40405878e-01 -1.55525577e+00  5.82270265e-01 -2.45115876e+00
  -2.32482696e+00 -5.73571873e+00]
 [-3.19009447e+00  8.13989043e-01 -2.38545990e+00 -5.76342940e-01
   4.48901743e-01 -1.97344577e+00  1.52210307e+00  9.97004151e-01
  -2.22410989e+00  3.84394586e-01]
 [ 1.33246028e+00 -1.04840636e+00 -1.74331689e+00 -4.35166895e-01
   1.72849846e+00  3.01660478e-01 -1.10546923e+00  3.01085681e-01
  -2.19309425e+00 -3.46797287e-01]
 [ 2.22034383e+00  9.82304096e-01  6.24426782e-01 -1.96092689e+00
   3.67189825e-01 -4.25558239e-01 -1.80935931e+00 -1.17179501e+00
  -4.17803913e-01  1.46568155e+00]
 [ 3.61547649e-01 -6.32345676e-02  2.09055996e+00 -2.01529765e+00
  -1.61727464e+00  2.94252157e-01 -9.39323187e-01  2.63138294e-01
   5.97636290e-02  3.73838812e-01]
 [-5.15180528e-01  1.17738950e+00  1.34426403e+00 -2.49228209e-01
  -3.18740100e-01  2.90096551e-01 -2.08654046e+00  3.65804315e-01
   5.43942750e-01  5.63102700e-02]
 [ 2.07576728e+00  1.11264563e+00 -4.05144513e-01 -7.99515307e-01
  -3.01856089e+00  8.78948987e-01  8.27634260e-02 -1.35980749e+00
   2.72734195e-01  6.37998462e-01]
 [ 1.60804510e+00 -3.32592696e-01 -3.87311965e-01  1.14968085e+00
  -1.87008536e+00 -1.06681561e+00  8.88580918e-01 -1.11763525e+00
  -4.48950529e+00 -2.21515203e+00]
 [-1.24427104e+00 -3.75041819e+00 -1.63914651e-01  2.75835633e-01
   8.63270104e-01 -1.42140675e+00  9.58518565e-01 -9.25945342e-02
   2.79251188e-01  7.78819561e-01]
 [ 4.03210193e-01 -1.12973964e+00  2.69539118e-01  3.31315458e-01
   1.10500008e-01 -2.21504211e+00 -1.77877933e-01 -1.02359068e+00
   8.95223260e-01  9.30697620e-01]]
[-0.00670426 -0.08248961 -0.0582254  -0.01238478  0.03692922  0.01578538
 -0.05841165  0.0905247  -0.0657644   0.10677456]
