[[[[-0.2691485  -0.8104075   0.29624805  1.2017815  -1.112972
    -0.1326362 ]]

  [[ 0.865715   -1.2847588   0.76890624  0.9253537  -0.4672536
    -1.0075036 ]]

  [[ 0.37346196 -1.8359295   1.454104    0.94555485 -0.6776724
    -1.2630526 ]]

  [[-0.8743091  -1.3499689   1.3101661   0.82658917 -0.852236
    -0.64415145]]

  [[-0.9265882  -1.4262235   1.2209833   0.91320235  0.22333679
    -0.99862623]]]


 [[[ 0.4086271  -0.7933378  -1.7692133   0.49293956 -0.42852554
    -0.54368687]]

  [[ 0.7002461   0.15074736 -1.387718    0.31271037  0.48915076
    -0.62525064]]

  [[-0.41028717 -0.00407344 -0.7984432  -0.04619111  0.31792274
     0.06317314]]

  [[-1.1507626  -0.4142619  -0.83500546 -0.56615746  0.94549537
     1.3636217 ]]

  [[-0.99073863 -0.39436463 -1.0365833  -0.8431888   1.3165323
     1.0040398 ]]]


 [[[ 1.0836091   0.76447165 -1.9057084   0.07928968  0.2584064
    -0.05680282]]

  [[ 0.819843    1.3276883  -3.233549   -0.7212311   1.1649089
     0.54825276]]

  [[-0.7955836   1.2282778  -2.9684606  -1.6379442   1.2806771
     1.4460108 ]]

  [[-1.699729    1.1795843  -2.1843119  -2.0683317   1.4445462
     2.501823  ]]

  [[-0.9994446   1.0696067  -0.94619346 -0.67376715  1.020595
     1.8580905 ]]]


 [[[ 0.8711514   0.9893547  -0.07860007 -0.56025296  0.69152933
    -0.05350283]]

  [[ 0.8641705   1.4412326  -0.30806184 -2.7293217   0.81344956
     0.00340458]]

  [[-0.47086403  0.98277706 -0.58228064 -1.8676378   0.30705658
     0.7828371 ]]

  [[-1.4562701   1.2200652  -0.52926755 -0.3007607  -0.15377259
     1.1623846 ]]

  [[-0.9732863   0.47453377 -0.37648758  0.18006629 -1.1498191
     1.054063  ]]]


 [[[ 0.6781785  -0.51701766  0.49164498 -0.48025605 -0.7534558
    -0.9562174 ]]

  [[ 0.92123586 -0.12925103  0.5387651  -1.1059301  -1.0649362
    -1.1007646 ]]

  [[ 0.5170706  -0.9232562   0.6268823   0.6550181  -1.0091332
    -1.0596162 ]]

  [[ 0.18095164  0.324697    0.21222705  0.65028375 -1.5609568
    -0.63738394]]

  [[-0.3137167  -0.17899899  0.81973374  0.9384609  -1.7415681
    -0.5895771 ]]]]
[-0.7858784  -1.5725611   0.01188464 -0.6122616  -1.6847224  -1.4608037 ]
[[[[-1.01552856e+00  4.12159622e-01 -4.58305255e-02 ...  3.73969674e-01
     6.34693980e-01  8.17237437e-01]
   [ 3.34829360e-01  3.26797336e-01  3.82705212e-01 ...  1.42222777e-01
     4.80645746e-01  1.26991108e-01]
   [-2.64831603e-01 -1.09586522e-01 -1.44890416e-02 ... -6.73557296e-02
    -2.56424427e-01 -3.25930715e-01]
   [-4.96416688e-01 -4.50515866e-01 -1.92553774e-01 ... -3.68660092e-02
    -6.40482783e-01 -3.35757911e-01]
   [-2.66408652e-01  3.98979902e-01 -2.63716094e-02 ... -1.00323594e+00
     3.04339141e-01 -3.56552839e-01]
   [ 9.03354809e-02  2.29555443e-01  2.66509317e-02 ... -6.72562540e-01
     2.92134970e-01 -1.07943460e-01]]

  [[ 8.30110908e-01  4.06317949e-01  1.85424518e-02 ...  3.11176181e-01
    -3.47867161e-01  6.90960526e-01]
   [ 1.21247791e-01 -2.44115219e-02 -8.46769139e-02 ...  8.00877064e-02
     4.03696954e-01 -2.86419898e-01]
   [-6.48064852e-01  1.23692781e-01  1.93569198e-01 ...  1.42169297e-01
    -4.16575044e-01 -3.36486429e-01]
   [-9.76254463e-01 -1.14228204e-01 -7.19871759e-01 ... -1.48322061e-01
    -1.10791421e+00 -1.53715119e-01]
   [-1.47120595e-01  3.31486017e-02 -1.37574911e-01 ... -6.88669682e-02
     2.58705676e-01  1.86720312e-01]
   [-9.04887617e-02 -1.29104161e+00 -4.36702967e-01 ... -4.55092311e-01
     7.34458491e-02 -4.08425957e-01]]

  [[ 6.60795569e-01 -6.75701723e-03 -1.96545228e-01 ...  3.67968947e-01
    -1.05405375e-01  5.04920930e-02]
   [-5.37547231e-01 -6.27858877e-01 -3.07476580e-01 ... -2.92114884e-01
     9.27484453e-01 -6.01791561e-01]
   [-1.48122072e-01  7.05937743e-01  5.80021106e-02 ...  2.56475843e-02
    -3.05012971e-01  5.66979647e-01]
   [-2.97235072e-01  2.35830635e-01 -2.94280630e-02 ... -2.21640080e-01
    -1.17860496e+00  3.72737944e-01]
   [-2.29721908e-02 -6.78871334e-01 -3.62797081e-01 ...  3.81534100e-01
    -4.07125205e-02  1.83985397e-01]
   [-6.47792399e-01 -1.02746356e+00  1.20634086e-01 ... -5.52564919e-01
     2.52628058e-01  4.28531736e-01]]

  [[ 2.36146808e-01  1.29894033e-01 -9.41314936e-01 ...  3.47751141e-01
    -7.15630531e-01  1.04556561e-01]
   [-2.41629884e-01 -8.91993821e-01 -9.54792872e-02 ... -5.46435475e-01
     9.44110334e-01 -9.28555191e-01]
   [ 2.59250581e-01  5.13345838e-01 -6.04493201e-01 ...  9.42409337e-02
    -1.34680599e-01 -1.43169641e-01]
   [ 3.42018217e-01  2.56154835e-01  3.12861130e-02 ...  5.36759496e-01
    -8.75839949e-01  4.07888889e-01]
   [-2.67602861e-01 -8.22657168e-01 -3.21681559e-01 ...  5.29363342e-02
     6.42846286e-01  5.42150855e-01]
   [ 1.56566948e-01 -1.64338484e-01  9.11533535e-02 ... -8.43190178e-02
     5.16030431e-01  1.62354887e-01]]

  [[ 1.50998250e-01 -9.86064136e-01  3.23904753e-01 ...  4.47150096e-02
    -7.68123686e-01  5.55381536e-01]
   [-3.00568372e-01 -5.72041512e-01  4.97159027e-02 ... -3.57751340e-01
     8.54894757e-01 -8.82190228e-01]
   [ 7.11779371e-02 -1.87579244e-02 -9.88899291e-01 ...  9.38765779e-02
    -3.01572204e-01  9.93965790e-02]
   [ 5.43594420e-01  1.25950083e-01 -6.57594442e-01 ... -1.47886693e-01
    -1.46141922e+00  1.27899706e-01]
   [ 2.26387814e-01 -5.06767809e-01  2.64077812e-01 ... -2.42352992e-01
     1.11889935e+00 -1.22531444e-01]
   [-3.82701933e-01  1.64588630e-01 -1.29254431e-01 ... -2.75229793e-02
     2.85384148e-01  2.01222431e-02]]]


 [[[-1.67044616e+00  5.98476529e-01 -1.28921732e-01 ... -9.65179279e-02
     1.06096148e-01  5.60977221e-01]
   [ 1.67467088e-01  3.37241173e-01  1.53868780e-01 ...  5.30749142e-01
    -6.62408531e-01  3.04409593e-01]
   [-3.69691193e-01 -1.69317663e-01 -2.11882427e-01 ... -1.82460010e-01
     3.11268806e-01 -1.07134378e+00]
   [-5.84256984e-02 -4.69566584e-01  6.64984286e-02 ... -4.75615263e-01
     6.15063190e-01 -1.24136364e+00]
   [-4.39041078e-01  1.22187778e-01 -3.06772560e-01 ...  1.62561424e-02
     3.67944874e-02  1.32420912e-01]
   [ 3.74592066e-01  1.06849402e-01  3.43489379e-01 ...  2.49469981e-01
    -5.67897737e-01  7.07519054e-01]]

  [[ 8.16527486e-01  4.17788774e-01  6.93087697e-01 ...  8.68401527e-01
    -9.05075550e-01  8.55335653e-01]
   [ 9.56180766e-02  1.41552716e-01  8.00265893e-02 ...  8.75437796e-01
    -7.56575465e-01  1.23295421e-03]
   [-1.17855895e+00 -4.94464904e-01  9.62423086e-02 ...  1.39025375e-01
     3.95541005e-02 -2.60068178e-01]
   [-1.64900529e+00 -3.87615114e-01 -3.15541267e-01 ... -6.32353663e-01
     2.62422621e-01 -2.07094774e-01]
   [-3.25780988e-01  6.64863661e-02  3.11007589e-01 ...  2.53692597e-01
     9.75924805e-02  1.00940078e-01]
   [-5.59803605e-01 -1.15246844e+00 -8.28861296e-01 ... -1.99453399e-01
    -5.92522800e-01 -8.21421385e-01]]

  [[ 8.87084246e-01  2.89271921e-02  2.24153623e-01 ...  1.00423431e+00
    -3.12894046e-01  3.17585617e-01]
   [-2.77196705e-01 -8.36690366e-01 -3.32726449e-01 ... -3.40764493e-01
    -5.27057409e-01 -5.06096184e-01]
   [-8.41519609e-03  1.70848936e-01  7.37973511e-01 ...  3.70824784e-01
     2.59126455e-01  6.18175566e-01]
   [ 1.69046849e-01  1.03762977e-01  4.59651977e-01 ... -9.05788541e-02
    -1.29972279e-01  5.63538551e-01]
   [-5.97450078e-01 -3.87769282e-01 -7.58980274e-01 ... -7.15649575e-02
     4.63496894e-01 -6.17506146e-01]
   [-6.76573694e-01 -1.03695607e+00 -2.61961631e-02 ... -7.36101747e-01
    -4.25456613e-01  4.24924260e-03]]

  [[-7.06253424e-02  1.60162449e-01 -1.26583016e+00 ...  1.76882803e-01
    -1.32551825e+00  2.70042308e-02]
   [-3.54975522e-01 -9.64252353e-01  9.55248550e-02 ... -9.07124043e-01
    -1.80859745e-01 -1.55537039e-01]
   [ 2.59913683e-01  6.76546633e-01 -4.71480101e-01 ...  3.58828813e-01
     2.67384380e-01  2.65009224e-01]
   [-1.17215112e-01  4.88568634e-01  3.70230645e-01 ...  8.44018683e-02
     8.14759910e-01  2.86184818e-01]
   [-1.96471423e-01 -1.29289937e+00 -5.42302012e-01 ...  4.83896315e-01
     4.30992573e-01 -2.84207165e-01]
   [-6.30728807e-03 -5.40935576e-01  6.92239046e-01 ... -4.61239100e-01
    -5.80927022e-02 -3.94642353e-01]]

  [[ 4.60094124e-01 -4.73196179e-01  6.23231113e-01 ... -4.53977346e-01
    -1.65152028e-01 -3.07116181e-01]
   [-8.20023417e-02 -1.26408383e-01  3.11801344e-01 ... -8.80998313e-01
    -9.70457673e-01  1.18395025e-02]
   [-1.48441687e-01  7.29722381e-02 -7.02310145e-01 ... -9.45625007e-02
     5.30185342e-01  4.67234820e-01]
   [-1.70077398e-01  5.61519340e-02 -1.07836974e+00 ... -7.05949962e-02
     9.36083555e-01  8.48020971e-01]
   [ 1.30758435e-01 -3.88447136e-01  3.17607343e-01 ...  4.91597831e-01
     6.25132382e-01 -8.77778292e-01]
   [ 4.18657213e-02  4.12937582e-01  3.38286012e-01 ...  3.25422019e-01
    -6.88118875e-01  7.41196573e-02]]]


 [[[-1.38479900e+00  3.80817235e-01  4.45286408e-02 ... -8.82905602e-01
    -2.14255720e-01 -3.80386800e-01]
   [ 4.14705127e-02  3.58248353e-01  2.83360481e-01 ... -3.41634303e-01
    -7.33398497e-01  3.17356378e-01]
   [-3.93426061e-01 -3.32006991e-01 -1.82590596e-02 ... -4.84580636e-01
     8.77199650e-01 -7.40247667e-01]
   [-2.53432095e-01 -5.56553543e-01 -5.92495978e-01 ... -3.18617910e-01
     3.73642772e-01 -9.05435681e-01]
   [-9.85322535e-01  5.75444341e-01  7.24144056e-02 ...  5.53802550e-01
    -9.13119614e-01 -1.55763835e-01]
   [ 4.82997119e-01  9.67771336e-02  7.66931474e-02 ...  4.45429534e-01
    -1.05962551e+00  4.81138408e-01]]

  [[ 1.23966396e+00  5.00491500e-01  9.89825010e-01 ... -1.13381155e-01
    -4.87993121e-01  4.96655256e-01]
   [ 1.10689849e-01 -2.44019210e-01  1.91558436e-01 ...  5.03476739e-01
    -6.19036436e-01  6.43046200e-01]
   [-2.20187593e+00 -6.41815722e-01  1.67773187e-01 ... -6.62646651e-01
     6.86917245e-01 -7.35820889e-01]
   [-1.03716433e+00  1.14194147e-01  5.85724413e-01 ... -1.69082987e+00
     4.72350895e-01 -6.79891229e-01]
   [ 1.87012136e-01  2.27140024e-01  1.26961783e-01 ...  4.52364117e-01
    -1.12604654e+00  8.35596472e-02]
   [-1.37137935e-01 -1.22360837e+00 -8.74023259e-01 ...  5.01476526e-01
    -1.11705410e+00 -4.29489881e-01]]

  [[ 9.64161336e-01  2.76609987e-01  3.58715892e-01 ...  6.65870190e-01
    -4.54500597e-03  1.71995405e-02]
   [-4.15960401e-01 -8.29530358e-01 -8.61311376e-01 ...  6.87305570e-01
    -8.45048428e-01  2.85996526e-01]
   [ 1.67454630e-01  1.22997038e-01  4.88223016e-01 ... -4.27911252e-01
     1.28109825e+00 -1.61166295e-01]
   [ 5.07372379e-01  3.94254714e-01  5.47552466e-01 ... -1.51353693e+00
     6.98409677e-01 -5.78422248e-01]
   [-3.22865933e-01 -4.64245379e-01 -1.08766568e+00 ... -2.62450039e-01
    -6.43739820e-01 -8.54884982e-02]
   [-1.30938840e+00 -9.54090655e-01 -4.35706645e-01 ... -1.12028085e-02
    -1.04527330e+00  4.35902894e-01]]

  [[-2.41122589e-01 -9.19902623e-01 -1.12738800e+00 ...  1.15221453e+00
    -3.02084327e-01 -2.43628368e-01]
   [-4.35852289e-01  9.21292305e-02  7.83870835e-03 ...  4.83338118e-01
    -7.08870471e-01  8.71579409e-01]
   [ 3.07844609e-01  2.86022365e-01 -7.77491689e-01 ...  8.00707400e-01
     1.31460106e+00 -1.35122657e-01]
   [-1.98719036e-02  4.59360957e-01 -1.03035092e+00 ... -3.94519448e-01
     1.02023506e+00 -1.43259451e-01]
   [-2.27314353e-01 -1.32419384e+00 -1.59554631e-02 ... -8.91477346e-01
    -6.39646292e-01  2.05212340e-01]
   [ 3.78018916e-01  3.46717149e-01  7.17967451e-01 ... -6.55246794e-01
    -2.89014220e-01  3.49504292e-01]]

  [[ 2.92747647e-01  2.65705269e-02  5.86179554e-01 ...  2.93420345e-01
     2.94664651e-01 -1.09144759e+00]
   [-2.37439647e-01  2.93670744e-01  3.13076168e-01 ... -6.49815857e-01
    -3.40500176e-01  8.58092844e-01]
   [-1.06117222e-02 -6.28798783e-01 -1.57927656e+00 ...  9.61847365e-01
     6.39683127e-01 -4.82946962e-01]
   [-1.29883260e-01 -5.39351761e-01 -1.04456985e+00 ... -1.07118063e-01
     3.51227343e-01 -6.11309469e-01]
   [ 5.27580261e-01  6.93106353e-01  3.17377299e-01 ... -5.08836627e-01
    -9.56421077e-01  4.67040747e-01]
   [-7.26486072e-02  5.42341232e-01  4.93305735e-02 ... -5.88596046e-01
    -7.39528894e-01  5.25553644e-01]]]


 [[[-2.07894638e-01  5.59777856e-01  4.62741703e-01 ... -1.14271891e+00
    -4.86701310e-01 -7.50187516e-01]
   [ 1.89354613e-01 -3.61359268e-01  2.64821827e-01 ... -1.22943294e+00
     2.78123885e-01  3.44382703e-01]
   [-1.79494870e+00 -4.09392715e-01 -4.74749535e-01 ...  2.01321971e-02
     3.25565547e-01 -3.96929383e-01]
   [-1.68483186e+00 -6.61662966e-02  4.03826684e-01 ... -6.33485541e-02
     1.08033642e-01 -9.42169070e-01]
   [-2.25700496e-04  5.83561957e-01  5.12402654e-01 ... -9.79215279e-02
     4.41395156e-02 -1.60567343e-01]
   [ 1.81146562e-01 -1.75114334e-01 -3.00438881e-01 ... -4.48922932e-01
     9.16974694e-02  2.93174058e-01]]

  [[ 1.20122707e+00  3.90289873e-01  9.51982498e-01 ... -1.70334709e+00
    -3.10366154e-01 -6.92365468e-02]
   [ 5.78193069e-01 -9.86000299e-01 -1.01267099e+00 ... -2.08857566e-01
     2.79173076e-01  3.93263698e-01]
   [-8.96400630e-01 -1.11241318e-01 -2.39061117e-01 ...  5.65097630e-02
     2.25159287e-01 -5.31519294e-01]
   [-1.92380279e-01  8.65785480e-01  4.41172034e-01 ...  2.57821474e-02
    -5.68002641e-01 -7.73889720e-01]
   [ 1.52743101e-01  3.31016451e-01 -1.97254136e-01 ...  2.28495449e-01
     3.80931616e-01  3.07966620e-01]
   [-2.20271379e-01 -1.83255374e+00 -1.27919841e+00 ...  8.87418926e-01
     1.46176383e-01  3.58065367e-01]]

  [[ 4.38959897e-01  2.24797308e-01  4.66887534e-01 ... -7.44978726e-01
     1.60819679e-01 -2.92599738e-01]
   [-1.79657981e-01 -4.51156497e-01 -6.09326363e-01 ...  9.49655175e-01
     3.32941204e-01  4.13994312e-01]
   [-4.55707788e-01  3.15528601e-01 -1.10102028e-01 ... -1.10260034e+00
     2.15024382e-01 -6.60460174e-01]
   [ 2.50487447e-01  7.02610075e-01  1.10940829e-01 ... -7.66279340e-01
    -6.18532777e-01 -5.01944959e-01]
   [-3.81385088e-01 -1.40506661e+00 -8.04630935e-01 ...  1.20916523e-01
     4.08004373e-01  5.00631750e-01]
   [-4.83621895e-01 -3.63984704e-01  9.67123061e-02 ...  5.32423973e-01
    -2.21583098e-02  5.85602403e-01]]

  [[-4.29378897e-02 -8.39365780e-01 -4.14539576e-01 ... -1.05023384e-01
    -1.68100730e-01 -3.69012475e-01]
   [ 2.88676806e-02  7.71336108e-02 -2.23948196e-01 ...  1.18963444e+00
     2.77115494e-01  7.27488160e-01]
   [-1.89029038e-01 -1.67542189e-01 -1.12513697e+00 ... -6.78671479e-01
    -1.17358290e-01 -9.38759804e-01]
   [-5.31300187e-01 -3.50060403e-01 -1.39271998e+00 ... -1.56274641e+00
    -2.80453682e-01 -2.90542960e-01]
   [ 9.75938663e-02 -5.58775425e-01  2.50176676e-02 ...  1.08790388e-02
     2.87201762e-01  5.62286437e-01]
   [ 1.41235441e-01  2.64175802e-01  5.15504658e-01 ...  2.88719386e-01
     2.87376624e-02  3.89678657e-01]]

  [[ 1.94031298e-01  3.27625841e-01  3.45661938e-01 ...  5.06604552e-01
    -2.08731785e-01 -6.77530468e-01]
   [ 6.37834370e-02  1.34220019e-01  1.30960822e-01 ...  7.78240561e-01
    -4.64698896e-02  1.45859689e-01]
   [-3.64705585e-02 -8.43294740e-01 -9.50979948e-01 ...  1.33970812e-01
    -3.73287231e-01 -2.70954520e-01]
   [ 5.59044123e-01 -7.50611722e-01 -2.41736725e-01 ... -4.66216803e-01
    -4.75570172e-01  1.44110173e-01]
   [ 1.20930985e-01  1.24875553e-01  2.30063289e-01 ... -2.45925814e-01
     4.36744988e-01  4.27900523e-01]
   [-2.44311944e-01  3.46301824e-01  2.66878605e-02 ... -1.22133210e-01
    -4.10279959e-01  5.73909190e-03]]]


 [[[ 3.38515520e-01  4.28706169e-01  3.82477760e-01 ... -9.96733844e-01
    -6.50423408e-01 -6.58455610e-01]
   [-4.06330675e-02  3.29633445e-01  7.49177253e-03 ... -8.79103780e-01
    -1.32355969e-02  1.49264842e-01]
   [-3.86498094e-01 -1.32147357e-01 -1.98387757e-01 ...  5.67875266e-01
    -5.52675664e-01 -7.02035010e-01]
   [-5.09922564e-01 -4.51508403e-01  6.13931000e-01 ...  2.06761539e-01
    -3.44045967e-01 -9.40567613e-01]
   [ 6.47788882e-01 -1.11862779e-01 -3.45477939e-01 ... -5.80076635e-01
     2.12338567e-01  6.64598048e-01]
   [ 9.08230305e-01 -3.44083637e-01 -5.73554635e-02 ... -6.27661943e-01
    -1.61037799e-02  3.37824494e-01]]

  [[ 6.81352973e-01  6.01630330e-01  7.70026863e-01 ... -1.21457005e+00
    -5.43538988e-01 -1.01723507e-01]
   [-3.02717518e-02  2.79395640e-01 -4.73681390e-01 ... -4.57088023e-01
     4.67650518e-02  2.83741713e-01]
   [-5.20238638e-01  1.23192608e-01  1.12070605e-01 ...  8.52698326e-01
    -3.09332281e-01 -9.41117465e-01]
   [-3.30929905e-01  2.27929041e-01  3.93487334e-01 ...  3.84414434e-01
    -8.18199944e-03 -4.52280223e-01]
   [ 1.74446076e-01 -4.46797818e-01 -1.12983108e+00 ... -6.37069464e-01
     2.52663046e-01  3.82357925e-01]
   [-1.70522407e-01 -1.75452843e-01 -7.95427859e-01 ...  7.24497391e-03
     9.86557454e-02  3.44574720e-01]]

  [[-7.73655474e-02  2.37435117e-01  1.01604950e+00 ... -1.13931930e+00
     2.19849080e-01 -2.91390549e-02]
   [-1.18951656e-01  1.94654629e-01 -2.89093107e-01 ... -7.64957517e-02
     9.25681442e-02 -1.09770395e-01]
   [-2.93055505e-01 -2.68434078e-01  7.33409673e-02 ...  4.70844924e-01
    -2.33319044e-01 -8.97511184e-01]
   [-1.81355104e-01 -3.95078927e-01 -2.28558600e-01 ...  1.89467072e-01
    -3.68082881e-01 -1.77222565e-01]
   [-1.43509313e-01 -5.54664195e-01 -4.93080735e-01 ...  4.00452405e-01
    -1.85484201e-01  4.01850156e-02]
   [-1.52190983e-01 -2.52881110e-01  1.62512287e-01 ...  6.48065209e-02
     1.07979886e-01  4.69151169e-01]]

  [[ 1.69049621e-01  1.17910039e-02 -2.01040819e-01 ... -4.46613401e-01
     9.26292762e-02  2.03925312e-01]
   [ 3.78713042e-01 -1.87107902e-02 -5.75574078e-02 ...  1.30338475e-01
    -1.31891727e-01 -4.60749388e-01]
   [ 5.59508614e-02 -4.42478508e-01 -5.73272049e-01 ...  1.96569830e-01
    -1.15603395e-01 -3.06762040e-01]
   [-2.63507217e-01 -8.56131613e-01 -3.93031001e-01 ... -3.14826339e-01
    -4.77850169e-01 -2.41650958e-02]
   [-3.18096727e-02 -1.71148852e-01 -1.76728949e-01 ...  4.37725127e-01
    -1.73016891e-01  1.25411659e-01]
   [ 2.57325768e-01  3.84346277e-01  4.45352197e-01 ...  1.88703556e-02
    -4.53191817e-01 -3.01106185e-01]]

  [[-2.09617969e-02  4.53230113e-01  4.38394994e-01 ... -2.27209404e-01
     4.83960181e-01 -3.90364617e-01]
   [ 3.32983434e-01  4.84784752e-01  1.62344128e-01 ...  1.41453177e-01
    -1.95186764e-01 -4.99780923e-01]
   [-1.82274342e-01 -9.92211223e-01 -5.23677349e-01 ...  5.33309579e-03
     4.68575686e-01  1.34859070e-01]
   [ 7.09912628e-02 -1.38333786e+00 -3.69190991e-01 ... -1.75598308e-01
    -2.28667617e-01  5.08958809e-02]
   [-1.45416215e-01  1.70221806e-01  4.69573706e-01 ...  6.58780187e-02
    -2.35029250e-01 -5.08460045e-01]
   [-1.33399963e-01  3.98926228e-01  1.90309316e-01 ... -2.21784487e-01
    -6.45574629e-01 -4.45510060e-01]]]]
[-0.01342665 -0.08726136 -0.04048169 -0.2209849  -0.07831162 -0.274344
 -0.17954256 -0.01193957 -0.31239355 -0.17995347 -0.2059076  -0.05608708
 -0.2979503  -0.0547163  -0.2832444  -0.17460579]
[[ 0.24687275  1.0835634   0.089394   ... -0.28886124 -0.5106367
  -0.1848164 ]
 [-0.20419191  0.06455898  0.23690122 ...  0.41664433 -0.19411118
  -0.51731205]
 [-0.7817644   0.19793962  0.25146767 ...  1.0432515  -0.7046784
  -0.24381348]
 ...
 [ 0.12587328 -0.73909205  0.28463402 ...  0.52803296 -0.43223155
   0.5462243 ]
 [-0.14340039 -0.4250345   0.55633926 ... -0.50173455  0.29138625
   0.52080595]
 [-0.07330734 -0.25899175  0.52989465 ...  0.65347004 -0.37726662
  -0.1713677 ]]
[-0.07611497  0.26850727  0.0546867  -0.11774712 -0.15594447  0.11359185
 -0.02581278  0.04888863 -0.02516248  0.09315319  0.02614316  0.08054315
 -0.18046474 -0.00832121 -0.06264782 -0.07149064 -0.03951125 -0.19110487
  0.03328402  0.03923224 -0.16628613  0.07097168 -0.22803712 -0.24928056
 -0.09925072 -0.24399176 -0.05568844 -0.13305902 -0.18598565 -0.3085886
 -0.20693101 -0.04310584 -0.03635053 -0.03961865  0.05197087 -0.18563464
  0.0037121  -0.09535503 -0.067972    0.09847187 -0.10138417 -0.0305589
 -0.11112545  0.06316008 -0.02361903  0.19920991 -0.18531425 -0.13606246
 -0.13807307 -0.10641512 -0.21395265 -0.09018887  0.08750648  0.01108947
  0.06082686  0.25656408 -0.1511202  -0.16185685 -0.29003003  0.00538178
 -0.10647181  0.00323166 -0.05826782  0.0714315   0.01451066 -0.06192407
 -0.10028502  0.3738405   0.02965159 -0.03152478 -0.12060774  0.04436761
 -0.26911545  0.04245329  0.0654029   0.05258214 -0.15712506 -0.1769453
  0.04497863  0.13377905  0.18598546  0.2902793  -0.1367593   0.02608024
 -0.17295678 -0.09235881 -0.15002626  0.03530955 -0.05521335 -0.11126603
 -0.2042719   0.10567849  0.01642643  0.11900706 -0.020418   -0.11032769
 -0.0177747  -0.11404506 -0.11879373  0.11055188 -0.22400734  0.00329907
  0.00328608 -0.00869329  0.08070017 -0.05492444 -0.16058704 -0.08202986
 -0.11835465 -0.20198597  0.02294767 -0.12494376 -0.12359818  0.18192975
  0.09167605  0.03863038 -0.212559   -0.09970771 -0.10646309 -0.16255617]
[[ 0.00732262 -0.41348284  0.10154612 ... -0.11801176 -0.10505529
  -0.29265714]
 [-0.36319947 -0.12092779  0.157221   ... -0.4947198   0.24781802
  -0.15557435]
 [-0.07859056 -0.4046202  -0.6147222  ...  0.70865905 -0.74470675
  -0.02832645]
 ...
 [ 0.560098    0.3155217   0.8254338  ... -0.07088017  0.03533321
   0.59323126]
 [ 0.86140627  0.8132319   0.00432941 ... -0.10264248  0.22556755
  -0.04619945]
 [-0.9496729  -1.1738105   1.3983849  ...  0.35901198 -1.1110314
   0.7587663 ]]
[-0.10037613 -0.0809001   0.06184487 -0.07064006 -0.09923655 -0.03857773
  0.02680971 -0.03282216 -0.06944247  0.06622914  0.06318865  0.01386205
  0.03064243  0.08386908  0.07865115 -0.03469732 -0.05676009 -0.00818164
  0.07436087 -0.10602842 -0.0160397  -0.06923074 -0.0080819  -0.0668091
 -0.0872126  -0.08308428 -0.04372029  0.07813268 -0.02229316 -0.08437915
 -0.00074956 -0.08248027  0.02397551 -0.08774094 -0.11328495 -0.0422466
  0.08498428 -0.13489121  0.03388824  0.03326324  0.01103894  0.00143118
  0.00852103 -0.13023426  0.07071877 -0.24659352  0.03751549 -0.03517526
 -0.01028702  0.02198438 -0.08303754 -0.02022136 -0.0364848  -0.08372218
 -0.03648115  0.05886928 -0.01013059 -0.02813073 -0.12665804 -0.11212542
 -0.05263042 -0.01893697 -0.15790729 -0.09858793 -0.03496685  0.07721964
  0.03667521  0.07337572 -0.07941467  0.08644403  0.04891957 -0.03553414
 -0.01664547 -0.20679832 -0.0111866   0.06105811  0.01414846 -0.00528593
 -0.01729522 -0.03522213  0.09609158 -0.08246975  0.00431609 -0.00334947]
[[-1.2691284  -1.5191598   0.5994777   0.31498092  0.48262572 -0.29151878
  -1.0382113   0.40201822  0.35042107  0.26952553]
 [ 0.43677786 -2.1030054  -1.3529457  -1.9343641   0.5388013   0.4743835
   0.3385847   0.74503416 -0.41622162  0.36531687]
 [ 0.87448823  0.5066476   0.6747267  -0.98383987 -1.4507587  -0.04561028
  -1.020216    1.0318145  -0.39203197 -0.9750057 ]
 [-1.4230988   0.8329492  -0.18285064  0.4988612  -1.5567787  -0.23903319
   0.8244416   0.27296266  0.2246167  -1.4793967 ]
 [ 1.0062499  -0.26486242 -1.1365074   0.65197545 -0.9342023  -1.4862907
   0.3919684  -1.1682862   0.73731416  0.67454666]
 [-2.1530259   0.13587934 -1.2446066   0.07216846 -0.10529433 -0.09636141
  -2.3103883   0.5270577   0.84469247  0.11387035]
 [ 0.68716407  0.7959095  -2.3367093  -1.2185717   0.300406   -0.9794494
   0.2540441  -1.1026659  -1.0241508   0.95772076]
 [ 0.02157731  0.6109215  -0.5010637   0.4957944   0.81344265 -1.21656
  -0.7325122  -0.923758    0.36402938 -0.10045954]
 [ 1.0364677  -1.1416667  -0.9717596   1.0549977  -1.3214566  -0.87979776
   1.2571087  -1.5411117  -0.33884135  0.26209238]
 [ 0.31840956  0.36642003  1.0195609  -1.5879781   0.9181897  -0.14693126
   0.41880804 -1.605038   -0.02793224 -1.4816946 ]
 [ 0.3538842   0.3023595  -0.8497382  -1.4314383   0.8604022   0.00935862
  -1.8471568   0.64851385 -0.82519263 -0.03267182]
 [ 0.89263356  0.3678499  -0.5489706   0.9619286  -1.3642823  -0.34290466
   0.48972592 -0.08373289 -1.5976738  -0.18993661]
 [-1.1440195   0.74121594 -2.7068913   0.84235674 -0.47413734  0.5256896
  -0.42889237 -1.4540702   0.3821933  -0.03353969]
 [ 0.36853933  0.80002165  0.7197936  -0.60519075  0.66384625  0.04108595
  -1.809907   -1.0663615  -1.6238332   0.8639183 ]
 [ 0.5069016   0.7063409  -0.07053048  0.22913367 -1.971811    0.13196562
   0.55179584 -0.721768    0.34634745 -2.0350163 ]
 [-1.6008705   0.60272175 -1.8832798   0.5274274   0.725635   -1.1037667
  -1.4889427   0.5630065  -0.8739715   0.01129118]
 [-0.41895062  0.1676428  -2.8472426  -0.53127456 -0.73200285  0.3127406
   0.4588959   0.07217377  0.6132808   0.6593972 ]
 [-1.9036491  -0.06214337  0.9372031   0.2336232   0.87060744 -0.4301865
  -1.533258    0.2284152  -1.379664    0.08752635]
 [ 0.4630158   0.5465991   0.28499928 -1.5802997   0.00739414  0.15419576
   0.6065431  -1.4084727   0.19257893 -1.5301583 ]
 [-0.7676878   0.66992885 -2.109658   -2.621767   -0.32487658  0.16662641
   0.8952558  -0.8830864   0.76885134  0.43462896]
 [ 0.86635804  1.297832   -1.5286869  -1.0942951  -0.7011044  -0.5164146
   0.48515588  0.5234107  -1.0663437  -1.0635906 ]
 [-1.952535    0.06385272  0.3016606   0.6326934  -1.2926757   0.19090147
   0.36846    -1.179149    0.5612568  -0.5945412 ]
 [ 0.92161036 -1.6501431  -0.7051653  -1.691885   -1.8974591   1.3241378
  -0.4182274   0.5787736  -0.5992621   0.07314067]
 [ 0.23471524  0.349951    0.15629657  0.5923521  -1.0986178  -1.1045065
  -1.1593481   0.427862    0.4255792  -1.4519668 ]
 [-0.36444044 -0.10445622 -1.1794239  -0.7461912   0.59443426 -1.6296461
  -1.377804    0.4682209   1.0335635   0.44032094]
 [-0.9720851   0.8972244   1.2238989  -0.30381113 -1.1377954  -1.1051109
   1.1162448  -0.21494156 -1.8323026  -0.0163663 ]
 [-1.486906    0.16080981 -0.7469998   0.64150405  0.64229363 -1.7565802
   0.12601678  0.42227268 -0.53452575  0.316343  ]
 [ 0.5309867  -2.13501    -1.072933   -0.9429271   1.1480831   0.91833764
   0.74823326 -1.1986153  -1.5141149  -0.7442311 ]
 [ 0.19471072 -2.1496303  -0.50573826 -1.4410877  -0.07752155  0.5576984
   0.46607432 -0.7494505   0.4103279   0.8319158 ]
 [ 0.5814687  -1.0798638  -0.5326951  -0.6756385  -1.344747    0.22344188
  -0.61031604 -1.418723    0.46999562  0.96346736]
 [-2.6992862   0.03993369  0.15127698  0.04168032  0.23980276  0.30596423
   0.23363791  0.26046246  0.3865416   0.19811554]
 [-0.24672042 -1.1324253  -1.2578679   0.41635886 -0.49392417  0.31919557
  -1.0690693   0.7552673   0.4119971   0.43944728]
 [ 0.94081825  0.321956   -0.4907379  -1.2955087   0.61648506 -1.7610143
  -1.74954     0.37028992 -0.62454885  0.67414165]
 [-1.4986264  -0.06398576  0.46613234  0.39138603 -0.76113385 -1.3062961
  -1.3308088   0.30890658 -0.16359219  0.73601514]
 [ 0.02362219 -1.0152003   1.0490414   0.40003258 -0.76388776 -1.1756177
  -1.5209221  -0.62654966  0.20015375  0.9782115 ]
 [ 0.4508318   0.5097715   0.5655466   0.3398825   0.36459145 -0.78838474
   0.5350456  -0.74572784 -1.5082958  -0.03506422]
 [-2.1824162   0.86698055 -1.038422   -0.6234768   1.0734509   1.0876285
  -0.76231235  0.2313991  -0.46060902 -0.6631975 ]
 [-0.6978898  -0.6955087  -0.389602   -0.6491537   0.87737316 -1.0333267
  -1.6567491   0.47875774 -1.5459111   0.8666361 ]
 [ 0.12434588  0.3668391  -1.4688928  -1.4506469   0.76384276 -0.26968136
   0.8128604   0.8877509   0.5714989  -1.4881747 ]
 [ 0.39123005  0.08902808  1.101992   -2.0829182   0.21531709 -1.5029572
   0.46394587  0.07777081 -1.1209406   0.29569635]
 [-1.1989368   0.43905944  0.19167477  0.36042354  0.5911874   0.9826112
  -0.46154165 -1.5287242  -0.23115033 -1.3387867 ]
 [ 0.47388586 -0.9694572   0.91010666  0.32073382  0.20442443  0.38487917
   0.64039594 -1.4351674  -1.1677312  -0.31640726]
 [ 0.26336473  0.23503305  0.2808268  -1.7036054   0.38964882 -1.8404045
   0.6305252   0.5290544   0.1738751  -1.2258726 ]
 [-1.0642716  -1.2652296   0.6592466   0.40338287 -1.4566733  -0.19976822
   0.11635985  0.90017396  0.47438    -0.9910683 ]
 [-0.96484756  0.4234689  -1.1487639   0.45112967  0.46713975  0.30008903
   0.2989941  -0.07883258 -1.6036587   0.79353404]
 [-1.039226   -1.3746327  -0.31018585 -0.83413804  0.46082857 -1.6426386
  -0.6307474  -1.4614018   0.8113987   0.84863216]
 [ 0.45443815 -0.7070652  -1.2929386   0.1651234   0.5559241   0.19947757
  -2.4157448   0.26943883  0.2994245   0.26358497]
 [ 0.6936188  -1.8096479  -2.1235213   0.8270627  -1.7275888   0.44040906
   0.7420624  -1.5307677   0.82001954 -0.8012466 ]
 [ 0.928511   -1.8515643   0.9798607   0.18005306  0.2169391  -1.2182955
  -0.03781294 -0.95586604  0.6599589  -1.9350488 ]
 [ 0.20164059  0.35117713  0.93988156 -1.6098049   0.6387475   0.21168993
   0.03733177 -1.8072745   0.40065026 -0.4269205 ]
 [ 0.48290446 -0.21044059 -0.5784209   0.6717813  -2.1710865   0.38921434
  -0.05256633 -1.887007    0.6083517   0.70216805]
 [-0.49061763 -1.2233292   1.4372605  -1.055123   -0.96083623  0.47070605
   0.33729252 -1.0136971   0.04418654  0.3517575 ]
 [-1.5754844  -0.4878934  -2.0172896   0.9195799   0.17203316  0.49834254
   0.7584996  -1.4715781   0.57067543 -1.0356277 ]
 [-0.3413796   0.33077264  0.50594985  0.14591162 -1.6173463   0.17352186
  -1.849553    0.21110483  0.30247805  0.4212065 ]
 [ 0.76983964 -0.32981652  0.4736768   0.5322388  -0.73686194 -0.14946397
  -1.060202    0.38518405 -1.3985088   0.7275392 ]
 [ 0.38270688 -1.6887722   0.63507277 -1.422249    0.26923397  0.27787575
   0.20614989 -0.37970996  0.08618226 -0.5785806 ]
 [-1.5427645  -1.3335975  -1.2311668  -1.1227715   0.92023     0.9576859
   0.4724727  -0.72050816 -0.9210806  -0.46969214]
 [-1.2756277   0.7309767   0.8052352   0.5950307  -1.2587715  -1.874119
  -1.3687686   0.8388416  -1.2059587  -0.8736681 ]
 [-1.3446615   0.28283986  0.25516766  0.14520928 -1.4620762   0.17924893
   0.7666693  -1.3475206   0.70977545 -0.88349485]
 [-1.4433031  -1.6723264   0.06438919  0.53176445 -0.9791763   0.65016866
  -0.50979584 -1.6511638   0.16819409  1.1961392 ]
 [ 0.00921962 -0.74809647 -0.09873074  0.70771873 -0.20785806  0.0454756
  -0.7629255   0.9710055  -1.7389349  -0.639637  ]
 [ 0.9592164  -0.6361834   0.44327107  0.58261544 -1.2196004  -0.98092854
  -1.4465297   0.704474    0.51717865 -0.6753057 ]
 [-0.00719241 -2.1258764   0.4796081  -0.30572593 -1.0152956  -0.8729724
   0.7920423   0.7510652   0.60516137 -0.06834699]
 [-1.964661   -0.69959736 -0.17433216 -0.25323904 -0.23892768 -0.6346539
  -2.138638    0.30563617  0.9949397   0.3763151 ]
 [ 0.3511601  -1.1679658   0.40880933  0.49433553  0.64130217  0.45663154
  -0.09317724 -2.2023237   0.32210454 -0.8753038 ]
 [ 0.4623016   0.9070293  -0.10493205 -2.054795    1.1745619  -1.6889302
   0.64308697 -0.9062207  -0.56353486 -1.340131  ]
 [-0.546346    0.17710441  0.7864538   0.38441893 -2.2082162   0.6793136
   0.01472991 -0.20122539  0.13294807 -1.1927257 ]
 [ 0.49986082  0.31970474  1.0423824  -1.6461729   0.46829495 -1.3407263
   0.8496724  -1.4774017  -0.42482677  0.03011435]
 [ 0.53758943 -0.6390804   0.3889173   0.3498367  -0.33788848  0.02051238
   0.3916127   0.33611947 -1.7749013   0.53408295]
 [ 0.71715593  0.31094906 -0.67685956  0.29412782 -0.80624366  0.21729447
  -2.1147933   0.37702066 -1.4893974   0.84218556]
 [ 0.52043515 -0.9728108   0.4498085   0.26771703 -1.4060054   0.5378633
  -0.6129894   0.71240443  0.55038655 -1.1910993 ]
 [-1.4923526  -1.0972683  -0.7433411   0.39485347  0.13416627  0.6804874
   0.7191725  -1.9121971  -1.3094944   0.19538032]
 [-0.78232527  0.73364633 -0.47376236  0.4297917   0.22026384  1.0186834
  -2.1872425   0.4649031  -2.2032216  -0.01958041]
 [ 0.04196246 -2.5562084   0.93604326 -0.8543148   0.53192395 -1.2939874
  -1.5503819  -0.090895    0.09366208  0.40880248]
 [-0.76694614  0.573299    0.84518254  0.6068195   0.11026025 -0.8817572
  -1.3266232  -0.17739385  0.10530592 -0.55580336]
 [ 0.5157505   0.781353    0.33543572 -1.8198135  -2.0529616   0.14278273
  -0.40434337 -0.662211    0.97052914 -1.1057565 ]
 [-0.21065556 -0.31829876  0.20416057 -1.3935058   0.7276632  -1.2297983
   0.26397684  0.530608    0.81413215 -1.2016335 ]
 [ 1.0768903  -0.782269   -1.8568776  -0.7253729  -0.9349095   1.4439256
   0.3046473  -1.1166071  -0.93436426 -1.3023323 ]
 [ 0.34088364  1.202146   -0.8213217  -0.5109064  -2.1158435   0.89890236
  -0.7680511   0.20168664 -1.2658983  -0.60756415]
 [ 0.02797452  0.48978388 -1.2643182   0.4627168  -0.9889208   0.31272185
  -1.8766968   0.49745202  0.47777334  0.07301408]
 [-2.1040616   0.76642984 -0.7646131  -0.92618686  0.59112614  0.67436826
  -0.948696    0.6884921  -0.5037457  -0.33076137]
 [-0.28954193  0.01245323  0.38429844 -0.9746943   0.445617   -1.5829086
   0.28901792 -2.1089914   0.38417703  0.6162993 ]
 [ 0.2682302  -1.7055061  -0.8715824   0.30502653  0.3936923   0.9041709
   0.67204946  0.61976343 -1.847995   -0.52855074]
 [-1.6006975   0.46094796 -1.3860244  -2.2288601   0.01252292  0.53115654
   0.38282293 -0.09111723  0.5333037   0.47080863]]
[-0.1094093  -0.00511874  0.03246388 -0.04148332  0.09779197 -0.08352228
 -0.03050185 -0.05214692 -0.06709903  0.08070435]
